{"learner":{"attributes":{"scikit_learn":"{\"_estimator_type\": \"classifier\"}"},"feature_names":[],"feature_types":[],"gradient_booster":{"model":{"cats":{"enc":[],"feature_segments":[],"sorted_idx":[]},"gbtree_model_param":{"num_parallel_tree":"1","num_trees":"200"},"iteration_indptr":[0,1,2,3,4,5,6,7,8,9,10,11,12,13,14,15,16,17,18,19,20,21,22,23,24,25,26,27,28,29,30,31,32,33,34,35,36,37,38,39,40,41,42,43,44,45,46,47,48,49,50,51,52,53,54,55,56,57,58,59,60,61,62,63,64,65,66,67,68,69,70,71,72,73,74,75,76,77,78,79,80,81,82,83,84,85,86,87,88,89,90,91,92,93,94,95,96,97,98,99,100,101,102,103,104,105,106,107,108,109,110,111,112,113,114,115,116,117,118,119,120,121,122,123,124,125,126,127,128,129,130,131,132,133,134,135,136,137,138,139,140,141,142,143,144,145,146,147,148,149,150,151,152,153,154,155,156,157,158,159,160,161,162,163,164,165,166,167,168,169,170,171,172,173,174,175,176,177,178,179,180,181,182,183,184,185,186,187,188,189,190,191,192,193,194,195,196,197,198,199,200],"tree_info":[0,0,0,0,0,0,0,0,0,0,0,0,0,0,0,0,0,0,0,0,0,0,0,0,0,0,0,0,0,0,0,0,0,0,0,0,0,0,0,0,0,0,0,0,0,0,0,0,0,0,0,0,0,0,0,0,0,0,0,0,0,0,0,0,0,0,0,0,0,0,0,0,0,0,0,0,0,0,0,0,0,0,0,0,0,0,0,0,0,0,0,0,0,0,0,0,0,0,0,0,0,0,0,0,0,0,0,0,0,0,0,0,0,0,0,0,0,0,0,0,0,0,0,0,0,0,0,0,0,0,0,0,0,0,0,0,0,0,0,0,0,0,0,0,0,0,0,0,0,0,0,0,0,0,0,0,0,0,0,0,0,0,0,0,0,0,0,0,0,0,0,0,0,0,0,0,0,0,0,0,0,0,0,0,0,0,0,0,0,0,0,0,0,0,0,0,0,0,0,0],"trees":[{"base_weights":[6.158808E-8,1.4420545E0,-8.001665E-1,1.1429047E-1,4.37241E-1,-1.1210285E0,-3.0301642E-1,8.086343E-1,-4.954665E-2,-5.794838E-2,-4.3355942E-1,-1.6946921E-1,-6.0671985E-2,5.407824E-2,-1.2510717E-2,7.944042E-3,-4.279541E-2,3.0324072E-2,-2.0491177E-2],"categories":[],"categories_nodes":[],"categories_segments":[],"categories_sizes":[],"default_left":[0,0,0,0,0,0,0,0,0,0,0,0,0,0,0,0,0,0,0],"id":0,"left_children":[1,3,5,-1,7,9,11,13,-1,-1,15,17,-1,-1,-1,-1,-1,-1,-1],"loss_changes":[2.2226505E2,5.7279648E1,1.9421745E1,0E0,1.8099232E1,1.4515686E0,5.869101E0,7.9093513E0,0E0,0E0,1.516185E0,8.591591E0,0E0,0E0,0E0,0E0,0E0,0E0,0E0],"parents":[2147483647,0,0,1,1,2,2,4,4,5,5,6,6,7,7,10,10,11,11],"right_children":[2,4,6,-1,8,10,12,14,-1,-1,16,18,-1,-1,-1,-1,-1,-1,-1],"split_conditions":[1E0,3E0,1.52458E1,1.1429047E-1,2.345E1,1E0,3E0,2.8E1,-4.954665E-2,-5.794838E-2,2.05E1,1E1,-6.0671985E-2,5.407824E-2,-1.2510717E-2,7.944042E-3,-4.279541E-2,3.0324072E-2,-2.0491177E-2],"split_indices":[5,0,4,0,4,2,2,1,0,0,1,1,0,0,0,0,0,0,0],"split_type":[0,0,0,0,0,0,0,0,0,0,0,0,0,0,0,0,0,0,0],"sum_hessian":[1.9062344E2,6.774025E1,1.2288319E2,3.612813E1,3.1612116E1,7.392006E1,4.8963127E1,2.5432304E1,6.1798124E0,6.9404045E1,4.5160165E0,4.3734055E1,5.2290716E0,2.0203232E1,5.2290716E0,2.1391659E0,2.3768508E0,9.982774E0,3.375128E1],"tree_param":{"num_deleted":"0","num_feature":"7","num_nodes":"19","size_leaf_vector":"1"}},{"base_weights":[-6.582537E-4,1.3518696E0,-7.685675E-1,1.0633793E-1,4.1306224E-1,-1.0112845E0,-1.4469558E-1,7.633238E-1,-4.7901046E-2,-5.6313034E-2,1.845363E-1,5.6322362E-2,-5.8010675E-2,5.093518E-2,-1.2014677E-2,7.767007E-2,-5.5012297E-2,1.5184124E-2,-5.0831806E-2],"categories":[],"categories_nodes":[],"categories_segments":[],"categories_sizes":[],"default_left":[0,0,0,0,0,0,0,0,0,0,0,0,0,0,0,0,0,0,0],"id":1,"left_children":[1,3,5,-1,7,9,11,13,-1,-1,15,17,-1,-1,-1,-1,-1,-1,-1],"loss_changes":[1.9988554E2,4.9823715E1,1.844197E1,0E0,1.646193E1,1.2335548E1,7.322215E0,7.074585E0,0E0,0E0,1.6827394E1,8.437791E0,0E0,0E0,0E0,0E0,0E0,0E0,0E0],"parents":[2147483647,0,0,1,1,2,2,4,4,5,5,6,6,7,7,10,10,11,11],"right_children":[2,4,6,-1,8,10,12,14,-1,-1,16,18,-1,-1,-1,-1,-1,-1,-1],"split_conditions":[1E0,3E0,2.62833E1,1.0633793E-1,2.345E1,1E0,3E0,2.8E1,-4.7901046E-2,-5.6313034E-2,1E1,5.3E1,-5.8010675E-2,5.093518E-2,-1.2014677E-2,7.767007E-2,-5.5012297E-2,1.5184124E-2,-5.0831806E-2],"split_indices":[5,0,4,0,4,3,2,1,0,0,1,1,0,0,0,0,0,0,0],"split_type":[0,0,0,0,0,0,0,0,0,0,0,0,0,0,0,0,0,0,0],"sum_hessian":[1.9045287E2,6.869647E1,1.21756386E2,3.6940502E1,3.175597E1,8.720742E1,3.454896E1,2.5647295E1,6.1086755E0,7.9611115E1,7.5963078E0,2.9628624E1,4.9203367E0,2.0432917E1,5.2143784E0,3.5765803E0,4.0197277E0,2.4660381E1,4.9682426E0],"tree_param":{"num_deleted":"0","num_feature":"7","num_nodes":"19","size_leaf_vector":"1"}},{"base_weights":[-1.1938872E-3,1.2730474E0,-7.387535E-1,9.965409E-2,3.9069563E-1,-9.7423756E-1,-1.4042315E-1,7.216136E-1,-4.6341766E-2,-5.4329664E-2,1.7750189E-1,5.223304E-2,-5.6329932E-2,6.0430706E-2,1.0201631E-2,7.372798E-2,-5.3397823E-2,1.4406273E-2,-4.923336E-2],"categories":[],"categories_nodes":[],"categories_segments":[],"categories_sizes":[],"default_left":[0,0,0,0,0,0,0,0,0,0,0,0,0,0,0,0,0,0,0],"id":2,"left_children":[1,3,5,-1,7,9,11,13,-1,-1,15,17,-1,-1,-1,-1,-1,-1,-1],"loss_changes":[1.803623E2,4.3921173E1,1.6989456E1,0E0,1.4995216E1,1.1458145E1,6.802962E0,6.514988E0,0E0,0E0,1.5462965E1,7.780887E0,0E0,0E0,0E0,0E0,0E0,0E0,0E0],"parents":[2147483647,0,0,1,1,2,2,4,4,5,5,6,6,7,7,10,10,11,11],"right_children":[2,4,6,-1,8,10,12,14,-1,-1,16,18,-1,-1,-1,-1,-1,-1,-1],"split_conditions":[1E0,3E0,2.62833E1,9.965409E-2,2.345E1,1E0,3E0,1.7E1,-4.6341766E-2,-5.4329664E-2,1E1,5.3E1,-5.6329932E-2,6.0430706E-2,1.0201631E-2,7.372798E-2,-5.3397823E-2,1.4406273E-2,-4.923336E-2],"split_indices":[5,0,4,0,4,3,2,1,0,0,1,1,0,0,0,0,0,0,0],"split_type":[0,0,0,0,0,0,0,0,0,0,0,0,0,0,0,0,0,0,0],"sum_hessian":[1.8990904E2,6.9357635E1,1.20551414E2,3.749852E1,3.1859116E1,8.605472E1,3.4496693E1,2.5825056E1,6.0340576E0,7.845751E1,7.5972075E0,2.9651167E1,4.845526E0,1.2617717E1,1.320734E1,3.6314046E0,3.965803E0,2.4744076E1,4.907092E0],"tree_param":{"num_deleted":"0","num_feature":"7","num_nodes":"19","size_leaf_vector":"1"}},{"base_weights":[-1.4815592E-3,1.2038435E0,-7.1068174E-1,9.395056E-2,3.7095124E-1,-9.394758E-1,-1.3634324E-1,6.8429226E-1,-4.4860065E-2,-5.2463114E-2,1.7090572E-1,4.8395436E-2,-5.4750573E-2,4.5820147E-2,-1.1942776E-2,7.0170105E-2,-5.187544E-2,1.3671878E-2,-4.771934E-2],"categories":[],"categories_nodes":[],"categories_segments":[],"categories_sizes":[],"default_left":[0,0,0,0,0,0,0,0,0,0,0,0,0,0,0,0,0,0,0],"id":3,"left_children":[1,3,5,-1,7,9,11,13,-1,-1,15,17,-1,-1,-1,-1,-1,-1,-1],"loss_changes":[1.6329826E2,3.9097153E1,1.567564E1,0E0,1.3698337E1,1.064315E1,6.3279533E0,5.998088E0,0E0,0E0,1.4239513E1,7.180908E0,0E0,0E0,0E0,0E0,0E0,0E0,0E0],"parents":[2147483647,0,0,1,1,2,2,4,4,5,5,6,6,7,7,10,10,11,11],"right_children":[2,4,6,-1,8,10,12,14,-1,-1,16,18,-1,-1,-1,-1,-1,-1,-1],"split_conditions":[1E0,3E0,2.62833E1,9.395056E-2,2.345E1,1E0,3E0,2.8E1,-4.4860065E-2,-5.2463114E-2,1E1,5.3E1,-5.4750573E-2,4.5820147E-2,-1.1942776E-2,7.0170105E-2,-5.187544E-2,1.3671878E-2,-4.771934E-2],"split_indices":[5,0,4,0,4,3,2,1,0,0,1,1,0,0,0,0,0,0,0],"split_type":[0,0,0,0,0,0,0,0,0,0,0,0,0,0,0,0,0,0,0],"sum_hessian":[1.8903221E2,6.976509E1,1.1926711E2,3.7837143E1,3.1927952E1,8.4836E1,3.443111E1,2.5971256E1,5.956696E0,7.725284E1,7.5831604E0,2.966423E1,4.7668815E0,2.0759035E1,5.21222E0,3.6742895E0,3.908871E0,2.4821228E1,4.8430023E0],"tree_param":{"num_deleted":"0","num_feature":"7","num_nodes":"19","size_leaf_vector":"1"}},{"base_weights":[-1.9061763E-3,1.1415744E0,-6.841591E-1,8.902004E-2,3.5149142E-1,-9.0672386E-1,-1.3244043E-1,6.483424E-1,-4.344842E-2,-5.069932E-2,1.6470018E-1,8.999327E-1,-2.930767E-1,5.9512425E-2,1.2110213E-2,6.6939704E-2,-5.043548E-2,8.083191E-2,-4.092285E-2,-5.8721616E-3,-5.3261396E-2],"categories":[],"categories_nodes":[],"categories_segments":[],"categories_sizes":[],"default_left":[0,0,0,0,0,0,0,0,0,0,0,0,0,0,0,0,0,0,0,0,0],"id":4,"left_children":[1,3,5,-1,7,9,11,13,-1,-1,15,17,19,-1,-1,-1,-1,-1,-1,-1,-1],"loss_changes":[1.4813046E2,3.518695E1,1.4482479E1,0E0,1.25075035E1,9.88562E0,6.126762E0,5.67408E0,0E0,0E0,1.31378765E1,7.488467E0,4.1261916E0,0E0,0E0,0E0,0E0,0E0,0E0,0E0,0E0],"parents":[2147483647,0,0,1,1,2,2,4,4,5,5,6,6,7,7,10,10,11,11,12,12],"right_children":[2,4,6,-1,8,10,12,14,-1,-1,16,18,20,-1,-1,-1,-1,-1,-1,-1,-1],"split_conditions":[1E0,3E0,2.62833E1,8.902004E-2,2.345E1,1E0,2.7E1,6E0,-4.344842E-2,-5.069932E-2,1E1,5.2E1,3E0,5.9512425E-2,1.2110213E-2,6.6939704E-2,-5.043548E-2,8.083191E-2,-4.092285E-2,-5.8721616E-3,-5.3261396E-2],"split_indices":[5,0,4,0,4,3,4,1,0,0,1,1,2,0,0,0,0,0,0,0,0],"split_type":[0,0,0,0,0,0,0,0,0,0,0,0,0,0,0,0,0,0,0,0,0],"sum_hessian":[1.8787492E2,6.995484E1,1.1792008E2,3.798688E1,3.1967957E1,8.356592E1,3.435416E1,2.6090715E1,5.877241E0,7.601001E1,7.5559125E0,4.006027E0,3.0348135E1,1.0350069E1,1.5740647E1,3.706404E0,3.8495085E0,2.868745E0,1.1372819E0,2.5662943E1,4.6851926E0],"tree_param":{"num_deleted":"0","num_feature":"7","num_nodes":"21","size_leaf_vector":"1"}},{"base_weights":[-1.7147019E-3,1.0860336E0,-6.584545E-1,8.470944E-2,3.344924E-1,-8.757484E-1,-1.2680107E-1,6.162887E-1,-4.210027E-2,-4.902634E-2,1.5884322E-1,8.573447E-1,-2.8143564E-1,4.1501723E-2,-1.1949413E-2,6.399034E-2,-4.9069542E-2,7.6930046E-2,-4.0109534E-2,-5.596716E-3,-5.1852703E-2],"categories":[],"categories_nodes":[],"categories_segments":[],"categories_sizes":[],"default_left":[0,0,0,0,0,0,0,0,0,0,0,0,0,0,0,0,0,0,0,0,0],"id":5,"left_children":[1,3,5,-1,7,9,11,13,-1,-1,15,17,19,-1,-1,-1,-1,-1,-1,-1,-1],"loss_changes":[1.3464642E2,3.1864975E1,1.346595E1,0E0,1.1454074E1,9.1810875E0,5.6083093E0,5.168541E0,0E0,0E0,1.2142178E1,6.9278154E0,3.883917E0,0E0,0E0,0E0,0E0,0E0,0E0,0E0,0E0],"parents":[2147483647,0,0,1,1,2,2,4,4,5,5,6,6,7,7,10,10,11,11,12,12],"right_children":[2,4,6,-1,8,10,12,14,-1,-1,16,18,20,-1,-1,-1,-1,-1,-1,-1,-1],"split_conditions":[1E0,3E0,2.62833E1,8.470944E-2,2.345E1,1E0,2.7E1,2.8E1,-4.210027E-2,-4.902634E-2,1E1,5.2E1,3E0,4.1501723E-2,-1.1949413E-2,6.399034E-2,-4.9069542E-2,7.6930046E-2,-4.0109534E-2,-5.596716E-3,-5.1852703E-2],"split_indices":[5,0,4,0,4,3,4,1,0,0,1,1,2,0,0,0,0,0,0,0,0],"split_type":[0,0,0,0,0,0,0,0,0,0,0,0,0,0,0,0,0,0,0,0,0],"sum_hessian":[1.8648235E2,6.995811E1,1.1652425E2,3.7974472E1,3.1983635E1,8.225734E1,3.4266907E1,2.6187368E1,5.7962666E0,7.4740265E1,7.5170717E0,4.0360184E0,3.0230886E1,2.0974949E1,5.2124205E0,3.7288418E0,3.7882297E0,2.9130528E0,1.1229656E0,2.5629728E1,4.601159E0],"tree_param":{"num_deleted":"0","num_feature":"7","num_nodes":"21","size_leaf_vector":"1"}},{"base_weights":[-1.7403115E-3,1.0350962E0,-6.340521E-1,8.090325E-2,3.1735364E-1,-8.463505E-1,-1.2149669E-1,5.8489966E-1,-4.080992E-2,-4.7434006E-2,1.5329829E-1,4.239237E-2,-5.0516088E-2,5.440677E-2,1.0369551E-2,6.1283763E-2,-4.777033E-2,1.2565958E-2,-4.546032E-2],"categories":[],"categories_nodes":[],"categories_segments":[],"categories_sizes":[],"default_left":[0,0,0,0,0,0,0,0,0,0,0,0,0,0,0,0,0,0,0],"id":6,"left_children":[1,3,5,-1,7,9,11,13,-1,-1,15,17,-1,-1,-1,-1,-1,-1,-1],"loss_changes":[1.2252583E2,2.9110268E1,1.2529476E1,0E0,1.0478115E1,8.525478E0,5.165793E0,4.9533043E0,0E0,0E0,1.1239176E1,6.3227997E0,0E0,0E0,0E0,0E0,0E0,0E0,0E0],"parents":[2147483647,0,0,1,1,2,2,4,4,5,5,6,6,7,7,10,10,11,11],"right_children":[2,4,6,-1,8,10,12,14,-1,-1,16,18,-1,-1,-1,-1,-1,-1,-1],"split_conditions":[1E0,3E0,2.62833E1,8.090325E-2,2.345E1,1E0,3E0,6E0,-4.080992E-2,-4.7434006E-2,1E1,5.3E1,-5.0516088E-2,5.440677E-2,1.0369551E-2,6.1283763E-2,-4.777033E-2,1.2565958E-2,-4.546032E-2],"split_indices":[5,0,4,0,4,3,2,1,0,0,1,1,0,0,0,0,0,0,0],"split_type":[0,0,0,0,0,0,0,0,0,0,0,0,0,0,0,0,0,0,0],"sum_hessian":[1.8488896E2,6.979888E1,1.1509008E2,3.7823387E1,3.1975498E1,8.0921486E1,3.416859E1,2.6261219E1,5.714279E0,7.345338E1,7.468111E0,2.965319E1,4.5154004E0,1.0449355E1,1.5811864E1,3.74262E0,3.725491E0,2.491821E1,4.734981E0],"tree_param":{"num_deleted":"0","num_feature":"7","num_nodes":"19","size_leaf_vector":"1"}},{"base_weights":[-1.8944312E-3,9.8905146E-1,-6.112927E-1,7.7512585E-2,3.0236968E-1,-8.1835985E-1,-1.18225835E-1,5.5683994E-1,-7.914474E-1,-9.182723E-1,1.480335E-1,8.228978E-1,-2.6735532E-1,4.7730844E-2,6.5593496E-3,-1.8517746E-2,-4.5638096E-2,-5.116492E-2,-4.0171023E-2,5.878821E-2,-4.6531443E-2,7.285111E-2,-3.8457822E-2,-5.5446913E-3,-4.9244262E-2],"categories":[],"categories_nodes":[],"categories_segments":[],"categories_sizes":[],"default_left":[0,0,0,0,0,0,0,0,0,0,0,0,0,0,0,0,0,0,0,0,0,0,0,0,0],"id":7,"left_children":[1,3,5,-1,7,9,11,13,15,17,19,21,23,-1,-1,-1,-1,-1,-1,-1,-1,-1,-1,-1,-1],"loss_changes":[1.1180728E2,2.6700935E1,1.1608086E1,0E0,9.611957E0,7.915169E0,5.1427565E0,4.5000467E0,7.328987E-4,6.0325623E-2,1.0417731E1,6.2118196E0,3.374621E0,0E0,0E0,0E0,0E0,0E0,0E0,0E0,0E0,0E0,0E0,0E0,0E0],"parents":[2147483647,0,0,1,1,2,2,4,4,5,5,6,6,7,7,8,8,9,9,10,10,11,11,12,12],"right_children":[2,4,6,-1,8,10,12,14,16,18,20,22,24,-1,-1,-1,-1,-1,-1,-1,-1,-1,-1,-1,-1],"split_conditions":[1E0,3E0,2.62833E1,7.7512585E-2,2.345E1,1E0,2.7E1,1.7E1,6E0,7.925E0,1E1,5.2E1,3E0,4.7730844E-2,6.5593496E-3,-1.8517746E-2,-4.5638096E-2,-5.116492E-2,-4.0171023E-2,5.878821E-2,-4.6531443E-2,7.285111E-2,-3.8457822E-2,-5.5446913E-3,-4.9244262E-2],"split_indices":[5,0,4,0,4,3,4,1,1,4,1,1,2,0,0,0,0,0,0,0,0,0,0,0,0],"split_type":[0,0,0,0,0,0,0,0,0,0,0,0,0,0,0,0,0,0,0,0,0,0,0,0,0],"sum_hessian":[1.8314677E2,6.950359E1,1.1364317E2,3.755426E1,3.1949337E1,7.9568184E1,3.4074993E1,2.6317616E1,5.6317215E0,7.215781E1,7.4103785E0,4.0429306E0,3.0032063E1,1.2961888E1,1.3355726E1,2.1660466E0,3.4656746E0,3.355958E1,3.859822E1,3.7486806E0,3.661698E0,2.9519634E0,1.0909675E0,2.5603601E1,4.428462E0],"tree_param":{"num_deleted":"0","num_feature":"7","num_nodes":"25","size_leaf_vector":"1"}},{"base_weights":[-2.1175013E-3,9.461515E-1,-5.8938175E-1,7.446789E-2,2.871972E-1,-7.9203063E-1,-1.1335279E-1,5.302233E-1,-7.7032334E-1,-8.8957214E-1,1.4302096E-1,7.8705907E-1,-2.568126E-1,3.617258E-2,-1.2146872E-2,-4.477265E-2,-1.7410744E-2,-4.9679462E-2,-3.8819138E-2,5.647711E-2,-4.5347285E-2,6.9706194E-2,-3.7735984E-2,-5.284336E-3,-4.8030805E-2],"categories":[],"categories_nodes":[],"categories_segments":[],"categories_sizes":[],"default_left":[0,0,0,0,0,0,0,0,0,0,0,0,0,0,0,0,0,0,0,0,0,0,0,0,0],"id":8,"left_children":[1,3,5,-1,7,9,11,13,15,17,19,21,23,-1,-1,-1,-1,-1,-1,-1,-1,-1,-1,-1,-1],"loss_changes":[1.02069695E2,2.466404E1,1.0828972E1,0E0,8.867428E0,7.3528595E0,4.7185097E0,4.2625813E0,3.457737E-2,7.4855804E-2,9.668407E0,5.779817E0,3.1864445E0,0E0,0E0,0E0,0E0,0E0,0E0,0E0,0E0,0E0,0E0,0E0,0E0],"parents":[2147483647,0,0,1,1,2,2,4,4,5,5,6,6,7,7,8,8,9,9,10,10,11,11,12,12],"right_children":[2,4,6,-1,8,10,12,14,16,18,20,22,24,-1,-1,-1,-1,-1,-1,-1,-1,-1,-1,-1,-1],"split_conditions":[1E0,3E0,2.62833E1,7.446789E-2,2.345E1,1E0,2.7E1,2.8E1,3.13875E1,7.925E0,1E1,5.2E1,3E0,3.617258E-2,-1.2146872E-2,-4.477265E-2,-1.7410744E-2,-4.9679462E-2,-3.8819138E-2,5.647711E-2,-4.5347285E-2,6.9706194E-2,-3.7735984E-2,-5.284336E-3,-4.8030805E-2],"split_indices":[5,0,4,0,4,3,4,1,4,4,1,1,2,0,0,0,0,0,0,0,0,0,0,0,0],"split_type":[0,0,0,0,0,0,0,0,0,0,0,0,0,0,0,0,0,0,0,0,0,0,0,0,0],"sum_hessian":[1.8128564E2,6.909892E1,1.1218672E2,3.7185238E1,3.1913683E1,7.822287E1,3.396385E1,2.6355587E1,5.5580945E0,7.087777E1,7.3450985E0,4.0511193E0,2.9912731E1,2.113726E1,5.2183275E0,3.4222288E0,2.1358657E0,3.2882137E1,3.7995636E1,3.74789E0,3.5972085E0,2.9753604E0,1.0757588E0,2.5571907E1,4.340824E0],"tree_param":{"num_deleted":"0","num_feature":"7","num_nodes":"25","size_leaf_vector":"1"}},{"base_weights":[-2.4830815E-3,9.060588E-1,-5.684362E-1,7.1713984E-2,2.7201995E-1,-7.6682204E-1,-1.0875166E-1,-1.4475979E-1,8.731775E-1,-8.620186E-1,1.3823593E-1,7.538933E-1,-2.4671258E-1,1.4217356E-2,-3.8660195E-2,6.017795E-2,-1.3023389E-2,-4.5313552E-2,-3.1654116E-2,5.432809E-2,-4.4212934E-2,6.683513E-2,-3.7039425E-2,-5.0360016E-3,-4.687015E-2],"categories":[],"categories_nodes":[],"categories_segments":[],"categories_sizes":[],"default_left":[0,0,0,0,0,0,0,0,0,0,0,0,0,0,0,0,0,0,0,0,0,0,0,0,0],"id":9,"left_children":[1,3,5,-1,7,9,11,13,15,17,19,21,23,-1,-1,-1,-1,-1,-1,-1,-1,-1,-1,-1,-1],"loss_changes":[9.323256E1,2.291851E1,1.0104961E1,0E0,8.360481E0,6.828781E0,4.332971E0,5.685009E0,5.4063797E0,1.4152527E-1,8.983153E0,5.390153E0,3.0107484E0,0E0,0E0,0E0,0E0,0E0,0E0,0E0,0E0,0E0,0E0,0E0,0E0],"parents":[2147483647,0,0,1,1,2,2,4,4,5,5,6,6,7,7,8,8,9,9,10,10,11,11,12,12],"right_children":[2,4,6,-1,8,10,12,14,16,18,20,22,24,-1,-1,-1,-1,-1,-1,-1,-1,-1,-1,-1,-1],"split_conditions":[1E0,3E0,2.62833E1,7.1713984E-2,1E0,1E0,2.7E1,1.78E1,1.7E1,1E0,1E1,5.2E1,3E0,1.4217356E-2,-3.8660195E-2,6.017795E-2,-1.3023389E-2,-4.5313552E-2,-3.1654116E-2,5.432809E-2,-4.4212934E-2,6.683513E-2,-3.7039425E-2,-5.0360016E-3,-4.687015E-2],"split_indices":[5,0,4,0,6,3,4,4,1,6,1,1,2,0,0,0,0,0,0,0,0,0,0,0,0],"split_type":[0,0,0,0,0,0,0,0,0,0,0,0,0,0,0,0,0,0,0,0,0,0,0,0,0],"sum_hessian":[1.7931691E2,6.8596275E1,1.1072064E2,3.6732292E1,3.1863981E1,7.687541E1,3.384523E1,1.926609E1,1.2597892E1,6.960203E1,7.2733817E0,4.050932E0,2.97943E1,1.1774143E1,7.4919467E0,9.707218E0,2.8906732E0,5.584818E1,1.3753848E1,3.7410443E0,3.5323377E0,2.9905467E0,1.0603855E0,2.5541391E1,4.2529073E0],"tree_param":{"num_deleted":"0","num_feature":"7","num_nodes":"25","size_leaf_vector":"1"}},{"base_weights":[-2.4398938E-3,8.6986125E-1,-5.4830265E-1,1.3841287E0,2.5966737E-1,-7.425274E-1,-1.04400456E-1,7.01661E-2,2.1845762E-2,-1.3933285E-1,8.3322513E-1,-8.353946E-1,1.3365723E-1,3.6065295E-2,-4.575737E-2,1.0813537E-2,-4.225528E-2,5.743854E-2,-1.2559915E-2,-4.709808E-2,-3.605119E-2,5.232221E-2,-4.3124046E-2,1.1414484E-2,-4.3053355E-2],"categories":[],"categories_nodes":[],"categories_segments":[],"categories_sizes":[],"default_left":[0,0,0,0,0,0,0,0,0,0,0,0,0,0,0,0,0,0,0,0,0,0,0,0,0],"id":10,"left_children":[1,3,5,7,9,11,13,-1,-1,15,17,19,21,23,-1,-1,-1,-1,-1,-1,-1,-1,-1,-1,-1],"loss_changes":[8.534992E1,2.129139E1,9.427971E0,6.333923E-2,7.6190343E0,6.338852E0,3.9870355E0,0E0,0E0,5.250384E0,4.940157E0,1.6588593E-1,8.355061E0,5.4658537E0,0E0,0E0,0E0,0E0,0E0,0E0,0E0,0E0,0E0,0E0,0E0],"parents":[2147483647,0,0,1,1,2,2,3,3,4,4,5,5,6,6,9,9,10,10,11,11,12,12,13,13],"right_children":[2,4,6,8,10,12,14,-1,-1,16,18,20,22,24,-1,-1,-1,-1,-1,-1,-1,-1,-1,-1,-1],"split_conditions":[1E0,3E0,2.62833E1,5.7E1,1E0,1E0,3E0,7.01661E-2,2.1845762E-2,2.0575E1,1.7E1,7.925E0,1E1,5.3E1,-4.575737E-2,1.0813537E-2,-4.225528E-2,5.743854E-2,-1.2559915E-2,-4.709808E-2,-3.605119E-2,5.232221E-2,-4.3124046E-2,1.1414484E-2,-4.3053355E-2],"split_indices":[5,0,4,1,6,3,2,0,0,4,1,4,1,1,0,0,0,0,0,0,0,0,0,0,0],"split_type":[0,0,0,0,0,0,0,0,0,0,0,0,0,0,0,0,0,0,0,0,0,0,0,0,0],"sum_hessian":[1.772459E2,6.799491E1,1.0925098E2,3.6209465E1,3.1785448E1,7.553061E1,3.3720364E1,3.5018364E1,1.1911008E0,1.9191673E1,1.2593774E1,6.833438E1,7.1962333E0,2.9555286E1,4.1650777E0,1.322289E1,5.9687843E0,9.70924E0,2.8845341E0,3.1628199E1,3.670618E1,3.7288716E0,3.4673615E0,2.4954035E1,4.6012506E0],"tree_param":{"num_deleted":"0","num_feature":"7","num_nodes":"25","size_leaf_vector":"1"}},{"base_weights":[-2.6803878E-3,8.3629805E-1,-5.294447E-1,1.3386192E0,2.477701E-1,-7.1925014E-1,-1.0182592E-1,6.785531E-2,2.1309527E-2,-1.345293E-1,7.9608196E-1,-8.0981725E-1,1.2926586E-1,7.277037E-1,-2.3477447E-1,1.3031621E-2,-3.6355432E-2,5.4909553E-2,-1.21131865E-2,-4.273351E-2,-2.9073074E-2,5.044334E-2,-4.2076796E-2,6.376275E-2,-3.55977E-2,-5.6029737E-2,-6.152481E-3],"categories":[],"categories_nodes":[],"categories_segments":[],"categories_sizes":[],"default_left":[0,0,0,0,0,0,0,0,0,0,0,0,0,0,0,0,0,0,0,0,0,0,0,0,0,0,0],"id":11,"left_children":[1,3,5,7,9,11,13,-1,-1,15,17,19,21,23,25,-1,-1,-1,-1,-1,-1,-1,-1,-1,-1,-1,-1],"loss_changes":[7.828526E1,1.986673E1,8.758532E0,3.955841E-2,6.95935E0,5.883438E0,3.9884405E0,0E0,0E0,4.8998876E0,4.5239305E0,2.0037842E-1,7.778166E0,4.8694234E0,2.8895795E0,0E0,0E0,0E0,0E0,0E0,0E0,0E0,0E0,0E0,0E0,0E0,0E0],"parents":[2147483647,0,0,1,1,2,2,3,3,4,4,5,5,6,6,9,9,10,10,11,11,12,12,13,13,14,14],"right_children":[2,4,6,8,10,12,14,-1,-1,16,18,20,22,24,26,-1,-1,-1,-1,-1,-1,-1,-1,-1,-1,-1,-1],"split_conditions":[1E0,3E0,2.62833E1,5.7E1,1E0,1E0,2.7E1,6.785531E-2,2.1309527E-2,1.78E1,1.7E1,1E0,1E1,5.2E1,2.87125E1,1.3031621E-2,-3.6355432E-2,5.4909553E-2,-1.21131865E-2,-4.273351E-2,-2.9073074E-2,5.044334E-2,-4.2076796E-2,6.376275E-2,-3.55977E-2,-5.6029737E-2,-6.152481E-3],"split_indices":[5,0,4,1,6,3,4,0,0,4,1,6,1,1,4,0,0,0,0,0,0,0,0,0,0,0,0],"split_type":[0,0,0,0,0,0,0,0,0,0,0,0,0,0,0,0,0,0,0,0,0,0,0,0,0,0,0],"sum_hessian":[1.751366E2,6.7323204E1,1.078134E2,3.563416E1,3.1689041E1,7.419761E1,3.3615795E1,3.444883E1,1.1853315E0,1.9115673E1,1.2573369E1,6.7083046E1,7.1145577E0,4.025458E0,2.9590336E1,1.1804207E1,7.3114657E0,9.6949625E0,2.878407E0,5.3777527E1,1.3305523E1,3.7120354E0,3.4025226E0,2.9990225E0,1.0264356E0,2.302759E0,2.7287577E1],"tree_param":{"num_deleted":"0","num_feature":"7","num_nodes":"27","size_leaf_vector":"1"}},{"base_weights":[-2.5584311E-3,8.0500907E-1,-5.1075804E-1,1.2967074E0,2.3675527E-1,-9.159726E-3,-6.642935E-1,6.573003E-2,2.0788757E-2,4.4009733E-1,-6.898666E-1,1.9717363E-1,-4.1169513E-2,-3.60977E-1,-7.8631353E-1,3.0434156E-2,-1.1628332E-2,-4.137659E-2,-1.3437082E-2,-4.3328974E-2,1.6703175E-2,-5.067702E-2,1.3815594E-2,-3.3315197E-2,-4.958162E-2],"categories":[],"categories_nodes":[],"categories_segments":[],"categories_sizes":[],"default_left":[0,0,0,0,0,0,0,0,0,0,0,0,0,0,0,0,0,0,0,0,0,0,0,0,0],"id":12,"left_children":[1,3,5,7,9,11,13,-1,-1,15,17,19,-1,21,23,-1,-1,-1,-1,-1,-1,-1,-1,-1,-1],"loss_changes":[7.181687E1,1.8578022E1,8.265055E0,2.1064758E-2,6.4418197E0,4.5612974E0,2.7590065E0,0E0,0E0,3.2402802E0,1.4005518E-1,3.4489202E0,0E0,1.0857544E1,7.630043E-1,0E0,0E0,0E0,0E0,0E0,0E0,0E0,0E0,0E0,0E0],"parents":[2147483647,0,0,1,1,2,2,3,3,4,4,5,5,6,6,9,9,10,10,11,11,13,13,14,14],"right_children":[2,4,6,8,10,12,14,-1,-1,16,18,20,-1,22,24,-1,-1,-1,-1,-1,-1,-1,-1,-1,-1],"split_conditions":[1E0,3E0,2E0,5.7E1,2.345E1,5.3E1,1.3E1,6.573003E-2,2.0788757E-2,2.8E1,3.13875E1,2.625E1,-4.1169513E-2,8.1125E0,3.25E1,3.0434156E-2,-1.1628332E-2,-4.137659E-2,-1.3437082E-2,-4.3328974E-2,1.6703175E-2,-5.067702E-2,1.3815594E-2,-3.3315197E-2,-4.958162E-2],"split_indices":[5,0,0,1,4,1,1,0,0,1,4,4,0,4,1,0,0,0,0,0,0,0,0,0,0],"split_type":[0,0,0,0,0,0,0,0,0,0,0,0,0,0,0,0,0,0,0,0,0,0,0,0,0],"sum_hessian":[1.7298816E2,6.658907E1,1.0639909E2,3.5011997E1,3.1577072E1,2.5183752E1,8.121534E1,3.3832523E1,1.1794734E0,2.6325203E1,5.251869E0,2.0696829E1,4.4869227E0,2.4434525E1,5.6780815E1,2.112571E1,5.199495E0,3.2307053E0,2.021164E0,1.7519752E0,1.8944855E1,1.1780884E1,1.2653642E1,3.851429E1,1.8266525E1],"tree_param":{"num_deleted":"0","num_feature":"7","num_nodes":"25","size_leaf_vector":"1"}},{"base_weights":[-3.3163042E-3,7.743925E-1,-4.9318248E-1,1.2579023E0,2.2439393E-1,-1.1416192E-2,-6.4257073E-1,6.376479E-2,2.0282827E-2,-1.3555263E-1,7.399617E-1,1.858623E-1,-4.001608E-2,-3.479975E-1,-7.6194215E-1,9.117722E-3,-3.9398454E-2,5.139158E-2,-1.2116304E-2,-4.251864E-2,1.5864542E-2,-4.9480718E-2,1.3131896E-2,-3.2175988E-2,-4.8307035E-2],"categories":[],"categories_nodes":[],"categories_segments":[],"categories_sizes":[],"default_left":[0,0,0,0,0,0,0,0,0,0,0,0,0,0,0,0,0,0,0,0,0,0,0,0,0],"id":13,"left_children":[1,3,5,7,9,11,13,-1,-1,15,17,19,-1,21,23,-1,-1,-1,-1,-1,-1,-1,-1,-1,-1],"loss_changes":[6.588872E1,1.7492256E1,7.6291885E0,6.7214966E-3,6.129088E0,4.2158623E0,2.5821953E0,0E0,0E0,4.2868195E0,4.0695777E0,3.2273986E0,0E0,1.0129849E1,7.5136566E-1,0E0,0E0,0E0,0E0,0E0,0E0,0E0,0E0,0E0,0E0],"parents":[2147483647,0,0,1,1,2,2,3,3,4,4,5,5,6,6,9,9,10,10,11,11,13,13,14,14],"right_children":[2,4,6,8,10,12,14,-1,-1,16,18,20,-1,22,24,-1,-1,-1,-1,-1,-1,-1,-1,-1,-1],"split_conditions":[1E0,3E0,2E0,5.7E1,1E0,5.3E1,1.3E1,6.376479E-2,2.0282827E-2,2.0575E1,1.7E1,2.625E1,-4.001608E-2,8.1125E0,3.25E1,9.117722E-3,-3.9398454E-2,5.139158E-2,-1.2116304E-2,-4.251864E-2,1.5864542E-2,-4.9480718E-2,1.3131896E-2,-3.2175988E-2,-4.8307035E-2],"split_indices":[5,0,0,1,6,1,1,0,0,4,1,4,0,4,1,0,0,0,0,0,0,0,0,0,0],"split_type":[0,0,0,0,0,0,0,0,0,0,0,0,0,0,0,0,0,0,0,0,0,0,0,0,0],"sum_hessian":[1.7094594E2,6.583919E1,1.0510675E2,3.4352463E1,3.1486727E1,2.5132538E1,7.997421E1,3.3178917E1,1.173544E0,1.8975767E1,1.251096E1,2.071646E1,4.4160795E0,2.4191654E1,5.5782555E1,1.3243176E1,5.7325916E0,9.6396055E0,2.8713536E0,1.7160673E0,1.9000391E1,1.1493932E1,1.2697722E1,3.7934402E1,1.7848152E1],"tree_param":{"num_deleted":"0","num_feature":"7","num_nodes":"25","size_leaf_vector":"1"}},{"base_weights":[-3.769629E-3,7.4654245E-1,-4.7626927E-1,6.1089676E-2,2.1429943E-1,-1.352391E-2,-6.21605E-1,-1.3090385E-1,7.0870274E-1,1.7516832E-1,-3.8905937E-2,-3.3556238E-1,-7.383557E-1,8.686908E-3,-3.8249265E-2,4.9283724E-2,-1.1685717E-2,-4.1737832E-2,1.5071857E-2,-4.833101E-2,1.2484681E-2,-3.1072656E-2,-4.708079E-2],"categories":[],"categories_nodes":[],"categories_segments":[],"categories_sizes":[],"default_left":[0,0,0,0,0,0,0,0,0,0,0,0,0,0,0,0,0,0,0,0,0,0,0],"id":14,"left_children":[1,3,5,-1,7,9,11,13,15,17,-1,19,21,-1,-1,-1,-1,-1,-1,-1,-1,-1,-1],"loss_changes":[6.0569622E1,1.6437508E1,7.0415745E0,0E0,5.6147423E0,3.8984632E0,2.415556E0,3.9762146E0,3.7433467E0,3.022851E0,0E0,9.455769E0,7.407646E-1,0E0,0E0,0E0,0E0,0E0,0E0,0E0,0E0,0E0,0E0],"parents":[2147483647,0,0,1,1,2,2,4,4,5,5,6,6,7,7,8,8,9,9,11,11,12,12],"right_children":[2,4,6,-1,8,10,12,14,16,18,-1,20,22,-1,-1,-1,-1,-1,-1,-1,-1,-1,-1],"split_conditions":[1E0,3E0,2E0,6.1089676E-2,1E0,5.3E1,1.3E1,2.0575E1,1.7E1,2.625E1,-3.8905937E-2,8.1125E0,3.25E1,8.686908E-3,-3.8249265E-2,4.9283724E-2,-1.1685717E-2,-4.1737832E-2,1.5071857E-2,-4.833101E-2,1.2484681E-2,-3.1072656E-2,-4.708079E-2],"split_indices":[5,0,0,0,6,1,1,4,1,4,0,4,1,0,0,0,0,0,0,0,0,0,0],"split_type":[0,0,0,0,0,0,0,0,0,0,0,0,0,0,0,0,0,0,0,0,0,0,0],"sum_hessian":[1.6884569E2,6.501858E1,1.038271E2,3.3663853E1,3.1354727E1,2.5076668E1,7.8750435E1,1.8896208E1,1.2458519E1,2.0731339E1,4.345329E0,2.3948961E1,5.4801476E1,1.3254252E1,5.641955E0,9.59322E0,2.8653E0,1.6803769E0,1.905096E1,1.1210025E1,1.2738935E1,3.7367466E1,1.743401E1],"tree_param":{"num_deleted":"0","num_feature":"7","num_nodes":"23","size_leaf_vector":"1"}},{"base_weights":[-4.3236013E-3,7.199086E-1,-4.5997474E-1,1.1875381E0,2.047144E-1,-1.54917585E-2,-6.013434E-1,6.0255725E-2,1.8321188E-2,-1.2643956E-1,6.792781E-1,1.650519E-1,-7.5671476E-1,-3.236341E-1,-7.154972E-1,1.0685196E-2,-3.2887448E-2,4.7307696E-2,-1.1270574E-2,-4.098446E-2,1.4322084E-2,-4.1441023E-2,-1.186091E-2,4.798509E-2,-2.9691307E-2,-4.6597373E-2,-3.0163039E-2],"categories":[],"categories_nodes":[],"categories_segments":[],"categories_sizes":[],"default_left":[0,0,0,0,0,0,0,0,0,0,0,0,0,0,0,0,0,0,0,0,0,0,0,0,0,0,0],"id":15,"left_children":[1,3,5,7,9,11,13,-1,-1,15,17,19,21,23,25,-1,-1,-1,-1,-1,-1,-1,-1,-1,-1,-1,-1],"loss_changes":[5.5680706E1,1.5456051E1,6.49823E0,4.839325E-2,5.1483006E0,3.606562E0,2.2585068E0,0E0,0E0,3.7218213E0,3.4477687E0,2.8337774E0,9.799004E-4,9.137142E0,7.7004623E-1,0E0,0E0,0E0,0E0,0E0,0E0,0E0,0E0,0E0,0E0,0E0,0E0],"parents":[2147483647,0,0,1,1,2,2,3,3,4,4,5,5,6,6,9,9,10,10,11,11,12,12,13,13,14,14],"right_children":[2,4,6,8,10,12,14,-1,-1,16,18,20,22,24,26,-1,-1,-1,-1,-1,-1,-1,-1,-1,-1,-1,-1],"split_conditions":[1E0,3E0,2E0,5.7E1,1E0,5.3E1,1.3E1,6.0255725E-2,1.8321188E-2,1.78E1,1.7E1,2.625E1,6.33583E1,3E0,3E0,1.0685196E-2,-3.2887448E-2,4.7307696E-2,-1.1270574E-2,-4.098446E-2,1.4322084E-2,-4.1441023E-2,-1.186091E-2,4.798509E-2,-2.9691307E-2,-4.6597373E-2,-3.0163039E-2],"split_indices":[5,0,0,1,6,1,1,0,0,4,1,4,4,0,0,0,0,0,0,0,0,0,0,0,0,0,0],"split_type":[0,0,0,0,0,0,0,0,0,0,0,0,0,0,0,0,0,0,0,0,0,0,0,0,0,0,0],"sum_hessian":[1.6672737E2,6.4163345E1,1.02564026E2,3.2950195E1,3.1213146E1,2.5016914E1,7.754711E1,3.1801807E1,1.1483892E0,1.8816456E1,1.2396691E1,2.0741999E1,4.274915E0,2.3707474E1,5.383964E1,1.1836514E1,6.9799404E0,9.537404E0,2.8592873E0,1.6449839E0,1.9097015E1,3.231022E0,1.0438936E0,3.679407E0,2.0028067E1,1.5890686E1,3.7948956E1],"tree_param":{"num_deleted":"0","num_feature":"7","num_nodes":"27","size_leaf_vector":"1"}},{"base_weights":[-4.4488083E-3,6.949965E-1,-4.43664E-1,1.1558189E0,1.9581518E-1,-1.7916996E-2,-5.807135E-1,5.8654476E-2,1.788335E-2,-1.218038E-1,6.515023E-1,1.5547656E-1,-3.690773E-2,-3.0951887E-1,-6.9317704E-1,7.998276E-3,-3.619009E-2,4.544879E-2,-1.0870281E-2,-4.0256646E-2,1.3612444E-2,-4.6696305E-2,1.252303E-2,-2.8813673E-2,-4.4983473E-2],"categories":[],"categories_nodes":[],"categories_segments":[],"categories_sizes":[],"default_left":[0,0,0,0,0,0,0,0,0,0,0,0,0,0,0,0,0,0,0,0,0,0,0,0,0],"id":16,"left_children":[1,3,5,7,9,11,13,-1,-1,15,17,19,-1,21,23,-1,-1,-1,-1,-1,-1,-1,-1,-1,-1],"loss_changes":[5.1199047E1,1.4562122E1,5.9626045E0,3.8410187E-2,4.720083E0,3.3567667E0,2.1463509E0,0E0,0E0,3.4636078E0,3.1791348E0,2.6588292E0,0E0,8.799666E0,7.8292274E-1,0E0,0E0,0E0,0E0,0E0,0E0,0E0,0E0,0E0,0E0],"parents":[2147483647,0,0,1,1,2,2,3,3,4,4,5,5,6,6,9,9,10,10,11,11,13,13,14,14],"right_children":[2,4,6,8,10,12,14,-1,-1,16,18,20,-1,22,24,-1,-1,-1,-1,-1,-1,-1,-1,-1,-1],"split_conditions":[1E0,3E0,2E0,5.7E1,1E0,5.3E1,1.3E1,5.8654476E-2,1.788335E-2,2.0575E1,1.7E1,2.625E1,-3.690773E-2,8.1125E0,3.25E1,7.998276E-3,-3.619009E-2,4.544879E-2,-1.0870281E-2,-4.0256646E-2,1.3612444E-2,-4.6696305E-2,1.252303E-2,-2.8813673E-2,-4.4983473E-2],"split_indices":[5,0,0,1,6,1,1,0,0,4,1,4,0,4,1,0,0,0,0,0,0,0,0,0,0],"split_type":[0,0,0,0,0,0,0,0,0,0,0,0,0,0,0,0,0,0,0,0,0,0,0,0,0],"sum_hessian":[1.6465605E2,6.32881E1,1.0136796E2,3.2224457E1,3.1063644E1,2.4959988E1,7.640797E1,3.108214E1,1.1423181E0,1.8736675E1,1.2326968E1,2.0748922E1,4.2110667E0,2.3497715E1,5.291025E1,1.3263077E1,5.4735994E0,9.47364E0,2.8533275E0,1.6099575E0,1.9138964E1,1.0794018E1,1.2703696E1,3.6204315E1,1.6705936E1],"tree_param":{"num_deleted":"0","num_feature":"7","num_nodes":"25","size_leaf_vector":"1"}},{"base_weights":[-4.847168E-3,6.711712E-1,-4.2850295E-1,1.125907E0,1.8712817E-1,-8.0145967E-1,-2.7379328E-1,1.1429217E0,1.7457232E-2,3.374208E-1,-6.7252874E-1,-6.5100896E-1,-5.615166E-2,3.2722652E-2,-4.232906E-1,5.921489E-2,2.8931472E-2,3.5751574E-2,3.1408013E-3,-4.5490332E-2,-8.692677E-3,-3.9284136E-2,2.4678994E-2,1.087249E-2,-3.5905372E-2,2.6155189E-3,-3.1337757E-2],"categories":[],"categories_nodes":[],"categories_segments":[],"categories_sizes":[],"default_left":[0,0,0,0,0,0,0,0,0,0,0,0,0,0,0,0,0,0,0,0,0,0,0,0,0,0,0],"id":17,"left_children":[1,3,5,7,9,11,13,15,-1,17,19,21,-1,23,25,-1,-1,-1,-1,-1,-1,-1,-1,-1,-1,-1,-1],"loss_changes":[4.712717E1,1.3743711E1,5.6169014E0,3.0334473E-2,4.3494663E0,6.7860794E-1,3.3594956E0,4.6756744E-2,0E0,2.8404417E0,4.4320226E-1,3.8144236E0,0E0,3.6047719E0,4.788707E0,0E0,0E0,0E0,0E0,0E0,0E0,0E0,0E0,0E0,0E0,0E0,0E0],"parents":[2147483647,0,0,1,1,2,2,3,3,4,4,5,5,6,6,7,7,9,9,10,10,11,11,13,13,14,14],"right_children":[2,4,6,8,10,12,14,16,-1,18,20,22,-1,24,26,-1,-1,-1,-1,-1,-1,-1,-1,-1,-1,-1,-1],"split_conditions":[1E0,3E0,7.925E0,5.7E1,2.54667E1,3E1,2E0,1.5155E2,1.7457232E-2,6E0,3.13875E1,2.7E1,-5.615166E-2,5.3E1,1.3E1,5.921489E-2,2.8931472E-2,3.5751574E-2,3.1408013E-3,-4.5490332E-2,-8.692677E-3,-3.9284136E-2,2.4678994E-2,1.087249E-2,-3.5905372E-2,2.6155189E-3,-3.1337757E-2],"split_indices":[5,0,4,1,4,1,0,4,0,1,4,1,0,1,1,0,0,0,0,0,0,0,0,0,0,0,0],"split_type":[0,0,0,0,0,0,0,0,0,0,0,0,0,0,0,0,0,0,0,0,0,0,0,0,0,0,0],"sum_hessian":[1.625465E2,6.2396893E1,1.0014961E2,3.1488693E1,3.0908197E1,2.8137783E1,7.2011826E1,3.035244E1,1.1362551E0,2.6825779E1,4.0824194E0,2.1229733E1,6.9080515E0,2.386411E1,4.8147713E1,2.725525E1,3.0971878E0,1.0619283E1,1.6206495E1,2.2075727E0,1.8748466E0,1.927534E1,1.9543928E0,1.9722227E1,4.1418834E0,1.4648814E1,3.34989E1],"tree_param":{"num_deleted":"0","num_feature":"7","num_nodes":"27","size_leaf_vector":"1"}},{"base_weights":[-4.8973016E-3,6.4787453E-1,-4.1329914E-1,1.098105E0,1.7786916E-1,-7.805033E-1,-2.6298407E-1,1.1149186E0,1.704242E-2,-1.2020828E-1,6.072425E-1,-6.3051665E-1,-5.5245396E-2,3.0066773E-2,-4.0720826E-1,5.7794094E-2,2.8103098E-2,9.353186E-3,-3.0681143E-2,4.259938E-2,-1.0483827E-2,-3.821809E-2,2.3649981E-2,1.6626155E-2,-2.0324836E-2,2.491352E-3,-3.0296484E-2],"categories":[],"categories_nodes":[],"categories_segments":[],"categories_sizes":[],"default_left":[0,0,0,0,0,0,0,0,0,0,0,0,0,0,0,0,0,0,0,0,0,0,0,0,0,0,0],"id":18,"left_children":[1,3,5,7,9,11,13,15,-1,17,19,21,-1,23,25,-1,-1,-1,-1,-1,-1,-1,-1,-1,-1,-1,-1],"loss_changes":[4.333607E1,1.3043816E1,5.313656E0,2.4364471E-2,4.1433363E0,6.9166756E-1,3.0744972E0,4.4010162E-2,0E0,3.0873327E0,2.817144E0,3.587491E0,0E0,3.4135258E0,4.4464808E0,0E0,0E0,0E0,0E0,0E0,0E0,0E0,0E0,0E0,0E0,0E0,0E0],"parents":[2147483647,0,0,1,1,2,2,3,3,4,4,5,5,6,6,7,7,9,9,10,10,11,11,13,13,14,14],"right_children":[2,4,6,8,10,12,14,16,-1,18,20,22,-1,24,26,-1,-1,-1,-1,-1,-1,-1,-1,-1,-1,-1,-1],"split_conditions":[1E0,3E0,7.925E0,5.7E1,1E0,3E1,2E0,1.5155E2,1.704242E-2,1.78E1,1.7E1,2.7E1,-5.5245396E-2,4.3E1,1.3E1,5.7794094E-2,2.8103098E-2,9.353186E-3,-3.0681143E-2,4.259938E-2,-1.0483827E-2,-3.821809E-2,2.3649981E-2,1.6626155E-2,-2.0324836E-2,2.491352E-3,-3.0296484E-2],"split_indices":[5,0,4,1,6,1,0,4,0,4,1,1,0,1,1,0,0,0,0,0,0,0,0,0,0,0,0],"split_type":[0,0,0,0,0,0,0,0,0,0,0,0,0,0,0,0,0,0,0,0,0,0,0,0,0,0,0],"sum_hessian":[1.6055064E2,6.156363E1,9.8987015E1,3.0760744E1,3.0802887E1,2.7533375E1,7.1453636E1,2.9630535E1,1.1302091E0,1.8606213E1,1.2196674E1,2.0841183E1,6.6921926E0,2.382825E1,4.7625385E1,2.6571037E1,3.0594985E0,1.1848491E1,6.7577214E0,9.351947E0,2.8447268E0,1.8860891E1,1.9802914E0,1.4216919E1,9.611332E0,1.465952E1,3.2965866E1],"tree_param":{"num_deleted":"0","num_feature":"7","num_nodes":"27","size_leaf_vector":"1"}},{"base_weights":[-4.6457145E-3,6.265723E-1,-3.9833948E-1,1.0717022E0,1.7019863E-1,-7.6017696E-1,-2.522324E-1,1.0883515E0,1.6638545E-2,-1.15818575E-1,5.831772E-1,-6.1062884E-1,-5.438249E-2,2.840437E-2,-3.9167228E-1,5.64506E-2,2.7300403E-2,6.9576413E-3,-3.391403E-2,4.0995356E-2,-1.0111624E-2,-3.7179153E-2,2.2671238E-2,1.0030521E-2,-3.4388013E-2,2.373157E-3,-2.9284468E-2],"categories":[],"categories_nodes":[],"categories_segments":[],"categories_sizes":[],"default_left":[0,0,0,0,0,0,0,0,0,0,0,0,0,0,0,0,0,0,0,0,0,0,0,0,0,0,0],"id":19,"left_children":[1,3,5,7,9,11,13,15,-1,17,19,21,-1,23,25,-1,-1,-1,-1,-1,-1,-1,-1,-1,-1,-1,-1],"loss_changes":[3.9895477E1,1.2345699E1,5.0350094E0,1.9592285E-2,3.8047676E0,7.0423126E-1,2.825667E0,4.3056488E-2,0E0,2.894851E0,2.603732E0,3.3733807E0,0E0,3.1973543E0,4.127399E0,0E0,0E0,0E0,0E0,0E0,0E0,0E0,0E0,0E0,0E0,0E0,0E0],"parents":[2147483647,0,0,1,1,2,2,3,3,4,4,5,5,6,6,7,7,9,9,10,10,11,11,13,13,14,14],"right_children":[2,4,6,8,10,12,14,16,-1,18,20,22,-1,24,26,-1,-1,-1,-1,-1,-1,-1,-1,-1,-1,-1,-1],"split_conditions":[1E0,3E0,7.925E0,5.7E1,1E0,3E1,2E0,1.5155E2,1.6638545E-2,2.0575E1,1.7E1,2.7E1,-5.438249E-2,5.3E1,1.3E1,5.64506E-2,2.7300403E-2,6.9576413E-3,-3.391403E-2,4.0995356E-2,-1.0111624E-2,-3.7179153E-2,2.2671238E-2,1.0030521E-2,-3.4388013E-2,2.373157E-3,-2.9284468E-2],"split_indices":[5,0,4,1,6,1,0,4,0,4,1,1,0,1,1,0,0,0,0,0,0,0,0,0,0,0,0],"split_type":[0,0,0,0,0,0,0,0,0,0,0,0,0,0,0,0,0,0,0,0,0,0,0,0,0,0,0],"sum_hessian":[1.5853656E2,6.0670563E1,9.7866E1,3.003107E1,3.0639492E1,2.694161E1,7.0924385E1,2.8906883E1,1.1241884E0,1.8527456E1,1.2112036E1,2.0461885E1,6.479725E0,2.3806902E1,4.7117485E1,2.5884542E1,3.0223403E0,1.3266278E1,5.2611775E0,9.273109E0,2.8389263E0,1.8456867E1,2.0050194E0,1.9772394E1,4.0345078E0,1.4669692E1,3.2447796E1],"tree_param":{"num_deleted":"0","num_feature":"7","num_nodes":"27","size_leaf_vector":"1"}},{"base_weights":[-4.5821187E-3,6.060431E-1,-3.841713E-1,1.046539E0,1.6267203E-1,-7.4043113E-1,-2.422437E-1,1.0630552E0,1.624523E-2,-1.1192644E-1,5.602751E-1,-5.913104E-1,-5.3558674E-2,-1.820726E-1,-4.7791526E-2,5.517537E-2,2.652209E-2,6.6310773E-3,-3.294221E-2,3.947081E-2,-9.752649E-3,-3.6165453E-2,2.1739667E-2,1.4112979E-2,-1.5897444E-2],"categories":[],"categories_nodes":[],"categories_segments":[],"categories_sizes":[],"default_left":[0,0,0,0,0,0,0,0,0,0,0,0,0,0,0,0,0,0,0,0,0,0,0,0,0],"id":20,"left_children":[1,3,5,7,9,11,13,15,-1,17,19,21,-1,23,-1,-1,-1,-1,-1,-1,-1,-1,-1,-1,-1],"loss_changes":[3.674692E1,1.1699656E1,4.7634993E0,1.5781403E-2,3.4990337E0,7.1617985E-1,2.8913937E0,4.345703E-2,0E0,2.6887584E0,2.408071E0,3.1713161E0,0E0,4.321714E0,0E0,0E0,0E0,0E0,0E0,0E0,0E0,0E0,0E0,0E0,0E0],"parents":[2147483647,0,0,1,1,2,2,3,3,4,4,5,5,6,6,7,7,9,9,10,10,11,11,13,13],"right_children":[2,4,6,8,10,12,14,16,-1,18,20,22,-1,24,-1,-1,-1,-1,-1,-1,-1,-1,-1,-1,-1],"split_conditions":[1E0,3E0,7.925E0,5.7E1,1E0,3E1,3E0,1.5155E2,1.624523E-2,2.0575E1,1.7E1,2.7E1,-5.3558674E-2,1.3E1,-4.7791526E-2,5.517537E-2,2.652209E-2,6.6310773E-3,-3.294221E-2,3.947081E-2,-9.752649E-3,-3.6165453E-2,2.1739667E-2,1.4112979E-2,-1.5897444E-2],"split_indices":[5,0,4,1,6,1,2,4,0,4,1,1,0,1,0,0,0,0,0,0,0,0,0,0,0],"split_type":[0,0,0,0,0,0,0,0,0,0,0,0,0,0,0,0,0,0,0,0,0,0,0,0,0],"sum_hessian":[1.5653316E2,5.9776794E1,9.675636E1,2.9303204E1,3.047359E1,2.6363363E1,7.0393005E1,2.8185003E1,1.1182004E0,1.8449926E1,1.20236635E1,2.0092258E1,6.2711053E0,6.607645E1,4.316552E0,2.5199238E1,2.9857647E0,1.3272702E1,5.177225E0,9.190457E0,2.8332062E0,1.8063631E1,2.0286257E0,1.4714621E1,5.1361828E1],"tree_param":{"num_deleted":"0","num_feature":"7","num_nodes":"25","size_leaf_vector":"1"}},{"base_weights":[-4.4972682E-3,5.8632284E-1,-3.6993682E-1,1.0224761E0,1.5548371E-1,-7.212225E-1,-2.3214833E-1,7.7572304E-1,1.1499045E0,2.6286182E-1,-3.892046E-2,-5.725304E-1,-5.2770127E-2,-1.7379917E-1,-4.667466E-2,4.6059128E-2,5.442206E-3,6.255142E-2,1.9248951E-2,1.3737389E-6,3.0277172E-2,-3.5175342E-2,2.08524E-2,1.3414793E-2,-1.5217892E-2],"categories":[],"categories_nodes":[],"categories_segments":[],"categories_sizes":[],"default_left":[0,0,0,0,0,0,0,0,0,0,0,0,0,0,0,0,0,0,0,0,0,0,0,0,0],"id":21,"left_children":[1,3,5,7,9,11,13,15,17,19,-1,21,-1,23,-1,-1,-1,-1,-1,-1,-1,-1,-1,-1,-1],"loss_changes":[3.3832623E1,1.1094328E1,4.5183697E0,3.8095474E-2,3.34396E0,7.2740746E-1,2.7436318E0,1.1750174E0,8.6689186E-1,2.59622E0,0E0,2.9805794E0,0E0,3.93635E0,0E0,0E0,0E0,0E0,0E0,0E0,0E0,0E0,0E0,0E0,0E0],"parents":[2147483647,0,0,1,1,2,2,3,3,4,4,5,5,6,6,7,7,8,8,9,9,11,11,13,13],"right_children":[2,4,6,8,10,12,14,16,18,20,-1,22,-1,24,-1,-1,-1,-1,-1,-1,-1,-1,-1,-1,-1],"split_conditions":[1E0,3E0,7.925E0,2.9E1,3.9E1,3E1,3E0,4.3E1,2E0,1E0,-3.892046E-2,2.7E1,-5.2770127E-2,1.3E1,-4.667466E-2,4.6059128E-2,5.442206E-3,6.255142E-2,1.9248951E-2,1.3737389E-6,3.0277172E-2,-3.5175342E-2,2.08524E-2,1.3414793E-2,-1.5217892E-2],"split_indices":[5,0,4,4,1,1,2,1,3,6,0,1,0,1,0,0,0,0,0,0,0,0,0,0,0],"split_type":[0,0,0,0,0,0,0,0,0,0,0,0,0,0,0,0,0,0,0,0,0,0,0,0,0],"sum_hessian":[1.546939E2,5.888608E1,9.580781E1,2.8580172E1,3.0305912E1,2.579932E1,7.000849E1,1.2146722E1,1.6433449E1,2.7825134E1,2.4807763E0,1.973261E1,6.066708E0,6.578338E1,4.2251115E0,9.658647E0,2.488076E0,1.39533205E1,2.4801295E0,1.6313147E1,1.1511988E1,1.7681454E1,2.0511582E0,1.4757353E1,5.1026024E1],"tree_param":{"num_deleted":"0","num_feature":"7","num_nodes":"25","size_leaf_vector":"1"}},{"base_weights":[-4.245924E-3,5.668089E-1,-3.5620812E-1,9.998154E-1,1.478743E-1,-7.025133E-1,-2.224658E-1,7.546298E-1,1.1274271E0,2.5129732E-1,-3.7923962E-2,-5.5426216E-1,-5.2013453E-2,4.7483847E-2,-3.5933286E-1,4.4952415E-2,5.2580764E-3,6.1459906E-2,1.8691113E-2,1.3074658E-6,2.9020369E-2,-3.4207415E-2,2.0006804E-2,1.054187E-2,-3.2631498E-2,2.4271302E-3,-2.722596E-2],"categories":[],"categories_nodes":[],"categories_segments":[],"categories_sizes":[],"default_left":[0,0,0,0,0,0,0,0,0,0,0,0,0,0,0,0,0,0,0,0,0,0,0,0,0,0,0],"id":22,"left_children":[1,3,5,7,9,11,13,15,17,19,-1,21,-1,23,25,-1,-1,-1,-1,-1,-1,-1,-1,-1,-1,-1,-1],"loss_changes":[3.1151892E1,1.0573729E1,4.2846365E0,5.3150177E-2,3.1165154E0,7.378254E-1,2.6267834E0,1.1166935E0,8.425274E-1,2.378975E0,0E0,2.8005137E0,0E0,2.9563668E0,3.5754895E0,0E0,0E0,0E0,0E0,0E0,0E0,0E0,0E0,0E0,0E0,0E0,0E0],"parents":[2147483647,0,0,1,1,2,2,3,3,4,4,5,5,6,6,7,7,8,8,9,9,11,11,13,13,14,14],"right_children":[2,4,6,8,10,12,14,16,18,20,-1,22,-1,24,26,-1,-1,-1,-1,-1,-1,-1,-1,-1,-1,-1,-1],"split_conditions":[1E0,3E0,7.925E0,2.9E1,3.9E1,3E1,2E0,4.3E1,2E0,1E0,-3.7923962E-2,2.7E1,-5.2013453E-2,5.3E1,1.3E1,4.4952415E-2,5.2580764E-3,6.1459906E-2,1.8691113E-2,1.3074658E-6,2.9020369E-2,-3.4207415E-2,2.0006804E-2,1.054187E-2,-3.2631498E-2,2.4271302E-3,-2.722596E-2],"split_indices":[5,0,4,4,1,1,0,1,3,6,0,1,0,1,1,0,0,0,0,0,0,0,0,0,0,0,0],"split_type":[0,0,0,0,0,0,0,0,0,0,0,0,0,0,0,0,0,0,0,0,0,0,0,0,0,0,0],"sum_hessian":[1.5298793E2,5.8104156E1,9.488378E1,2.7890379E1,3.021378E1,2.5250015E1,6.9633766E1,1.1913661E1,1.5976718E1,2.7767946E1,2.4458325E0,1.9383175E1,5.866842E0,2.3646893E1,4.598687E1,9.432032E0,2.4816294E0,1.3519834E1,2.4568844E0,1.631315E1,1.1454796E1,1.7310513E1,2.0726626E0,1.9739939E1,3.9069548E0,1.459002E1,3.139685E1],"tree_param":{"num_deleted":"0","num_feature":"7","num_nodes":"27","size_leaf_vector":"1"}},{"base_weights":[-4.0292894E-3,5.4803944E-1,-3.4345773E-1,9.7809273E-1,1.4062354E-1,-6.842705E-1,-2.1360703E-1,7.3420167E-1,1.1061295E0,2.6443136E-1,-5.9690255E-1,-5.3648233E-1,-5.1285584E-2,-1.5601261E-1,-4.5622718E-2,4.388176E-2,5.080025E-3,6.0438145E-2,1.8149095E-2,2.2926144E-3,3.675596E-2,-4.271936E-2,-4.83457E-3,-3.7581246E-2,4.2058886E-3,1.2532467E-2,-1.3926673E-2],"categories":[],"categories_nodes":[],"categories_segments":[],"categories_sizes":[],"default_left":[0,0,0,0,0,0,0,0,0,0,0,0,0,0,0,0,0,0,0,0,0,0,0,0,0,0,0],"id":23,"left_children":[1,3,5,7,9,11,13,15,17,19,21,23,-1,25,-1,-1,-1,-1,-1,-1,-1,-1,-1,-1,-1,-1,-1],"loss_changes":[2.8705576E1,1.0082069E1,4.0516644E0,6.871414E-2,2.9994564E0,7.4736977E-1,2.6807644E0,1.061779E0,8.214798E-1,2.779085E0,5.3305995E-1,2.7394633E0,0E0,3.3585348E0,0E0,0E0,0E0,0E0,0E0,0E0,0E0,0E0,0E0,0E0,0E0,0E0,0E0],"parents":[2147483647,0,0,1,1,2,2,3,3,4,4,5,5,6,6,7,7,8,8,9,9,10,10,11,11,13,13],"right_children":[2,4,6,8,10,12,14,16,18,20,22,24,-1,26,-1,-1,-1,-1,-1,-1,-1,-1,-1,-1,-1,-1,-1],"split_conditions":[1E0,3E0,7.925E0,2.9E1,2.54667E1,3E1,3E0,4.3E1,2E0,1.55E1,3.13875E1,2.4E1,-5.1285584E-2,1.3E1,-4.5622718E-2,4.388176E-2,5.080025E-3,6.0438145E-2,1.8149095E-2,2.2926144E-3,3.675596E-2,-4.271936E-2,-4.83457E-3,-3.7581246E-2,4.2058886E-3,1.2532467E-2,-1.3926673E-2],"split_indices":[5,0,4,4,4,1,2,1,3,4,4,1,0,1,0,0,0,0,0,0,0,0,0,0,0,0,0],"split_type":[0,0,0,0,0,0,0,0,0,0,0,0,0,0,0,0,0,0,0,0,0,0,0,0,0,0,0],"sum_hessian":[1.5118356E2,5.73276E1,9.3855965E1,2.7207563E1,3.0120033E1,2.4715841E1,6.914012E1,1.1684543E1,1.5523022E1,2.633985E1,3.7801843E0,1.9044092E1,5.671749E0,6.5006E1,4.1341248E0,9.209152E0,2.4753902E0,1.3088826E1,2.4341955E0,1.873641E1,7.6034403E0,2.0281413E0,1.7520431E0,1.3984855E1,5.0592365E0,1.4808612E1,5.0197388E1],"tree_param":{"num_deleted":"0","num_feature":"7","num_nodes":"27","size_leaf_vector":"1"}},{"base_weights":[-3.9431504E-3,5.2950746E-1,-3.3081588E-1,9.572094E-1,1.3348086E-1,1.2345189E-2,-4.5126045E-1,9.7519517E-1,1.3167505E-2,2.3215257E-1,-3.6888897E-2,1.5459651E-1,-3.138771E-2,-3.550024E-1,-7.695953E-1,5.0947923E-2,2.2024216E-2,-3.2250563E-4,2.7353877E-2,-1.8833574E-2,1.9811282E-2,-2.0560158E-2,3.6459155E-2,-2.7698893E-2,-5.2561857E-2],"categories":[],"categories_nodes":[],"categories_segments":[],"categories_sizes":[],"default_left":[0,0,0,0,0,0,0,0,0,0,0,0,0,0,0,0,0,0,0,0,0,0,0,0,0],"id":24,"left_children":[1,3,5,7,9,11,13,15,-1,17,-1,19,-1,21,23,-1,-1,-1,-1,-1,-1,-1,-1,-1,-1],"loss_changes":[2.643677E1,9.629751E0,3.8908205E0,8.679199E-2,2.8425834E0,2.4093773E0,1.8596907E0,1.7053986E-1,0E0,2.1580453E0,0E0,2.9194453E0,0E0,3.6694942E0,3.4703732E-1,0E0,0E0,0E0,0E0,0E0,0E0,0E0,0E0,0E0,0E0],"parents":[2147483647,0,0,1,1,2,2,3,3,4,4,5,5,6,6,7,7,9,9,11,11,13,13,14,14],"right_children":[2,4,6,8,10,12,14,16,-1,18,-1,20,-1,22,24,-1,-1,-1,-1,-1,-1,-1,-1,-1,-1],"split_conditions":[1E0,3E0,2E0,5.7E1,3.9E1,5.3E1,3.25E1,1.5155E2,1.3167505E-2,1E0,-3.6888897E-2,2.45E1,-3.138771E-2,3.2E1,1.34167E1,5.0947923E-2,2.2024216E-2,-3.2250563E-4,2.7353877E-2,-1.8833574E-2,1.9811282E-2,-2.0560158E-2,3.6459155E-2,-2.7698893E-2,-5.2561857E-2],"split_indices":[5,0,0,1,1,1,1,4,0,6,0,1,0,1,4,0,0,0,0,0,0,0,0,0,0],"split_type":[0,0,0,0,0,0,0,0,0,0,0,0,0,0,0,0,0,0,0,0,0,0,0,0,0],"sum_hessian":[1.4960808E2,5.6606823E1,9.300127E1,2.653377E1,3.0073051E1,2.4394863E1,6.86064E1,2.5468136E1,1.0656344E0,2.7672619E1,2.4004328E0,2.0579824E1,3.8150392E0,5.430181E1,1.4304586E1,2.2704283E1,2.7638528E0,1.6301397E1,1.13712225E1,6.259103E0,1.4320721E1,5.2215836E1,2.085977E0,9.7824E0,4.5221863E0],"tree_param":{"num_deleted":"0","num_feature":"7","num_nodes":"25","size_leaf_vector":"1"}},{"base_weights":[-3.889053E-3,5.115618E-1,-3.182745E-1,9.362957E-1,1.2688619E-1,-6.5558326E-1,-1.9235319E-1,6.865773E-1,1.0698991E0,2.5635552E-1,-5.2156067E-1,-5.064191E-1,-5.033986E-2,-1.36481E-1,-4.412463E-2,4.1645654E-2,3.4096104E-3,5.8808368E-2,1.654802E-2,1.725555E-3,3.9119042E-2,-3.497421E-2,-4.362348E-3,-3.6128934E-2,4.9232654E-3,1.2905614E-2,-1.2860864E-2],"categories":[],"categories_nodes":[],"categories_segments":[],"categories_sizes":[],"default_left":[0,0,0,0,0,0,0,0,0,0,0,0,0,0,0,0,0,0,0,0,0,0,0,0,0,0,0],"id":25,"left_children":[1,3,5,7,9,11,13,15,17,19,21,23,-1,25,-1,-1,-1,-1,-1,-1,-1,-1,-1,-1,-1,-1,-1],"loss_changes":[2.430664E1,9.166132E0,3.8308544E0,1.6127968E-1,2.7343757E0,7.950859E-1,2.5498877E0,1.0426698E0,8.436985E-1,3.064528E0,3.6283338E-1,2.620234E0,0E0,3.1749382E0,0E0,0E0,0E0,0E0,0E0,0E0,0E0,0E0,0E0,0E0,0E0,0E0,0E0],"parents":[2147483647,0,0,1,1,2,2,3,3,4,4,5,5,6,6,7,7,8,8,9,9,10,10,11,11,13,13],"right_children":[2,4,6,8,10,12,14,16,18,20,22,24,-1,26,-1,-1,-1,-1,-1,-1,-1,-1,-1,-1,-1,-1,-1],"split_conditions":[1E0,3E0,7.925E0,2.9E1,2.345E1,3E1,3E0,4.3E1,2E0,1.55E1,3.13875E1,2.4E1,-5.033986E-2,1.3E1,-4.412463E-2,4.1645654E-2,3.4096104E-3,5.8808368E-2,1.654802E-2,1.725555E-3,3.9119042E-2,-3.497421E-2,-4.362348E-3,-3.6128934E-2,4.9232654E-3,1.2905614E-2,-1.2860864E-2],"split_indices":[5,0,4,4,4,1,2,1,3,4,4,1,0,1,0,0,0,0,0,0,0,0,0,0,0,0,0],"split_type":[0,0,0,0,0,0,0,0,0,0,0,0,0,0,0,0,0,0,0,0,0,0,0,0,0,0,0],"sum_hessian":[1.4798973E2,5.582865E1,9.216109E1,2.5851316E1,2.9977335E1,2.3909027E1,6.825206E1,1.1149915E1,1.4701402E1,2.5492207E1,4.485129E0,1.8495646E1,5.4133816E0,6.4248405E1,4.003653E0,8.735754E0,2.4141605E0,1.2335683E1,2.3657184E0,1.8679832E1,6.8123727E0,2.7485793E0,1.7365495E0,1.3482876E1,5.01277E0,1.4786145E1,4.946226E1],"tree_param":{"num_deleted":"0","num_feature":"7","num_nodes":"27","size_leaf_vector":"1"}},{"base_weights":[-3.7456537E-3,4.9462864E-1,-3.0650732E-1,9.167506E-1,1.2082067E-1,-4.5151028E-1,-3.3891153E-2,6.679952E-1,1.0512275E0,5.183767E-1,-9.3714006E-2,-5.4148126E-1,2.7534395E-1,7.573587E-1,-1.623847E-1,4.0669944E-2,3.2931154E-3,5.7942964E-2,1.6066251E-2,3.992295E-2,-2.5727948E-2,-4.995803E-2,9.541322E-3,-2.3292674E-2,-4.2539503E-2,4.6235617E-2,-3.131742E-2,5.6014217E-2,-1.3272911E-2,-5.2991558E-2,-2.5917888E-3],"categories":[],"categories_nodes":[],"categories_segments":[],"categories_sizes":[],"default_left":[0,0,0,0,0,0,0,0,0,0,0,0,0,0,0,0,0,0,0,0,0,0,0,0,0,0,0,0,0,0,0],"id":26,"left_children":[1,3,5,7,9,11,13,15,17,19,21,23,25,27,29,-1,-1,-1,-1,-1,-1,-1,-1,-1,-1,-1,-1,-1,-1,-1,-1],"loss_changes":[2.2403337E1,8.743647E0,3.6355839E0,1.7429924E-1,2.685052E0,4.086459E0,3.4932323E0,9.9157953E-1,8.2683945E-1,3.589647E0,5.5815516E0,8.648224E-1,4.8504477E0,2.0820112E0,2.8560457E0,0E0,0E0,0E0,0E0,0E0,0E0,0E0,0E0,0E0,0E0,0E0,0E0,0E0,0E0,0E0,0E0],"parents":[2147483647,0,0,1,1,2,2,3,3,4,4,5,5,6,6,7,7,8,8,9,9,10,10,11,11,12,12,13,13,14,14],"right_children":[2,4,6,8,10,12,14,16,18,20,22,24,26,28,30,-1,-1,-1,-1,-1,-1,-1,-1,-1,-1,-1,-1,-1,-1,-1,-1],"split_conditions":[1E0,3E0,2.62833E1,2.9E1,8.05E0,1E0,2.7E1,4.3E1,2E0,2.3E1,1.11333E1,1.4E1,1E1,4.9E1,2.87125E1,4.0669944E-2,3.2931154E-3,5.7942964E-2,1.6066251E-2,3.992295E-2,-2.5727948E-2,-4.995803E-2,9.541322E-3,-2.3292674E-2,-4.2539503E-2,4.6235617E-2,-3.131742E-2,5.6014217E-2,-1.3272911E-2,-5.2991558E-2,-2.5917888E-3],"split_indices":[5,0,4,4,4,3,4,1,3,1,4,4,1,1,4,0,0,0,0,0,0,0,0,0,0,0,0,0,0,0,0],"split_type":[0,0,0,0,0,0,0,0,0,0,0,0,0,0,0,0,0,0,0,0,0,0,0,0,0,0,0,0,0,0,0],"sum_hessian":[1.4647122E2,5.5114243E1,9.135697E1,2.5202219E1,2.9912025E1,5.920824E1,3.2148735E1,1.0937457E1,1.4264761E1,9.987613E0,1.9924412E1,5.2913563E1,6.2946754E0,3.8076274E0,2.8341108E1,8.527392E0,2.4100654E0,1.1919426E1,2.3453352E0,8.035715E0,1.9518976E0,4.163643E0,1.576077E1,4.4531467E1,8.382094E0,3.6445E0,2.6501756E0,2.740075E0,1.0675526E0,2.1664753E0,2.6174633E1],"tree_param":{"num_deleted":"0","num_feature":"7","num_nodes":"31","size_leaf_vector":"1"}},{"base_weights":[-3.3766672E-3,4.7767898E-1,-2.9513568E-1,8.9782417E-1,1.14139594E-1,-6.254248E-1,-1.7436631E-1,6.499063E-1,1.0333265E0,2.3942757E-1,-5.135747E-1,-4.7492054E-1,-4.936342E-2,-1.1930546E-1,-4.3117084E-2,3.971893E-2,3.1805334E-3,5.712405E-2,1.5597971E-2,1.3818936E-3,3.7049323E-2,-3.4390517E-2,-4.518715E-3,-4.0266566E-2,-2.8814173E-3,1.2597339E-2,-1.170712E-2],"categories":[],"categories_nodes":[],"categories_segments":[],"categories_sizes":[],"default_left":[0,0,0,0,0,0,0,0,0,0,0,0,0,0,0,0,0,0,0,0,0,0,0,0,0,0,0],"id":27,"left_children":[1,3,5,7,9,11,13,15,17,19,21,23,-1,25,-1,-1,-1,-1,-1,-1,-1,-1,-1,-1,-1,-1,-1],"loss_changes":[2.0605034E1,8.363451E0,3.5358906E0,1.87294E-1,2.5500333E0,8.424692E-1,2.4842858E0,9.430609E-1,8.1178474E-1,2.7847419E0,3.3990812E-1,2.5640278E0,0E0,2.8044856E0,0E0,0E0,0E0,0E0,0E0,0E0,0E0,0E0,0E0,0E0,0E0,0E0,0E0],"parents":[2147483647,0,0,1,1,2,2,3,3,4,4,5,5,6,6,7,7,8,8,9,9,10,10,11,11,13,13],"right_children":[2,4,6,8,10,12,14,16,18,20,22,24,-1,26,-1,-1,-1,-1,-1,-1,-1,-1,-1,-1,-1,-1,-1],"split_conditions":[1E0,3E0,7.925E0,2.9E1,2.345E1,3E1,3E0,4.3E1,2E0,1.55E1,3.13875E1,2E1,-4.936342E-2,1.3E1,-4.3117084E-2,3.971893E-2,3.1805334E-3,5.712405E-2,1.5597971E-2,1.3818936E-3,3.7049323E-2,-3.4390517E-2,-4.518715E-3,-4.0266566E-2,-2.8814173E-3,1.2597339E-2,-1.170712E-2],"split_indices":[5,0,4,4,4,1,2,1,3,4,4,1,0,1,0,0,0,0,0,0,0,0,0,0,0,0,0],"split_type":[0,0,0,0,0,0,0,0,0,0,0,0,0,0,0,0,0,0,0,0,0,0,0,0,0,0,0],"sum_hessian":[1.4480489E2,5.442729E1,9.0377594E1,2.4566236E1,2.9861055E1,2.3079468E1,6.729813E1,1.0730242E1,1.3835995E1,2.5408289E1,4.452768E0,1.7932978E1,5.146491E0,6.3397625E1,3.9004977E0,8.324135E0,2.406107E0,1.15105E1,2.3254945E0,1.860654E1,6.8017473E0,2.7112584E0,1.7415094E0,9.489401E0,8.443577E0,1.4695408E1,4.8702217E1],"tree_param":{"num_deleted":"0","num_feature":"7","num_nodes":"27","size_leaf_vector":"1"}},{"base_weights":[-3.3619974E-3,4.6189764E-1,-2.8430244E-1,8.7945586E-1,1.0863838E-1,-4.2668805E-1,-2.1816391E-2,6.3228184E-1,1.0161155E0,4.9531934E-1,-9.907244E-2,-5.137151E-1,2.69423E-1,7.3962563E-1,-1.461402E-1,3.879072E-2,3.0717417E-3,5.6347013E-2,1.5142761E-2,3.8324498E-2,-2.4973841E-2,-4.809857E-2,8.646934E-3,-2.1842191E-2,-4.1473057E-2,3.8715545E-2,-3.9544936E-2,5.4445274E-2,-1.2704152E-2,-5.161938E-2,-1.9244956E-3],"categories":[],"categories_nodes":[],"categories_segments":[],"categories_sizes":[],"default_left":[0,0,0,0,0,0,0,0,0,0,0,0,0,0,0,0,0,0,0,0,0,0,0,0,0,0,0,0,0,0,0],"id":28,"left_children":[1,3,5,7,9,11,13,15,17,19,21,23,25,27,29,-1,-1,-1,-1,-1,-1,-1,-1,-1,-1,-1,-1,-1,-1,-1,-1],"loss_changes":[1.900229E1,7.9784384E0,3.3781433E0,2.0011711E-1,2.5222316E0,3.6949167E0,3.2253098E0,8.9692163E-1,7.9823303E-1,3.330514E0,5.063786E0,9.125881E-1,4.456098E0,1.9380841E0,2.7405539E0,0E0,0E0,0E0,0E0,0E0,0E0,0E0,0E0,0E0,0E0,0E0,0E0,0E0,0E0,0E0,0E0],"parents":[2147483647,0,0,1,1,2,2,3,3,4,4,5,5,6,6,7,7,8,8,9,9,10,10,11,11,12,12,13,13,14,14],"right_children":[2,4,6,8,10,12,14,16,18,20,22,24,26,28,30,-1,-1,-1,-1,-1,-1,-1,-1,-1,-1,-1,-1,-1,-1,-1,-1],"split_conditions":[1E0,3E0,2.62833E1,2.9E1,8.05E0,1E0,2.7E1,4.3E1,2E0,2.3E1,1.11333E1,1.4E1,2.05E1,4.9E1,2.87125E1,3.879072E-2,3.0717417E-3,5.6347013E-2,1.5142761E-2,3.8324498E-2,-2.4973841E-2,-4.809857E-2,8.646934E-3,-2.1842191E-2,-4.1473057E-2,3.8715545E-2,-3.9544936E-2,5.4445274E-2,-1.2704152E-2,-5.161938E-2,-1.9244956E-3],"split_indices":[5,0,4,4,4,3,4,1,3,1,4,4,1,1,4,0,0,0,0,0,0,0,0,0,0,0,0,0,0,0,0],"split_type":[0,0,0,0,0,0,0,0,0,0,0,0,0,0,0,0,0,0,0,0,0,0,0,0,0,0,0,0,0,0,0],"sum_hessian":[1.4337254E2,5.3736515E1,8.963603E1,2.3944353E1,2.9792162E1,5.77072E1,3.1928837E1,1.0528436E1,1.3415916E1,9.9270315E0,1.9865131E1,5.152733E1,6.1798677E0,3.786794E0,2.8142042E1,8.126155E0,2.4022813E0,1.1109728E1,2.3061883E0,7.9809985E0,1.9460325E0,4.1532598E0,1.5711871E1,4.3355553E1,8.171776E0,4.369165E0,1.8107028E0,2.7310534E0,1.0557406E0,2.1176844E0,2.6024359E1],"tree_param":{"num_deleted":"0","num_feature":"7","num_nodes":"31","size_leaf_vector":"1"}},{"base_weights":[-3.1231097E-3,4.4612807E-1,-2.737822E-1,8.6159253E-1,1.025818E-1,-5.976253E-1,-1.576047E-1,6.150965E-1,9.995226E-1,1.9482762E-1,-3.5498217E-2,-4.2092463E-1,-9.1651535E-1,-1.03398316E-1,-4.2145904E-2,3.5794415E-2,-4.087142E-3,5.5607747E-2,1.470027E-2,2.5975881E-2,1.6115271E-5,-3.132018E-2,6.9994316E-3,-5.0607383E-2,-1.5654854E-2,1.2346352E-2,-1.0644295E-2],"categories":[],"categories_nodes":[],"categories_segments":[],"categories_sizes":[],"default_left":[0,0,0,0,0,0,0,0,0,0,0,0,0,0,0,0,0,0,0,0,0,0,0,0,0,0,0],"id":29,"left_children":[1,3,5,7,9,11,13,15,17,19,-1,21,23,25,-1,-1,-1,-1,-1,-1,-1,-1,-1,-1,-1,-1,-1],"loss_changes":[1.7485882E1,7.628828E0,3.281859E0,2.1264648E-1,2.441713E0,9.290304E-1,2.4166117E0,8.544407E-1,7.8593063E-1,1.7922891E0,0E0,2.0313146E0,1.1417818E-1,2.4919753E0,0E0,0E0,0E0,0E0,0E0,0E0,0E0,0E0,0E0,0E0,0E0,0E0,0E0],"parents":[2147483647,0,0,1,1,2,2,3,3,4,4,5,5,6,6,7,7,8,8,9,9,11,11,12,12,13,13],"right_children":[2,4,6,8,10,12,14,16,18,20,-1,22,24,26,-1,-1,-1,-1,-1,-1,-1,-1,-1,-1,-1,-1,-1],"split_conditions":[1E0,3E0,7.925E0,2.9E1,3.9E1,7.8E0,3E0,5E1,2E0,8.05E0,-3.5498217E-2,7.75E0,2.85E1,1.3E1,-4.2145904E-2,3.5794415E-2,-4.087142E-3,5.5607747E-2,1.470027E-2,2.5975881E-2,1.6115271E-5,-3.132018E-2,6.9994316E-3,-5.0607383E-2,-1.5654854E-2,1.2346352E-2,-1.0644295E-2],"split_indices":[5,0,4,4,1,4,2,1,3,4,0,4,1,1,0,0,0,0,0,0,0,0,0,0,0,0,0],"split_type":[0,0,0,0,0,0,0,0,0,0,0,0,0,0,0,0,0,0,0,0,0,0,0,0,0,0,0],"sum_hessian":[1.4180106E2,5.306811E1,8.873295E1,2.3337357E1,2.9730753E1,2.2333784E1,6.639916E1,1.0332154E1,1.3005202E1,2.7382347E1,2.348406E0,1.5863566E1,6.4702177E0,6.2598663E1,3.8005016E0,9.002661E0,1.329493E0,1.0717792E1,2.28741E0,9.632213E0,1.7750135E1,1.1524901E1,4.338665E0,5.0003796E0,1.469838E0,1.4606673E1,4.799199E1],"tree_param":{"num_deleted":"0","num_feature":"7","num_nodes":"27","size_leaf_vector":"1"}},{"base_weights":[-3.2469165E-3,4.3109822E-1,-2.6366568E-1,8.439477E-1,9.7358614E-2,-4.0314886E-1,-1.1148922E-2,5.9772664E-1,9.834839E-1,2.068366E-1,-5.621172E-1,-4.870726E-1,2.601033E-1,7.220902E-1,-1.3141085E-1,3.7045207E-2,2.502264E-3,5.4902572E-2,1.4270139E-2,5.414716E-4,3.1465728E-2,-4.0832918E-2,-4.3409164E-3,-2.0454688E-2,-4.0450674E-2,3.725957E-2,-3.8738597E-2,5.293749E-2,-1.217347E-2,-5.034132E-2,-1.3302533E-3],"categories":[],"categories_nodes":[],"categories_segments":[],"categories_sizes":[],"default_left":[0,0,0,0,0,0,0,0,0,0,0,0,0,0,0,0,0,0,0,0,0,0,0,0,0,0,0,0,0,0,0],"id":30,"left_children":[1,3,5,7,9,11,13,15,17,19,21,23,25,27,29,-1,-1,-1,-1,-1,-1,-1,-1,-1,-1,-1,-1,-1,-1,-1,-1],"loss_changes":[1.6114412E1,7.27592E0,3.1322513E0,2.278347E-1,2.3299477E0,3.3183708E0,2.9799044E0,8.362644E-1,7.746563E-1,2.2312493E0,4.8977125E-1,9.5558167E-1,4.1377587E0,1.8063619E0,2.629621E0,0E0,0E0,0E0,0E0,0E0,0E0,0E0,0E0,0E0,0E0,0E0,0E0,0E0,0E0,0E0,0E0],"parents":[2147483647,0,0,1,1,2,2,3,3,4,4,5,5,6,6,7,7,8,8,9,9,10,10,11,11,12,12,13,13,14,14],"right_children":[2,4,6,8,10,12,14,16,18,20,22,24,26,28,30,-1,-1,-1,-1,-1,-1,-1,-1,-1,-1,-1,-1,-1,-1,-1,-1],"split_conditions":[1E0,3E0,2.62833E1,2.9E1,2.54667E1,1E0,2.7E1,4.3E1,2E0,1.55E1,3.13875E1,1.4E1,2.05E1,4.9E1,2.87125E1,3.7045207E-2,2.502264E-3,5.4902572E-2,1.4270139E-2,5.414716E-4,3.1465728E-2,-4.0832918E-2,-4.3409164E-3,-2.0454688E-2,-4.0450674E-2,3.725957E-2,-3.8738597E-2,5.293749E-2,-1.217347E-2,-5.034132E-2,-1.3302533E-3],"split_indices":[5,0,4,4,4,3,4,1,3,4,4,4,1,1,4,0,0,0,0,0,0,0,0,0,0,0,0,0,0,0,0],"split_type":[0,0,0,0,0,0,0,0,0,0,0,0,0,0,0,0,0,0,0,0,0,0,0,0,0,0,0,0,0,0,0],"sum_hessian":[1.404598E2,5.240296E1,8.805684E1,2.2741741E1,2.9661219E1,5.6339787E1,3.1717049E1,1.0137357E1,1.2604384E1,2.6026917E1,3.6343026E0,5.0247425E1,6.092361E0,3.7639384E0,2.795311E1,7.756748E0,2.3806083E0,1.0335233E1,2.269152E0,1.8479193E1,7.5477233E0,1.8990748E0,1.735228E0,4.2277824E1,7.969602E0,4.338603E0,1.7537582E0,2.7192938E0,1.0446446E0,2.06854E0,2.588457E1],"tree_param":{"num_deleted":"0","num_feature":"7","num_nodes":"31","size_leaf_vector":"1"}},{"base_weights":[-2.9414473E-3,4.164967E-1,-2.5386286E-1,8.269519E-1,9.219969E-2,-5.70608E-1,-1.4222313E-1,5.8134675E-1,9.679419E-1,1.8032768E-1,-3.4536395E-2,-4.1400343E-1,-4.793083E-2,-8.889874E-2,-4.1220766E-2,3.617518E-2,2.416383E-3,5.4228164E-2,1.3852012E-2,2.486113E-2,-4.4119783E-4,-3.8017206E-2,3.690651E-4,1.2089441E-2,-9.66201E-3],"categories":[],"categories_nodes":[],"categories_segments":[],"categories_sizes":[],"default_left":[0,0,0,0,0,0,0,0,0,0,0,0,0,0,0,0,0,0,0,0,0,0,0,0,0],"id":31,"left_children":[1,3,5,7,9,11,13,15,17,19,-1,21,-1,23,-1,-1,-1,-1,-1,-1,-1,-1,-1,-1,-1],"loss_changes":[1.4837301E1,6.948162E0,3.0377526E0,2.3949146E-1,2.2362618E0,9.796581E-1,2.3475332E0,7.949269E-1,7.64225E-1,1.7008364E0,0E0,2.6179533E0,0E0,2.2151027E0,0E0,0E0,0E0,0E0,0E0,0E0,0E0,0E0,0E0,0E0,0E0],"parents":[2147483647,0,0,1,1,2,2,3,3,4,4,5,5,6,6,7,7,8,8,9,9,11,11,13,13],"right_children":[2,4,6,8,10,12,14,16,18,20,-1,22,-1,24,-1,-1,-1,-1,-1,-1,-1,-1,-1,-1,-1],"split_conditions":[1E0,3E0,7.925E0,2.9E1,3.9E1,3E1,3E0,4.3E1,2E0,8.05E0,-3.4536395E-2,2E1,-4.793083E-2,1.3E1,-4.1220766E-2,3.617518E-2,2.416383E-3,5.4228164E-2,1.3852012E-2,2.486113E-2,-4.4119783E-4,-3.8017206E-2,3.690651E-4,1.2089441E-2,-9.66201E-3],"split_indices":[5,0,4,4,1,1,2,1,3,4,0,1,0,1,0,0,0,0,0,0,0,0,0,0,0],"split_type":[0,0,0,0,0,0,0,0,0,0,0,0,0,0,0,0,0,0,0,0,0,0,0,0,0],"sum_hessian":[1.389727E2,5.177169E1,8.7201004E1,2.2166317E1,2.9605375E1,2.165372E1,6.554729E1,9.95244E0,1.2213876E1,2.7301891E1,2.3034835E0,1.6899778E1,4.7539434E0,6.184352E1,3.7037613E0,7.574849E0,2.3775911E0,9.962472E0,2.2514045E0,9.596206E0,1.7705687E1,8.834343E0,8.065434E0,1.4517183E1,4.732634E1],"tree_param":{"num_deleted":"0","num_feature":"7","num_nodes":"25","size_leaf_vector":"1"}},{"base_weights":[-3.0072972E-3,4.0255228E-1,-2.4450047E-1,8.103369E-1,8.745634E-2,-3.8096595E-1,-1.7672121E-3,5.6534916E-1,9.528455E-1,1.912489E-1,-5.4522413E-1,-4.6181175E-1,2.5093234E-1,7.0477873E-1,-1.1807605E-1,3.532249E-2,2.3333975E-3,5.3581547E-2,1.3445588E-2,1.3818949E-5,3.0164769E-2,-4.0024035E-2,-3.9096624E-3,-1.9143445E-2,-3.9467823E-2,3.5885945E-2,-3.7971508E-2,5.854646E-2,-2.327823E-3,-4.914593E-2,-8.0300553E-4],"categories":[],"categories_nodes":[],"categories_segments":[],"categories_sizes":[],"default_left":[0,0,0,0,0,0,0,0,0,0,0,0,0,0,0,0,0,0,0,0,0,0,0,0,0,0,0,0,0,0,0],"id":32,"left_children":[1,3,5,7,9,11,13,15,17,19,21,23,25,27,29,-1,-1,-1,-1,-1,-1,-1,-1,-1,-1,-1,-1,-1,-1,-1,-1],"loss_changes":[1.3682281E1,6.6289206E0,2.8995237E0,2.5059032E-1,2.10942E0,2.9787855E0,2.7550907E0,7.5547814E-1,7.5447655E-1,2.1222332E0,4.8137677E-1,9.9157524E-1,3.8485672E0,1.7143497E0,2.5228984E0,0E0,0E0,0E0,0E0,0E0,0E0,0E0,0E0,0E0,0E0,0E0,0E0,0E0,0E0,0E0,0E0],"parents":[2147483647,0,0,1,1,2,2,3,3,4,4,5,5,6,6,7,7,8,8,9,9,10,10,11,11,12,12,13,13,14,14],"right_children":[2,4,6,8,10,12,14,16,18,20,22,24,26,28,30,-1,-1,-1,-1,-1,-1,-1,-1,-1,-1,-1,-1,-1,-1,-1,-1],"split_conditions":[1E0,3E0,2.62833E1,2.9E1,2.54667E1,1E0,2.7E1,4.3E1,2E0,1.55E1,3.13875E1,1.4E1,2.05E1,4.3E1,2.87125E1,3.532249E-2,2.3333975E-3,5.3581547E-2,1.3445588E-2,1.3818949E-5,3.0164769E-2,-4.0024035E-2,-3.9096624E-3,-1.9143445E-2,-3.9467823E-2,3.5885945E-2,-3.7971508E-2,5.854646E-2,-2.327823E-3,-4.914593E-2,-8.0300553E-4],"split_indices":[5,0,4,4,4,3,4,1,3,4,4,4,1,1,4,0,0,0,0,0,0,0,0,0,0,0,0,0,0,0,0],"split_type":[0,0,0,0,0,0,0,0,0,0,0,0,0,0,0,0,0,0,0,0,0,0,0,0,0,0,0,0,0,0,0],"sum_hessian":[1.3769588E2,5.1141975E1,8.65539E1,2.160715E1,2.9534826E1,5.5040474E1,3.1513426E1,9.77316E0,1.1833989E1,2.5971811E1,3.563014E0,4.9035927E1,6.004547E0,3.7392018E0,2.7774223E1,7.3984847E0,2.3746755E0,9.59983E0,2.23416E0,1.8430458E1,7.541353E0,1.8421861E0,1.7208279E0,4.126048E1,7.7754483E0,4.305194E0,1.6993536E0,1.9628977E0,1.776304E0,2.019438E0,2.5754786E1],"tree_param":{"num_deleted":"0","num_feature":"7","num_nodes":"31","size_leaf_vector":"1"}},{"base_weights":[-2.6028547E-3,3.8885906E-1,-2.3516083E-1,7.9407036E-1,8.2757615E-2,-5.451006E-1,-1.2785809E-1,5.49719E-1,9.38149E-1,1.670145E-1,-3.36064E-2,-3.6253515E-1,-8.8177276E-1,-7.543088E-2,-4.0336587E-2,3.2470703E-2,-4.1809822E-3,5.2960034E-2,1.3050513E-2,2.3818439E-2,-8.503643E-4,-2.8759731E-2,9.64428E-3,-4.9151015E-2,-1.3528219E-2,-8.3086705E-3,1.3512879E-2],"categories":[],"categories_nodes":[],"categories_segments":[],"categories_sizes":[],"default_left":[0,0,0,0,0,0,0,0,0,0,0,0,0,0,0,0,0,0,0,0,0,0,0,0,0,0,0],"id":33,"left_children":[1,3,5,7,9,11,13,15,17,19,-1,21,23,25,-1,-1,-1,-1,-1,-1,-1,-1,-1,-1,-1,-1,-1],"loss_changes":[1.2590386E1,6.3274975E0,2.8154163E0,2.6107883E-1,2.0508413E0,1.0327601E0,2.2791991E0,7.235637E-1,7.4527454E-1,1.614579E0,0E0,1.9966784E0,1.6958046E-1,1.9940712E0,0E0,0E0,0E0,0E0,0E0,0E0,0E0,0E0,0E0,0E0,0E0,0E0,0E0],"parents":[2147483647,0,0,1,1,2,2,3,3,4,4,5,5,6,6,7,7,8,8,9,9,11,11,12,12,13,13],"right_children":[2,4,6,8,10,12,14,16,18,20,-1,22,24,26,-1,-1,-1,-1,-1,-1,-1,-1,-1,-1,-1,-1,-1],"split_conditions":[1E0,3E0,7.925E0,2.9E1,3.9E1,7.8E0,3E0,5E1,2E0,8.05E0,-3.36064E-2,7.75E0,2.85E1,1E0,-4.0336587E-2,3.2470703E-2,-4.1809822E-3,5.2960034E-2,1.3050513E-2,2.3818439E-2,-8.503643E-4,-2.8759731E-2,9.64428E-3,-4.9151015E-2,-1.3528219E-2,-8.3086705E-3,1.3512879E-2],"split_indices":[5,0,4,4,1,4,2,1,3,4,0,4,1,3,0,0,0,0,0,0,0,0,0,0,0,0,0],"split_type":[0,0,0,0,0,0,0,0,0,0,0,0,0,0,0,0,0,0,0,0,0,0,0,0,0,0,0],"sum_hessian":[1.362943E2,5.0543297E1,8.5751E1,2.1064444E1,2.9478855E1,2.1003416E1,6.474758E1,9.599498E0,1.1464946E1,2.7219494E1,2.2593603E0,1.4965156E1,6.0382605E0,6.113726E1,3.6103203E0,8.272004E0,1.3274941E0,9.247539E0,2.2174072E0,9.559914E0,1.765958E1,1.0795987E1,4.169168E0,4.658286E0,1.3799745E0,4.8836956E1,1.2300306E1],"tree_param":{"num_deleted":"0","num_feature":"7","num_nodes":"27","size_leaf_vector":"1"}},{"base_weights":[-2.7220952E-3,3.7564993E-1,-2.2637339E-1,7.778659E-1,7.844969E-2,-5.30393E-1,-1.22460246E-1,5.338227E-1,9.2381114E-1,1.8781267E-1,-4.7798455E-1,-3.6994028E-1,-4.6879303E-2,-7.175911E-2,-3.9465602E-2,3.3713475E-2,1.8460596E-3,5.236117E-2,1.2666496E-2,-4.589058E-4,3.2812845E-2,-3.267676E-2,-3.4938012E-3,-3.6279608E-2,2.409102E-3,1.1905352E-2,-8.521418E-3],"categories":[],"categories_nodes":[],"categories_segments":[],"categories_sizes":[],"default_left":[0,0,0,0,0,0,0,0,0,0,0,0,0,0,0,0,0,0,0,0,0,0,0,0,0,0,0],"id":34,"left_children":[1,3,5,7,9,11,13,15,17,19,21,23,-1,25,-1,-1,-1,-1,-1,-1,-1,-1,-1,-1,-1,-1,-1],"loss_changes":[1.1603481E1,6.0285597E0,2.6573567E0,2.7384567E-1,1.940186E0,1.0676856E0,2.1586468E0,7.0283556E-1,7.364979E-1,2.417367E0,3.3238542E-1,2.5900815E0,0E0,1.9359323E0,0E0,0E0,0E0,0E0,0E0,0E0,0E0,0E0,0E0,0E0,0E0,0E0,0E0],"parents":[2147483647,0,0,1,1,2,2,3,3,4,4,5,5,6,6,7,7,8,8,9,9,10,10,11,11,13,13],"right_children":[2,4,6,8,10,12,14,16,18,20,22,24,-1,26,-1,-1,-1,-1,-1,-1,-1,-1,-1,-1,-1,-1,-1],"split_conditions":[1E0,3E0,7.925E0,2.9E1,2.345E1,3E1,3E0,4.3E1,2E0,1.55E1,3.13875E1,2E1,-4.6879303E-2,1.3E1,-3.9465602E-2,3.3713475E-2,1.8460596E-3,5.236117E-2,1.2666496E-2,-4.589058E-4,3.2812845E-2,-3.267676E-2,-3.4938012E-3,-3.6279608E-2,2.409102E-3,1.1905352E-2,-8.521418E-3],"split_indices":[5,0,4,4,4,1,2,1,3,4,4,1,0,1,0,0,0,0,0,0,0,0,0,0,0,0,0],"split_type":[0,0,0,0,0,0,0,0,0,0,0,0,0,0,0,0,0,0,0,0,0,0,0,0,0,0,0],"sum_hessian":[1.351142E2,4.9942364E1,8.517183E1,2.0534576E1,2.9407785E1,2.0650448E1,6.4521385E1,9.427694E0,1.1106883E1,2.5130955E1,4.2768307E0,1.6182367E1,4.46808E0,6.0991756E1,3.5296302E0,7.071906E0,2.3557882E0,8.905746E0,2.201137E0,1.8381535E1,6.74942E0,2.569966E0,1.7068644E0,8.347059E0,7.8353076E0,1.4389386E1,4.6602367E1],"tree_param":{"num_deleted":"0","num_feature":"7","num_nodes":"27","size_leaf_vector":"1"}},{"base_weights":[-2.7492752E-3,3.631154E-1,-2.1800388E-1,7.6221085E-1,7.4558765E-2,-3.5113108E-1,1.3210196E-2,8.105613E-1,2.6288736E-1,4.15256E-1,-1.0694155E-1,-4.2757493E-1,2.352847E-1,6.967229E-1,-1.0034729E-1,2.5944293E-2,5.2113492E-2,3.314128E-2,-1.54692335E-2,3.402857E-2,-2.5920508E-2,-4.5931123E-2,7.6071443E-3,-1.7311169E-2,-3.832275E-2,3.4483507E-2,-3.7454344E-2,5.066849E-2,-1.1243822E-2,-4.7839925E-2,-5.45698E-5],"categories":[],"categories_nodes":[],"categories_segments":[],"categories_sizes":[],"default_left":[0,0,0,0,0,0,0,0,0,0,0,0,0,0,0,0,0,0,0,0,0,0,0,0,0,0,0,0,0,0,0],"id":35,"left_children":[1,3,5,7,9,11,13,15,17,19,21,23,25,27,29,-1,-1,-1,-1,-1,-1,-1,-1,-1,-1,-1,-1,-1,-1,-1,-1],"loss_changes":[1.0707077E1,5.743028E0,2.639112E0,2.9451275E-1,1.9203877E0,2.5370464E0,2.572074E0,7.222481E-1,9.686296E-1,3.015579E0,4.469377E0,1.0699968E0,3.608721E0,1.6048822E0,2.4232278E0,0E0,0E0,0E0,0E0,0E0,0E0,0E0,0E0,0E0,0E0,0E0,0E0,0E0,0E0,0E0,0E0],"parents":[2147483647,0,0,1,1,2,2,3,3,4,4,5,5,6,6,7,7,8,8,9,9,10,10,11,11,12,12,13,13,14,14],"right_children":[2,4,6,8,10,12,14,16,18,20,22,24,26,28,30,-1,-1,-1,-1,-1,-1,-1,-1,-1,-1,-1,-1,-1,-1,-1,-1],"split_conditions":[1E0,3E0,2.62833E1,1.5155E2,8.05E0,1E0,2.7E1,2.9E1,2E0,2.3E1,1.11333E1,1.4E1,2.05E1,4.9E1,2.87125E1,2.5944293E-2,5.2113492E-2,3.314128E-2,-1.54692335E-2,3.402857E-2,-2.5920508E-2,-4.5931123E-2,7.6071443E-3,-1.7311169E-2,-3.832275E-2,3.4483507E-2,-3.7454344E-2,5.066849E-2,-1.1243822E-2,-4.7839925E-2,-5.45698E-5],"split_indices":[5,0,4,4,4,3,4,4,3,1,4,4,1,1,4,0,0,0,0,0,0,0,0,0,0,0,0,0,0,0,0],"split_type":[0,0,0,0,0,0,0,0,0,0,0,0,0,0,0,0,0,0,0,0,0,0,0,0,0,0,0,0,0,0,0],"sum_hessian":[1.3395071E2,4.9362755E1,8.458797E1,2.0025093E1,2.9337662E1,5.335111E1,3.1236856E1,1.768892E1,2.3361728E0,9.749259E0,1.9588404E1,4.7438057E1,5.9130516E0,3.7186353E0,2.751822E1,9.265221E0,8.423699E0,1.2819992E0,1.0541737E0,7.8029957E0,1.9462636E0,4.1236973E0,1.5464705E1,3.9884945E1,7.553113E0,4.2504334E0,1.6626179E0,2.6935852E0,1.0250503E0,1.9606457E0,2.5557575E1],"tree_param":{"num_deleted":"0","num_feature":"7","num_nodes":"31","size_leaf_vector":"1"}},{"base_weights":[-2.626251E-3,3.503821E-1,-2.0980792E-1,7.4640566E-1,7.002346E-2,-5.065024E-1,-1.1007373E-1,5.031954E-1,8.9628845E-1,1.5017833E-1,-3.2549027E-2,-3.2065615E-1,-8.5576475E-1,-6.027199E-2,-3.8645923E-2,3.2282196E-2,8.864524E-4,5.125441E-2,1.1735502E-2,4.002984E-3,4.787271E-2,-2.6833165E-2,1.1109479E-2,-4.8067823E-2,-1.2014735E-2,1.16254715E-2,-7.711661E-3],"categories":[],"categories_nodes":[],"categories_segments":[],"categories_sizes":[],"default_left":[0,0,0,0,0,0,0,0,0,0,0,0,0,0,0,0,0,0,0,0,0,0,0,0,0,0,0],"id":36,"left_children":[1,3,5,7,9,11,13,15,17,19,-1,21,23,25,-1,-1,-1,-1,-1,-1,-1,-1,-1,-1,-1,-1,-1],"loss_changes":[9.84793E0,5.47721E0,2.4548104E0,2.9771423E-1,1.8467149E0,1.0930576E0,2.0917225E0,6.8780804E-1,7.331772E-1,1.5109873E0,0E0,1.9191352E0,2.055564E-1,1.72316E0,0E0,0E0,0E0,0E0,0E0,0E0,0E0,0E0,0E0,0E0,0E0,0E0,0E0],"parents":[2147483647,0,0,1,1,2,2,3,3,4,4,5,5,6,6,7,7,8,8,9,9,11,11,12,12,13,13],"right_children":[2,4,6,8,10,12,14,16,18,20,-1,22,24,26,-1,-1,-1,-1,-1,-1,-1,-1,-1,-1,-1,-1,-1],"split_conditions":[1E0,3E0,7.925E0,2.9E1,3.9E1,7.8E0,3E0,4.3E1,2E0,3.25E1,-3.2549027E-2,7.75E0,2.85E1,1.3E1,-3.8645923E-2,3.2282196E-2,8.864524E-4,5.125441E-2,1.1735502E-2,4.002984E-3,4.787271E-2,-2.6833165E-2,1.1109479E-2,-4.8067823E-2,-1.2014735E-2,1.16254715E-2,-7.711661E-3],"split_indices":[5,0,4,4,1,4,2,1,3,1,0,4,1,1,0,0,0,0,0,0,0,0,0,0,0,0,0],"split_type":[0,0,0,0,0,0,0,0,0,0,0,0,0,0,0,0,0,0,0,0,0,0,0,0,0,0,0],"sum_hessian":[1.3264558E2,4.880225E1,8.384333E1,1.9539373E1,2.9262877E1,2.0067366E1,6.3775967E1,9.1115675E0,1.0427805E1,2.7047665E1,2.2152114E0,1.4349788E1,5.717579E0,6.0333813E1,3.4421518E0,6.7894273E0,2.3221405E0,8.268576E0,2.1592298E0,2.5897429E1,1.1502354E0,1.0273273E1,4.076514E0,4.400611E0,1.3169682E0,1.4300184E1,4.603363E1],"tree_param":{"num_deleted":"0","num_feature":"7","num_nodes":"27","size_leaf_vector":"1"}},{"base_weights":[-2.468959E-3,3.3879435E-1,-2.0198688E-1,7.312567E-1,6.719162E-2,-3.3166507E-1,1.9760868E-2,4.8889568E-1,8.8280565E-1,1.727003E-1,-4.693565E-1,-4.049608E-1,2.262148E-1,6.7936045E-1,-9.003076E-2,3.150041E-2,8.557578E-4,5.1058043E-2,1.188566E-2,-7.058498E-4,3.0835414E-2,-3.2079034E-2,-3.5805702E-3,-1.6152423E-2,-3.7415802E-2,3.3229865E-2,-3.6752913E-2,5.6127645E-2,-1.9560845E-3,-4.6796154E-2,3.263425E-4],"categories":[],"categories_nodes":[],"categories_segments":[],"categories_sizes":[],"default_left":[0,0,0,0,0,0,0,0,0,0,0,0,0,0,0,0,0,0,0,0,0,0,0,0,0,0,0,0,0,0,0],"id":37,"left_children":[1,3,5,7,9,11,13,15,17,19,21,23,25,27,29,-1,-1,-1,-1,-1,-1,-1,-1,-1,-1,-1,-1,-1,-1,-1,-1],"loss_changes":[9.097744E0,5.2059345E0,2.431022E0,3.052864E-1,1.7928137E0,2.2692876E0,2.3825707E0,6.522808E-1,7.4819565E-1,2.165327E0,3.1285667E-1,1.0922465E0,3.3650622E0,1.5377495E0,2.322816E0,0E0,0E0,0E0,0E0,0E0,0E0,0E0,0E0,0E0,0E0,0E0,0E0,0E0,0E0,0E0,0E0],"parents":[2147483647,0,0,1,1,2,2,3,3,4,4,5,5,6,6,7,7,8,8,9,9,10,10,11,11,12,12,13,13,14,14],"right_children":[2,4,6,8,10,12,14,16,18,20,22,24,26,28,30,-1,-1,-1,-1,-1,-1,-1,-1,-1,-1,-1,-1,-1,-1,-1,-1],"split_conditions":[1E0,3E0,2.62833E1,2.9E1,2.345E1,1E0,2.7E1,4.3E1,1.5155E2,1.55E1,3.13875E1,1.4E1,2.05E1,4.3E1,2.87125E1,3.150041E-2,8.557578E-4,5.1058043E-2,1.188566E-2,-7.058498E-4,3.0835414E-2,-3.2079034E-2,-3.5805702E-3,-1.6152423E-2,-3.7415802E-2,3.3229865E-2,-3.6752913E-2,5.6127645E-2,-1.9560845E-3,-4.6796154E-2,3.263425E-4],"split_indices":[5,0,4,4,4,3,4,1,4,4,4,4,1,1,4,0,0,0,0,0,0,0,0,0,0,0,0,0,0,0,0],"split_type":[0,0,0,0,0,0,0,0,0,0,0,0,0,0,0,0,0,0,0,0,0,0,0,0,0,0,0,0,0,0,0],"sum_hessian":[1.316121E2,4.829993E1,8.331217E1,1.9062498E1,2.9237432E1,5.2256725E1,3.1055445E1,8.959779E0,1.0102719E1,2.499956E1,4.237873E0,4.643065E1,5.826077E0,3.6913068E0,2.7364138E1,6.638714E0,2.3210647E0,7.838583E0,2.2641358E0,1.8277477E1,6.722082E0,2.529536E0,1.708337E0,3.9054493E1,7.376158E0,4.21327E0,1.612807E0,1.9351953E0,1.7561115E0,1.9129401E0,2.5451197E1],"tree_param":{"num_deleted":"0","num_feature":"7","num_nodes":"31","size_leaf_vector":"1"}},{"base_weights":[-2.04318E-3,3.2737145E-1,-1.9416629E-1,7.1621454E-1,6.378701E-2,-4.8320496E-1,-9.849718E-2,4.7491798E-1,8.6924344E-1,3.9589864E-1,-1.123182E-1,-3.1803378E-1,-4.571008E-2,-4.960372E-2,-3.78567E-2,2.8750053E-2,-4.9336576E-3,5.0249774E-2,1.0455723E-2,3.2631066E-2,-2.5103971E-2,-4.4344436E-2,6.7853476E-3,-3.4346998E-2,4.9863067E-3,3.4763854E-2,-4.1631632E-3],"categories":[],"categories_nodes":[],"categories_segments":[],"categories_sizes":[],"default_left":[0,0,0,0,0,0,0,0,0,0,0,0,0,0,0,0,0,0,0,0,0,0,0,0,0,0,0],"id":38,"left_children":[1,3,5,7,9,11,13,15,17,19,21,23,-1,25,-1,-1,-1,-1,-1,-1,-1,-1,-1,-1,-1,-1,-1],"loss_changes":[8.378798E0,4.953138E0,2.26452E0,3.1115818E-1,1.8087618E0,1.1712613E0,2.025927E0,6.200836E-1,7.5707054E-1,2.7883437E0,4.057111E0,2.5930119E0,0E0,1.5802684E0,0E0,0E0,0E0,0E0,0E0,0E0,0E0,0E0,0E0,0E0,0E0,0E0,0E0],"parents":[2147483647,0,0,1,1,2,2,3,3,4,4,5,5,6,6,7,7,8,8,9,9,10,10,11,11,13,13],"right_children":[2,4,6,8,10,12,14,16,18,20,22,24,-1,26,-1,-1,-1,-1,-1,-1,-1,-1,-1,-1,-1,-1,-1],"split_conditions":[1E0,3E0,7.925E0,2.9E1,8.05E0,3E1,3E0,5E1,2E0,2.3E1,1.11333E1,2E1,-4.571008E-2,8.0292E0,-3.78567E-2,2.8750053E-2,-4.9336576E-3,5.0249774E-2,1.0455723E-2,3.2631066E-2,-2.5103971E-2,-4.4344436E-2,6.7853476E-3,-3.4346998E-2,4.9863067E-3,3.4763854E-2,-4.1631632E-3],"split_indices":[5,0,4,4,4,1,2,1,3,1,4,1,0,4,0,0,0,0,0,0,0,0,0,0,0,0,0],"split_type":[0,0,0,0,0,0,0,0,0,0,0,0,0,0,0,0,0,0,0,0,0,0,0,0,0,0,0],"sum_hessian":[1.3038686E2,4.7772343E1,8.261452E1,1.8606537E1,2.9165808E1,1.9537222E1,6.3077297E1,8.81324E0,9.793298E0,9.673936E0,1.949187E1,1.5380748E1,4.1564736E0,5.971938E1,3.3579156E0,7.5018253E0,1.3114145E0,7.689557E0,2.1037405E0,7.735632E0,1.9383043E0,4.1029034E0,1.5388968E1,7.8257856E0,7.554962E0,1.7320998E0,5.798728E1],"tree_param":{"num_deleted":"0","num_feature":"7","num_nodes":"27","size_leaf_vector":"1"}},{"base_weights":[-2.1613922E-3,3.1575304E-1,-1.865358E-1,7.012401E-1,5.9776936E-2,-3.1288335E-1,2.6380079E-2,4.606159E-1,8.5617375E-1,1.5342635E-1,-5.163236E-1,-3.8404894E-1,2.2320893E-1,6.6332245E-1,-7.993361E-2,3.0025447E-2,4.925581E-4,5.006255E-2,1.0616788E-2,-8.108465E-4,2.5995916E-2,-3.837342E-2,-3.6775854E-3,-1.5130341E-2,-3.6403056E-2,3.7836727E-2,-2.7298389E-2,5.4774195E-2,-1.7628213E-3,-4.574455E-2,6.932021E-4],"categories":[],"categories_nodes":[],"categories_segments":[],"categories_sizes":[],"default_left":[0,0,0,0,0,0,0,0,0,0,0,0,0,0,0,0,0,0,0,0,0,0,0,0,0,0,0,0,0,0,0],"id":39,"left_children":[1,3,5,7,9,11,13,15,17,19,21,23,25,27,29,-1,-1,-1,-1,-1,-1,-1,-1,-1,-1,-1,-1,-1,-1,-1,-1],"loss_changes":[7.7032347E0,4.7184596E0,2.2457144E0,3.198614E-1,1.7023295E0,2.0801015E0,2.2129602E0,6.037617E-1,7.6720285E-1,1.665272E0,4.368049E-1,1.0829482E0,3.1867502E0,1.448504E0,2.2233486E0,0E0,0E0,0E0,0E0,0E0,0E0,0E0,0E0,0E0,0E0,0E0,0E0,0E0,0E0,0E0,0E0],"parents":[2147483647,0,0,1,1,2,2,3,3,4,4,5,5,6,6,7,7,8,8,9,9,10,10,11,11,12,12,13,13,14,14],"right_children":[2,4,6,8,10,12,14,16,18,20,22,24,26,28,30,-1,-1,-1,-1,-1,-1,-1,-1,-1,-1,-1,-1,-1,-1,-1,-1],"split_conditions":[1E0,3E0,2.62833E1,2.9E1,2.54667E1,1E0,2.7E1,4.3E1,1.5155E2,1.55E1,3.13875E1,1.4E1,1E1,4.3E1,2.87125E1,3.0025447E-2,4.925581E-4,5.006255E-2,1.0616788E-2,-8.108465E-4,2.5995916E-2,-3.837342E-2,-3.6775854E-3,-1.5130341E-2,-3.6403056E-2,3.7836727E-2,-2.7298389E-2,5.4774195E-2,-1.7628213E-3,-4.574455E-2,6.932021E-4],"split_indices":[5,0,4,4,4,3,4,1,4,4,4,4,1,1,4,0,0,0,0,0,0,0,0,0,0,0,0,0,0,0,0],"split_type":[0,0,0,0,0,0,0,0,0,0,0,0,0,0,0,0,0,0,0,0,0,0,0,0,0,0,0,0,0,0,0],"sum_hessian":[1.2941539E2,4.7242752E1,8.217264E1,1.8158098E1,2.9084656E1,5.127547E1,3.0897163E1,8.66839E0,9.489708E0,2.5648916E1,3.4357402E0,4.551679E1,5.7586827E0,3.6700447E0,2.722712E1,6.361824E0,2.3065662E0,7.291559E0,2.198149E0,1.818645E1,7.4624662E0,1.7243468E0,1.7113934E0,3.832362E1,7.193169E0,3.4097478E0,2.3489347E0,1.9163646E0,1.7536801E0,1.8656659E0,2.5361454E1],"tree_param":{"num_deleted":"0","num_feature":"7","num_nodes":"31","size_leaf_vector":"1"}},{"base_weights":[-1.734226E-3,3.0473366E-1,-1.7915271E-1,6.866344E-1,5.631562E-2,-4.603984E-1,-8.764634E-2,4.472592E-1,8.4299934E-1,3.8002065E-1,-1.1458909E-1,-2.958397E-1,-4.4973064E-2,-3.968108E-2,-3.7112452E-2,2.9281825E-2,4.7546692E-4,4.9297713E-2,9.248661E-3,3.1445846E-2,-2.4305772E-2,-4.2720784E-2,6.123838E-3,-3.3225607E-2,5.464726E-3,1.1752556E-2,-6.432046E-3],"categories":[],"categories_nodes":[],"categories_segments":[],"categories_sizes":[],"default_left":[0,0,0,0,0,0,0,0,0,0,0,0,0,0,0,0,0,0,0,0,0,0,0,0,0,0,0],"id":40,"left_children":[1,3,5,7,9,11,13,15,17,19,21,23,-1,25,-1,-1,-1,-1,-1,-1,-1,-1,-1,-1,-1,-1,-1],"loss_changes":[7.082164E0,4.4922934E0,2.082543E0,3.2414436E-1,1.7046609E0,1.1800022E0,1.9634947E0,5.7183254E-1,7.7723026E-1,2.5922894E0,3.685929E0,2.4696543E0,0E0,1.5014458E0,0E0,0E0,0E0,0E0,0E0,0E0,0E0,0E0,0E0,0E0,0E0,0E0,0E0],"parents":[2147483647,0,0,1,1,2,2,3,3,4,4,5,5,6,6,7,7,8,8,9,9,10,10,11,11,13,13],"right_children":[2,4,6,8,10,12,14,16,18,20,22,24,-1,26,-1,-1,-1,-1,-1,-1,-1,-1,-1,-1,-1,-1,-1],"split_conditions":[1E0,3E0,7.925E0,2.9E1,8.05E0,3E1,3E0,4.3E1,2E0,2.3E1,1.11333E1,2E1,-4.4973064E-2,1.3E1,-3.7112452E-2,2.9281825E-2,4.7546692E-4,4.9297713E-2,9.248661E-3,3.1445846E-2,-2.4305772E-2,-4.2720784E-2,6.123838E-3,-3.3225607E-2,5.464726E-3,1.1752556E-2,-6.432046E-3],"split_indices":[5,0,4,4,4,1,2,1,3,1,4,1,0,1,0,0,0,0,0,0,0,0,0,0,0,0,0],"split_type":[0,0,0,0,0,0,0,0,0,0,0,0,0,0,0,0,0,0,0,0,0,0,0,0,0,0,0],"sum_hessian":[1.2824727E2,4.675916E1,8.1488106E1,1.7733252E1,2.9025908E1,1.9014751E1,6.2473354E1,8.532069E0,9.201182E0,9.606662E0,1.9419247E1,1.5048458E1,3.9662943E0,5.9196423E1,3.2769313E0,6.2261004E0,2.3059688E0,7.1495957E0,2.0515869E0,7.6750197E0,1.9316419E0,4.0805826E0,1.5338663E1,7.5435734E0,7.5048842E0,1.4077879E1,4.511854E1],"tree_param":{"num_deleted":"0","num_feature":"7","num_nodes":"27","size_leaf_vector":"1"}},{"base_weights":[-2.009293E-3,2.9399866E-1,-1.7254955E-1,6.7234486E-1,5.2682016E-2,-2.9554012E-1,3.1615466E-2,4.3420547E-1,8.302648E-1,1.534117E-1,-4.58292E-1,-3.6374095E-1,2.1695966E-1,1.2408365E-1,-6.493585E-1,2.9446214E-2,1.1931745E-3,4.9116194E-2,9.4171995E-3,-8.999495E-4,2.8013477E-2,-8.419914E-3,-3.6768075E-2,-1.4101534E-2,-3.555807E-2,3.171524E-2,-3.5609704E-2,1.7870426E-2,-1.346782E-2,-7.6853074E-3,-3.9329376E-2],"categories":[],"categories_nodes":[],"categories_segments":[],"categories_sizes":[],"default_left":[0,0,0,0,0,0,0,0,0,0,0,0,0,0,0,0,0,0,0,0,0,0,0,0,0,0,0,0,0,0,0],"id":41,"left_children":[1,3,5,7,9,11,13,15,17,19,21,23,25,27,29,-1,-1,-1,-1,-1,-1,-1,-1,-1,-1,-1,-1,-1,-1,-1,-1],"loss_changes":[6.526189E0,4.2793674E0,2.0687878E0,3.284197E-1,1.6113125E0,1.8712816E0,2.0789573E0,5.8277047E-1,7.8312254E-1,1.806493E0,2.9230714E-1,1.0947809E0,3.0300562E0,2.738405E0,1.4808238E-1,0E0,0E0,0E0,0E0,0E0,0E0,0E0,0E0,0E0,0E0,0E0,0E0,0E0,0E0,0E0,0E0],"parents":[2147483647,0,0,1,1,2,2,3,3,4,4,5,5,6,6,7,7,8,8,9,9,10,10,11,11,12,12,13,13,14,14],"right_children":[2,4,6,8,10,12,14,16,18,20,22,24,26,28,30,-1,-1,-1,-1,-1,-1,-1,-1,-1,-1,-1,-1,-1,-1,-1,-1],"split_conditions":[1E0,3E0,2.62833E1,2.9E1,2.345E1,1E0,3E0,1E0,1.5155E2,1.55E1,3.23208E1,1.4E1,2.05E1,3.9E1,3.23208E1,2.9446214E-2,1.1931745E-3,4.9116194E-2,9.4171995E-3,-8.999495E-4,2.8013477E-2,-8.419914E-3,-3.6768075E-2,-1.4101534E-2,-3.555807E-2,3.171524E-2,-3.5609704E-2,1.7870426E-2,-1.346782E-2,-7.6853074E-3,-3.9329376E-2],"split_indices":[5,0,4,4,4,3,2,2,4,4,4,4,1,1,4,0,0,0,0,0,0,0,0,0,0,0,0,0,0,0,0],"split_type":[0,0,0,0,0,0,0,0,0,0,0,0,0,0,0,0,0,0,0,0,0,0,0,0,0,0,0,0,0,0,0],"sum_hessian":[1.2727449E2,4.6258812E1,8.101568E1,1.7319084E1,2.8939726E1,5.0279415E1,3.0736263E1,8.400646E0,8.918438E0,2.4758736E1,4.18099E0,4.463048E1,5.6489325E0,2.7781631E1,2.9546309E0,5.7844324E0,2.6162143E0,6.781693E0,2.1367452E0,1.8092192E1,6.666545E0,2.8289182E0,1.3520718E0,3.759925E1,7.0312333E0,4.1170297E0,1.5319028E0,1.7496893E1,1.02847395E1,1.1003582E0,1.8542726E0],"tree_param":{"num_deleted":"0","num_feature":"7","num_nodes":"31","size_leaf_vector":"1"}},{"base_weights":[-2.118986E-3,2.836644E-1,-1.6642788E-1,6.577792E-1,4.9546838E-2,-4.7085878E-1,-8.5892424E-2,4.210589E-1,8.1740916E-1,3.6492226E-1,-1.1633884E-1,-6.741178E-1,-2.4042064E-1,7.2586393E-1,-1.8728626E-1,2.805811E-2,-3.483717E-4,4.838866E-2,8.1113875E-3,3.0312533E-2,-2.3533395E-2,-4.117747E-2,5.5217003E-3,-1.5850758E-2,-4.655117E-2,3.295001E-2,-2.2317093E-2,6.879886E-2,-2.8776616E-2,6.7581423E-3,-1.7415753E-2],"categories":[],"categories_nodes":[],"categories_segments":[],"categories_sizes":[],"default_left":[0,0,0,0,0,0,0,0,0,0,0,0,0,0,0,0,0,0,0,0,0,0,0,0,0,0,0,0,0,0,0],"id":42,"left_children":[1,3,5,7,9,11,13,15,17,19,21,23,25,27,29,-1,-1,-1,-1,-1,-1,-1,-1,-1,-1,-1,-1,-1,-1,-1,-1],"loss_changes":[6.0207148E0,4.0673156E0,1.9553611E0,3.3359003E-1,1.6053175E0,6.251242E-1,5.5350223E0,5.607809E-1,7.936859E-1,2.4105039E0,3.3521311E0,4.7323775E-1,2.0408554E0,7.1278486E0,3.1161773E0,0E0,0E0,0E0,0E0,0E0,0E0,0E0,0E0,0E0,0E0,0E0,0E0,0E0,0E0,0E0,0E0],"parents":[2147483647,0,0,1,1,2,2,3,3,4,4,5,5,6,6,7,7,8,8,9,9,10,10,11,11,12,12,13,13,14,14],"right_children":[2,4,6,8,10,12,14,16,18,20,22,24,26,28,30,-1,-1,-1,-1,-1,-1,-1,-1,-1,-1,-1,-1,-1,-1,-1,-1],"split_conditions":[1E0,3E0,4.2E-1,2.9E1,8.05E0,8.1125E0,1.3E1,4.3E1,2E0,2.3E1,1.11333E1,7.7875E0,1.45E1,3E0,2E0,2.805811E-2,-3.483717E-4,4.838866E-2,8.1113875E-3,3.0312533E-2,-2.3533395E-2,-4.117747E-2,5.5217003E-3,-1.5850758E-2,-4.655117E-2,3.295001E-2,-2.2317093E-2,6.879886E-2,-2.8776616E-2,6.7581423E-3,-1.7415753E-2],"split_indices":[5,0,1,4,4,4,1,1,3,1,4,4,4,2,0,0,0,0,0,0,0,0,0,0,0,0,0,0,0,0,0],"split_type":[0,0,0,0,0,0,0,0,0,0,0,0,0,0,0,0,0,0,0,0,0,0,0,0,0,0,0,0,0,0,0],"sum_hessian":[1.2621292E2,4.5809605E1,8.040331E1,1.6936243E1,2.8873363E1,1.58065605E1,6.4596756E1,8.286156E0,8.650087E0,9.5387745E0,1.9334589E1,7.37555E0,8.431011E0,6.4887924E0,5.8107964E1,6.0084124E0,2.2777433E0,6.647402E0,2.0026853E0,7.614174E0,1.9246001E0,4.055515E0,1.5279075E1,4.020697E0,3.3548527E0,1.1607674E0,7.2702436E0,4.2889414E0,2.1998515E0,1.9407137E1,3.8700825E1],"tree_param":{"num_deleted":"0","num_feature":"7","num_nodes":"31","size_leaf_vector":"1"}},{"base_weights":[-1.7572413E-3,2.736177E-1,-1.597576E-1,6.4385384E-1,4.6252776E-2,-4.5522532E-1,-8.180764E-2,3.7928692E-1,7.8197837E-1,1.20222166E-1,-3.0982753E-2,-6.6003895E-1,-2.2783923E-1,7.454929E-1,-1.7474575E-1,3.8658265E-2,-2.1984024E-2,4.8556875E-2,1.711451E-2,2.580743E-3,4.5335922E-2,-1.5365864E-2,-4.5866214E-2,3.1793155E-2,-2.1438029E-2,6.730946E-2,-2.550954E-2,6.4262594E-3,-1.62857E-2],"categories":[],"categories_nodes":[],"categories_segments":[],"categories_sizes":[],"default_left":[0,0,0,0,0,0,0,0,0,0,0,0,0,0,0,0,0,0,0,0,0,0,0,0,0,0,0,0,0],"id":43,"left_children":[1,3,5,7,9,11,13,15,17,19,-1,21,23,25,27,-1,-1,-1,-1,-1,-1,-1,-1,-1,-1,-1,-1,-1,-1],"loss_changes":[5.5292783E0,3.8705752E0,1.8224223E0,3.4477758E-1,1.5415199E0,6.2438345E-1,5.1362567E0,2.9082599E0,5.482955E-1,1.4448049E0,0E0,4.6453118E-1,1.9057326E0,5.789809E0,2.7588105E0,0E0,0E0,0E0,0E0,0E0,0E0,0E0,0E0,0E0,0E0,0E0,0E0,0E0,0E0],"parents":[2147483647,0,0,1,1,2,2,3,3,4,4,5,5,6,6,7,7,8,8,9,9,11,11,12,12,13,13,14,14],"right_children":[2,4,6,8,10,12,14,16,18,20,-1,22,24,26,28,-1,-1,-1,-1,-1,-1,-1,-1,-1,-1,-1,-1,-1,-1],"split_conditions":[1E0,3E0,4.2E-1,2.8E1,3.9E1,8.1125E0,1E1,2.4E1,4.4E1,3.25E1,-3.0982753E-2,7.7875E0,1.45E1,3E0,2E0,3.8658265E-2,-2.1984024E-2,4.8556875E-2,1.711451E-2,2.580743E-3,4.5335922E-2,-1.5365864E-2,-4.5866214E-2,3.1793155E-2,-2.1438029E-2,6.730946E-2,-2.550954E-2,6.4262594E-3,-1.62857E-2],"split_indices":[5,0,1,1,1,4,1,1,1,1,0,4,4,2,0,0,0,0,0,0,0,0,0,0,0,0,0,0,0],"split_type":[0,0,0,0,0,0,0,0,0,0,0,0,0,0,0,0,0,0,0,0,0,0,0,0,0,0,0,0,0],"sum_hessian":[1.2507788E2,4.533422E1,7.974366E1,1.6551048E1,2.8783173E1,1.5635947E1,6.410771E1,6.96195E0,9.589098E0,2.6643105E1,2.1400685E0,7.2252345E0,8.410713E0,5.7653465E0,5.834236E1,4.738782E0,2.2231677E0,5.859553E0,3.7295454E0,2.5485582E1,1.1575211E0,3.9729862E0,3.2522483E0,1.1787733E0,7.23194E0,3.8510146E0,1.914332E0,1.9439732E1,3.890263E1],"tree_param":{"num_deleted":"0","num_feature":"7","num_nodes":"29","size_leaf_vector":"1"}},{"base_weights":[-1.0191461E-3,2.6442018E-1,-1.5328667E-1,6.2953246E-1,4.4525884E-2,-4.154612E-1,-7.031304E-2,3.9154026E-1,7.9443705E-1,1.4212242E-1,-4.5005658E-1,-2.466347E-1,-4.391673E-2,3.6364537E-2,-1.04740225E-1,2.7463948E-2,-4.3785825E-4,4.7888633E-2,7.4513266E-3,1.9725994E-3,4.0719803E-2,-3.1193245E-2,-2.939267E-3,-3.122038E-2,7.489743E-3,-3.0417526E-3,-3.4906786E-2],"categories":[],"categories_nodes":[],"categories_segments":[],"categories_sizes":[],"default_left":[0,0,0,0,0,0,0,0,0,0,0,0,0,0,0,0,0,0,0,0,0,0,0,0,0,0,0],"id":44,"left_children":[1,3,5,7,9,11,13,15,17,19,21,23,-1,-1,25,-1,-1,-1,-1,-1,-1,-1,-1,-1,-1,-1,-1],"loss_changes":[5.09503E0,3.661436E0,1.7132987E0,3.638692E-1,1.5003079E0,1.2722645E0,1.7800074E0,5.737606E-1,8.257079E-1,1.7357173E0,3.1316233E-1,2.3925462E0,0E0,0E0,1.529994E0,0E0,0E0,0E0,0E0,0E0,0E0,0E0,0E0,0E0,0E0,0E0,0E0],"parents":[2147483647,0,0,1,1,2,2,3,3,4,4,5,5,6,6,7,7,8,8,9,9,10,10,11,11,14,14],"right_children":[2,4,6,8,10,12,14,16,18,20,22,24,-1,-1,26,-1,-1,-1,-1,-1,-1,-1,-1,-1,-1,-1,-1],"split_conditions":[1E0,3E0,7.925E0,2.9E1,2.345E1,3E1,8.0292E0,1E0,1.5155E2,2E0,3.13875E1,2E1,-4.391673E-2,3.6364537E-2,3E0,2.7463948E-2,-4.3785825E-4,4.7888633E-2,7.4513266E-3,1.9725994E-3,4.0719803E-2,-3.1193245E-2,-2.939267E-3,-3.122038E-2,7.489743E-3,-3.0417526E-3,-3.4906786E-2],"split_indices":[5,0,4,4,4,1,4,2,4,3,4,1,0,0,2,0,0,0,0,0,0,0,0,0,0,0,0],"split_type":[0,0,0,0,0,0,0,0,0,0,0,0,0,0,0,0,0,0,0,0,0,0,0,0,0,0,0],"sum_hessian":[1.2405627E2,4.4953987E1,7.910229E1,1.6197231E1,2.8756754E1,1.8052874E1,6.104941E1,8.010593E0,8.186638E0,2.4612568E1,4.1441855E0,1.4351281E1,3.7015924E0,1.6933217E0,5.9356087E1,5.479284E0,2.5313096E0,6.147022E0,2.0396163E0,2.2270132E1,2.342437E0,2.4578962E0,1.6862892E0,7.0540905E0,7.29719E0,5.629347E1,3.0626185E0],"tree_param":{"num_deleted":"0","num_feature":"7","num_nodes":"27","size_leaf_vector":"1"}},{"base_weights":[-8.0856803E-4,2.5553787E-1,-1.4722142E-1,6.15521E-1,4.2648237E-2,-2.1485345E-1,1.5401521E-1,3.4973595E-1,7.569909E-1,3.23348E-1,-1.330202E-1,-1.5814047E-1,-9.457859E-1,5.240885E-2,-2.2747865E-1,3.745612E-2,-2.1970542E-2,4.7727175E-2,1.572585E-2,5.3909337E-3,5.7278853E-2,-4.226878E-2,8.1397634E-4,-1.30051095E-2,1.087892E-2,-5.2886408E-2,-1.4989908E-2,-4.047269E-2,3.1089846E-3],"categories":[],"categories_nodes":[],"categories_segments":[],"categories_sizes":[],"default_left":[0,0,0,0,0,0,0,0,0,0,0,0,0,0,0,0,0,0,0,0,0,0,0,0,0,0,0,0,0],"id":45,"left_children":[1,3,5,7,9,11,13,15,17,19,21,23,25,-1,27,-1,-1,-1,-1,-1,-1,-1,-1,-1,-1,-1,-1,-1,-1],"loss_changes":[4.7032137E0,3.4649067E0,1.6579319E0,3.689909E-1,1.5075307E0,2.5676348E0,5.4252267E0,2.7602952E0,5.8621407E-1,1.9541266E0,2.0319772E0,2.432876E0,9.673119E-3,0E0,1.9855137E0,0E0,0E0,0E0,0E0,0E0,0E0,0E0,0E0,0E0,0E0,0E0,0E0,0E0,0E0],"parents":[2147483647,0,0,1,1,2,2,3,3,4,4,5,5,6,6,7,7,8,8,9,9,10,10,11,11,12,12,14,14],"right_children":[2,4,6,8,10,12,14,16,18,20,22,24,26,-1,28,-1,-1,-1,-1,-1,-1,-1,-1,-1,-1,-1,-1,-1,-1],"split_conditions":[1E0,3E0,5.25542E1,2.8E1,6E0,3.94E1,5.79792E1,2.4E1,4.4E1,4E0,1.5E1,2.62833E1,3.65E1,5.240885E-2,7.67292E1,3.745612E-2,-2.1970542E-2,4.7727175E-2,1.572585E-2,5.3909337E-3,5.7278853E-2,-4.226878E-2,8.1397634E-4,-1.30051095E-2,1.087892E-2,-5.2886408E-2,-1.4989908E-2,-4.047269E-2,3.1089846E-3],"split_indices":[5,0,4,1,1,4,4,1,1,1,1,4,1,0,4,0,0,0,0,0,0,0,0,0,0,0,0,0,0],"split_type":[0,0,0,0,0,0,0,0,0,0,0,0,0,0,0,0,0,0,0,0,0,0,0,0,0,0,0,0,0],"sum_hessian":[1.2330835E2,4.4554657E1,7.875369E1,1.585447E1,2.8700188E1,6.45484E1,1.42052965E1,6.713574E0,9.140896E0,1.072388E1,1.7976309E1,6.102948E1,3.518918E0,3.7255747E0,1.0479722E1,4.4912663E0,2.2223077E0,5.5193634E0,3.6215327E0,9.392874E0,1.331006E0,2.3069348E0,1.56693735E1,4.8244675E1,1.2784807E1,2.4559488E0,1.0629691E0,2.88624E0,7.5934815E0],"tree_param":{"num_deleted":"0","num_feature":"7","num_nodes":"29","size_leaf_vector":"1"}},{"base_weights":[-3.932909E-4,2.4708287E-1,-1.4134903E-1,6.0164607E-1,4.1274417E-2,-4.2479667E-1,-6.743281E-2,3.6299452E-1,7.7178633E-1,3.4552285E-1,-1.1808751E-1,-6.2936574E-1,-2.066097E-1,7.089861E-1,-1.6372895E-1,2.6016599E-2,-1.1623971E-3,4.6890542E-2,5.618106E-3,2.896977E-2,-2.287691E-2,-3.9958935E-2,5.040931E-3,-1.3517345E-2,-4.4836078E-2,4.019269E-2,-2.1231934E-2,6.5112345E-2,-2.6402885E-2,6.046661E-3,-1.5550593E-2],"categories":[],"categories_nodes":[],"categories_segments":[],"categories_sizes":[],"default_left":[0,0,0,0,0,0,0,0,0,0,0,0,0,0,0,0,0,0,0,0,0,0,0,0,0,0,0,0,0,0,0],"id":46,"left_children":[1,3,5,7,9,11,13,15,17,19,21,23,25,27,29,-1,-1,-1,-1,-1,-1,-1,-1,-1,-1,-1,-1,-1,-1,-1,-1],"loss_changes":[4.344473E0,3.273172E0,1.6337806E0,3.9084387E-1,1.4793744E0,5.9407854E-1,4.910359E0,5.448011E-1,8.536172E-1,2.2284167E0,3.0947587E0,5.143423E-1,2.398832E0,6.01795E0,2.4634666E0,0E0,0E0,0E0,0E0,0E0,0E0,0E0,0E0,0E0,0E0,0E0,0E0,0E0,0E0,0E0,0E0],"parents":[2147483647,0,0,1,1,2,2,3,3,4,4,5,5,6,6,7,7,8,8,9,9,10,10,11,11,12,12,13,13,14,14],"right_children":[2,4,6,8,10,12,14,16,18,20,22,24,26,28,30,-1,-1,-1,-1,-1,-1,-1,-1,-1,-1,-1,-1,-1,-1,-1,-1],"split_conditions":[1E0,3E0,4.2E-1,2.9E1,8.05E0,8.1125E0,1.3E1,1E0,2E0,2.3E1,1.11333E1,7.7875E0,1.4E1,3E0,2E0,2.6016599E-2,-1.1623971E-3,4.6890542E-2,5.618106E-3,2.896977E-2,-2.287691E-2,-3.9958935E-2,5.040931E-3,-1.3517345E-2,-4.4836078E-2,4.019269E-2,-2.1231934E-2,6.5112345E-2,-2.6402885E-2,6.046661E-3,-1.5550593E-2],"split_indices":[5,0,1,4,4,4,1,2,3,1,4,4,4,2,0,0,0,0,0,0,0,0,0,0,0,0,0,0,0,0,0],"split_type":[0,0,0,0,0,0,0,0,0,0,0,0,0,0,0,0,0,0,0,0,0,0,0,0,0,0,0,0,0,0,0],"sum_hessian":[1.2254226E2,4.419541E1,7.834685E1,1.5525325E1,2.8670088E1,1.5223203E1,6.3123646E1,7.7658544E0,7.75947E0,9.453542E0,1.9216547E1,6.8841734E0,8.339028E0,6.2630672E0,5.686058E1,5.2713747E0,2.4944797E0,5.8615346E0,1.8979356E0,7.5370655E0,1.9164759E0,4.0292873E0,1.518726E1,3.7968116E0,3.0873618E0,1.00312E0,7.335909E0,4.197381E0,2.0656862E0,1.9449095E1,3.7411484E1],"tree_param":{"num_deleted":"0","num_feature":"7","num_nodes":"31","size_leaf_vector":"1"}},{"base_weights":[-5.028642E-5,2.3813727E-1,-1.3550213E-1,5.8809143E-1,3.8367856E-2,-4.1013786E-1,-6.4080805E-2,3.5152435E-1,7.5969416E-1,9.9408016E-2,-3.608831E-2,-6.1607873E-1,-1.9480103E-1,7.271023E-1,-1.5205713E-1,2.4951251E-2,-2.9356158E-3,4.6728116E-2,5.640565E-3,1.7854473E-2,-3.4163606E-3,-1.3092271E-2,-4.4193994E-2,3.8833868E-2,-2.0398544E-2,6.3831E-2,-2.31567E-2,-2.230026E-2,-1.1875171E-3],"categories":[],"categories_nodes":[],"categories_segments":[],"categories_sizes":[],"default_left":[0,0,0,0,0,0,0,0,0,0,0,0,0,0,0,0,0,0,0,0,0,0,0,0,0,0,0,0,0],"id":47,"left_children":[1,3,5,7,9,11,13,15,17,19,-1,21,23,25,27,-1,-1,-1,-1,-1,-1,-1,-1,-1,-1,-1,-1,-1,-1],"loss_changes":[3.9853065E0,3.1080604E0,1.5182887E0,3.907385E-1,1.4440926E0,5.924909E-1,4.5429115E0,5.5413365E-1,8.59478E-1,1.2457551E0,0E0,5.037675E-1,2.2462306E0,4.8721476E0,2.1819296E0,0E0,0E0,0E0,0E0,0E0,0E0,0E0,0E0,0E0,0E0,0E0,0E0,0E0,0E0],"parents":[2147483647,0,0,1,1,2,2,3,3,4,4,5,5,6,6,7,7,8,8,9,9,11,11,12,12,13,13,14,14],"right_children":[2,4,6,8,10,12,14,16,18,20,-1,22,24,26,28,-1,-1,-1,-1,-1,-1,-1,-1,-1,-1,-1,-1,-1,-1],"split_conditions":[1E0,3E0,4.2E-1,2.9E1,3.23208E1,8.1125E0,1E1,4.3E1,1.5155E2,6E0,-3.608831E-2,7.7875E0,1.4E1,3E0,2.5E1,2.4951251E-2,-2.9356158E-3,4.6728116E-2,5.640565E-3,1.7854473E-2,-3.4163606E-3,-1.3092271E-2,-4.4193994E-2,3.8833868E-2,-2.0398544E-2,6.3831E-2,-2.31567E-2,-2.230026E-2,-1.1875171E-3],"split_indices":[5,0,1,4,4,4,1,1,4,1,0,4,4,2,1,0,0,0,0,0,0,0,0,0,0,0,0,0,0],"split_type":[0,0,0,0,0,0,0,0,0,0,0,0,0,0,0,0,0,0,0,0,0,0,0,0,0,0,0,0,0],"sum_hessian":[1.2152566E2,4.3780685E1,7.774497E1,1.5203496E1,2.857719E1,1.5066685E1,6.2678288E1,7.6734943E0,7.530001E0,2.7257578E1,1.3196107E0,6.750109E0,8.316575E0,5.5451593E0,5.713313E1,5.484948E0,2.1885462E0,5.577541E0,1.9524604E0,1.030214E1,1.6955439E1,3.757563E0,2.9925458E0,1.0208396E0,7.295736E0,3.7440155E0,1.8011438E0,1.6608143E1,4.0524986E1],"tree_param":{"num_deleted":"0","num_feature":"7","num_nodes":"29","size_leaf_vector":"1"}},{"base_weights":[2.2652505E-4,2.2954032E-1,-1.2986615E-1,5.749061E-1,3.5800327E-2,-1.941064E-1,1.5015347E-1,3.0298892E-1,7.236842E-1,1.0583375E-1,-2.9904831E-2,-1.3818131E-1,-4.5835424E-2,1.0073075E0,-2.2089212E-1,3.5779182E-2,-2.3064323E-2,4.6606734E-2,1.3990241E-2,1.8893036E-3,4.414981E-2,-1.1743229E-2,1.0422446E-2,2.0836994E-2,5.9881825E-2,-3.906746E-2,2.656698E-3],"categories":[],"categories_nodes":[],"categories_segments":[],"categories_sizes":[],"default_left":[0,0,0,0,0,0,0,0,0,0,0,0,0,0,0,0,0,0,0,0,0,0,0,0,0,0,0],"id":48,"left_children":[1,3,5,7,9,11,13,15,17,19,-1,21,-1,23,25,-1,-1,-1,-1,-1,-1,-1,-1,-1,-1,-1,-1],"loss_changes":[3.6586163E0,2.9496882E0,1.436748E0,4.234295E-1,1.3731271E0,2.4630797E0,5.045821E0,2.644174E0,6.2264204E-1,1.416659E0,0E0,2.0818233E0,0E0,3.6094666E-2,1.7929618E0,0E0,0E0,0E0,0E0,0E0,0E0,0E0,0E0,0E0,0E0,0E0,0E0],"parents":[2147483647,0,0,1,1,2,2,3,3,4,4,5,5,6,6,7,7,8,8,9,9,11,11,13,13,14,14],"right_children":[2,4,6,8,10,12,14,16,18,20,-1,22,-1,24,26,-1,-1,-1,-1,-1,-1,-1,-1,-1,-1,-1,-1],"split_conditions":[1E0,3E0,5.25542E1,2.8E1,3.9E1,3.94E1,5.79792E1,2.4E1,4.4E1,3.25E1,-2.9904831E-2,2.62833E1,-4.5835424E-2,5.64958E1,7.67292E1,3.5779182E-2,-2.3064323E-2,4.6606734E-2,1.3990241E-2,1.8893036E-3,4.414981E-2,-1.1743229E-2,1.0422446E-2,2.0836994E-2,5.9881825E-2,-3.906746E-2,2.656698E-3],"split_indices":[5,0,4,1,1,4,4,1,1,1,0,4,0,4,4,0,0,0,0,0,0,0,0,0,0,0,0],"split_type":[0,0,0,0,0,0,0,0,0,0,0,0,0,0,0,0,0,0,0,0,0,0,0,0,0,0,0],"sum_hessian":[1.20641235E2,4.3391243E1,7.724999E1,1.48866005E1,2.8504642E1,6.30844E1,1.4165594E1,6.3384757E0,8.548125E0,2.6418905E1,2.0857384E0,5.965842E1,3.4259775E0,3.7614565E0,1.0404138E1,4.1576657E0,2.1808097E0,5.068113E0,3.4800124E0,2.525612E1,1.1627839E0,4.6899494E1,1.2758928E1,1.6941847E0,2.067272E0,2.8085432E0,7.5955944E0],"tree_param":{"num_deleted":"0","num_feature":"7","num_nodes":"27","size_leaf_vector":"1"}},{"base_weights":[9.400616E-4,2.2182225E-1,-1.24082215E-1,5.616161E-1,3.4566987E-2,-3.9095083E-1,-5.511785E-2,2.9301092E-1,7.1042895E-1,9.3455546E-2,-3.5364695E-2,-5.97434E-1,-1.8019474E-1,6.782039E-1,-1.451608E-1,3.5136286E-2,-2.20129E-2,4.6101645E-2,1.3544445E-2,1.7023716E-2,-3.3395966E-3,-1.2305556E-2,-4.3401312E-2,3.792542E-2,-1.9504579E-2,6.1828353E-2,-2.498056E-2,-2.252247E-2,-9.400484E-4],"categories":[],"categories_nodes":[],"categories_segments":[],"categories_sizes":[],"default_left":[0,0,0,0,0,0,0,0,0,0,0,0,0,0,0,0,0,0,0,0,0,0,0,0,0,0,0,0,0],"id":49,"left_children":[1,3,5,7,9,11,13,15,17,19,-1,21,23,25,27,-1,-1,-1,-1,-1,-1,-1,-1,-1,-1,-1,-1,-1,-1],"loss_changes":[3.3673377E0,2.7847567E0,1.4116036E0,4.1509676E-1,1.3539408E0,5.8108616E-1,4.261222E0,2.4907503E0,6.18155E-1,1.1387798E0,0E0,5.053024E-1,2.1212194E0,5.2678347E0,2.1893163E0,0E0,0E0,0E0,0E0,0E0,0E0,0E0,0E0,0E0,0E0,0E0,0E0,0E0,0E0],"parents":[2147483647,0,0,1,1,2,2,3,3,4,4,5,5,6,6,7,7,8,8,9,9,11,11,12,12,13,13,14,14],"right_children":[2,4,6,8,10,12,14,16,18,20,-1,22,24,26,28,-1,-1,-1,-1,-1,-1,-1,-1,-1,-1,-1,-1,-1,-1],"split_conditions":[1E0,3E0,4.2E-1,2.8E1,3.23208E1,8.1125E0,1.3E1,2.4E1,4.4E1,6E0,-3.5364695E-2,7.7875E0,1.4E1,3E0,2.5E1,3.5136286E-2,-2.20129E-2,4.6101645E-2,1.3544445E-2,1.7023716E-2,-3.3395966E-3,-1.2305556E-2,-4.3401312E-2,3.792542E-2,-1.9504579E-2,6.1828353E-2,-2.498056E-2,-2.252247E-2,-9.400484E-4],"split_indices":[5,0,1,1,4,4,1,1,1,1,0,4,4,2,1,0,0,0,0,0,0,0,0,0,0,0,0,0,0],"split_type":[0,0,0,0,0,0,0,0,0,0,0,0,0,0,0,0,0,0,0,0,0,0,0,0,0,0,0,0,0],"sum_hessian":[1.19941154E2,4.3071186E1,7.6869965E1,1.4592464E1,2.8478724E1,1.482672E1,6.2043243E1,6.260798E0,8.331666E0,2.7194094E1,1.2846285E0,6.562527E0,8.264193E0,6.0706944E0,5.597255E1,4.04327E0,2.217528E0,4.8831105E0,3.4485557E0,1.0257561E1,1.6936533E1,3.6861498E0,2.8763773E0,1.0325756E0,7.2316175E0,4.0844903E0,1.986204E0,1.5634464E1,4.0338085E1],"tree_param":{"num_deleted":"0","num_feature":"7","num_nodes":"29","size_leaf_vector":"1"}},{"base_weights":[1.1471364E-3,2.1375522E-1,-1.1895823E-1,5.4859585E-1,3.2175336E-2,-3.5817617E-1,-4.611317E-2,3.099757E-1,7.282989E-1,3.2427537E-1,-1.19653516E-1,-1.7911237E-1,-4.291483E-2,3.7312753E-2,-8.1314065E-2,2.3571474E-2,-3.1591088E-3,4.5498222E-2,3.4103026E-3,2.7448067E-2,-2.1940028E-2,-3.882074E-2,4.5848074E-3,-2.8454905E-2,1.0243376E-2,-2.1166361E-3,-3.1835854E-2],"categories":[],"categories_nodes":[],"categories_segments":[],"categories_sizes":[],"default_left":[0,0,0,0,0,0,0,0,0,0,0,0,0,0,0,0,0,0,0,0,0,0,0,0,0,0,0],"id":50,"left_children":[1,3,5,7,9,11,13,15,17,19,21,23,-1,-1,25,-1,-1,-1,-1,-1,-1,-1,-1,-1,-1,-1,-1],"loss_changes":[3.0925817E0,2.640366E0,1.3321873E0,4.3071508E-1,1.3430208E0,1.4509773E0,1.7475308E0,5.3089696E-1,8.96266E-1,2.0115418E0,2.8585021E0,2.2816958E0,0E0,0E0,1.2462399E0,0E0,0E0,0E0,0E0,0E0,0E0,0E0,0E0,0E0,0E0,0E0,0E0],"parents":[2147483647,0,0,1,1,2,2,3,3,4,4,5,5,6,6,7,7,8,8,9,9,10,10,11,11,14,14],"right_children":[2,4,6,8,10,12,14,16,18,20,22,24,-1,-1,26,-1,-1,-1,-1,-1,-1,-1,-1,-1,-1,-1,-1],"split_conditions":[1E0,3E0,7.925E0,2.9E1,8.05E0,3E1,8.0292E0,1E0,2E0,2.3E1,1.11333E1,2E1,-4.291483E-2,3.7312753E-2,3E0,2.3571474E-2,-3.1591088E-3,4.5498222E-2,3.4103026E-3,2.7448067E-2,-2.1940028E-2,-3.882074E-2,4.5848074E-3,-2.8454905E-2,1.0243376E-2,-2.1166361E-3,-3.1835854E-2],"split_indices":[5,0,4,4,4,1,4,2,3,1,4,1,0,0,2,0,0,0,0,0,0,0,0,0,0,0,0],"split_type":[0,0,0,0,0,0,0,0,0,0,0,0,0,0,0,0,0,0,0,0,0,0,0,0,0,0,0],"sum_hessian":[1.1911392E2,4.271715E1,7.639677E1,1.4309191E1,2.840796E1,1.6919006E1,5.9477764E1,7.317509E0,6.9916816E0,9.327398E0,1.9080563E1,1.345846E1,3.460547E0,1.6706957E0,5.7807068E1,4.9237885E0,2.3937206E0,5.185915E0,1.8057666E0,7.422465E0,1.9049335E0,3.994427E0,1.5086136E1,6.4378304E0,7.020629E0,5.502156E1,2.7855065E0],"tree_param":{"num_deleted":"0","num_feature":"7","num_nodes":"27","size_leaf_vector":"1"}},{"base_weights":[9.441079E-4,2.0587038E-1,-1.1424484E-1,5.357207E-1,2.9691203E-2,-1.7670308E-1,1.5392841E-1,2.9980272E-1,7.164886E-1,1.1273324E-1,-4.8113248E-1,-1.223825E-1,-8.861833E-1,9.737601E-1,-2.070393E-1,2.2517448E-2,-4.4337395E-3,4.5354184E-2,3.2673345E-3,-1.776522E-3,2.1605296E-2,-3.7345782E-2,-1.6188171E-3,-1.07684E-2,1.0229707E-2,-4.9900983E-2,-1.3624556E-2,2.0341523E-2,5.7673812E-2,-3.7702102E-2,2.7470298E-3],"categories":[],"categories_nodes":[],"categories_segments":[],"categories_sizes":[],"default_left":[0,0,0,0,0,0,0,0,0,0,0,0,0,0,0,0,0,0,0,0,0,0,0,0,0,0,0,0,0,0,0],"id":51,"left_children":[1,3,5,7,9,11,13,15,17,19,21,23,25,27,29,-1,-1,-1,-1,-1,-1,-1,-1,-1,-1,-1,-1,-1,-1,-1,-1],"loss_changes":[2.8436425E0,2.5030813E0,1.3189923E0,4.2629194E-1,1.297722E0,2.320302E0,4.671243E0,5.219053E-1,9.0771794E-1,1.2476649E0,4.873566E-1,1.859138E0,2.4658918E-2,1.901722E-2,1.6623495E0,0E0,0E0,0E0,0E0,0E0,0E0,0E0,0E0,0E0,0E0,0E0,0E0,0E0,0E0,0E0,0E0],"parents":[2147483647,0,0,1,1,2,2,3,3,4,4,5,5,6,6,7,7,8,8,9,9,10,10,11,11,12,12,13,13,14,14],"right_children":[2,4,6,8,10,12,14,16,18,20,22,24,26,28,30,-1,-1,-1,-1,-1,-1,-1,-1,-1,-1,-1,-1,-1,-1,-1,-1],"split_conditions":[1E0,3E0,5.25542E1,2.9E1,2.54667E1,3.94E1,5.79792E1,4.3E1,1.5155E2,1.55E1,3.13875E1,2.62833E1,3.65E1,5.64958E1,7.67292E1,2.2517448E-2,-4.4337395E-3,4.5354184E-2,3.2673345E-3,-1.776522E-3,2.1605296E-2,-3.7345782E-2,-1.6188171E-3,-1.07684E-2,1.0229707E-2,-4.9900983E-2,-1.3624556E-2,2.0341523E-2,5.7673812E-2,-3.7702102E-2,2.7470298E-3],"split_indices":[5,0,4,4,4,4,4,1,4,4,4,4,1,4,4,0,0,0,0,0,0,0,0,0,0,0,0,0,0,0,0],"split_type":[0,0,0,0,0,0,0,0,0,0,0,0,0,0,0,0,0,0,0,0,0,0,0,0,0,0,0,0,0,0,0],"sum_hessian":[1.1847019E2,4.234655E1,7.612364E1,1.4032857E1,2.8313696E1,6.202009E1,1.4103554E1,7.2410927E0,6.791764E0,2.5024843E1,3.288852E0,5.8698406E1,3.3216841E0,3.7924604E0,1.0311093E1,5.1039124E0,2.13718E0,4.9498363E0,1.8419274E0,1.7697712E1,7.3271317E0,1.6482409E0,1.6406109E0,4.5967518E1,1.2730889E1,2.2799437E0,1.0417404E0,1.6984131E0,2.0940473E0,2.730883E0,7.58021E0],"tree_param":{"num_deleted":"0","num_feature":"7","num_nodes":"31","size_leaf_vector":"1"}},{"base_weights":[1.1242494E-3,1.9829002E-1,-1.0935512E-1,5.2319676E-1,2.758826E-2,-3.6470556E-1,-4.4180613E-2,2.4974263E-1,6.7900413E-1,8.507612E-2,-3.4837525E-2,-5.692261E-1,-1.632173E-1,6.7885137E-1,-1.3232575E-1,3.3540167E-2,-2.2886952E-2,4.5061298E-2,1.1989666E-2,1.5893482E-2,-3.2415444E-3,-1.0649092E-2,-4.249121E-2,3.709106E-2,-1.8499846E-2,6.0174454E-2,-2.3371074E-2,-2.1368878E-2,-6.0579996E-4],"categories":[],"categories_nodes":[],"categories_segments":[],"categories_sizes":[],"default_left":[0,0,0,0,0,0,0,0,0,0,0,0,0,0,0,0,0,0,0,0,0,0,0,0,0,0,0,0,0],"id":52,"left_children":[1,3,5,7,9,11,13,15,17,19,-1,21,23,25,27,-1,-1,-1,-1,-1,-1,-1,-1,-1,-1,-1,-1,-1,-1],"loss_changes":[2.6094E0,2.3713732E0,1.2616813E0,4.5931482E-1,1.2775284E0,5.4476476E-1,4.0606627E0,2.3742447E0,6.448593E-1,9.976032E-1,0E0,5.464587E-1,1.9956188E0,4.732153E0,1.9942293E0,0E0,0E0,0E0,0E0,0E0,0E0,0E0,0E0,0E0,0E0,0E0,0E0,0E0,0E0],"parents":[2147483647,0,0,1,1,2,2,3,3,4,4,5,5,6,6,7,7,8,8,9,9,11,11,12,12,13,13,14,14],"right_children":[2,4,6,8,10,12,14,16,18,20,-1,22,24,26,28,-1,-1,-1,-1,-1,-1,-1,-1,-1,-1,-1,-1,-1,-1],"split_conditions":[1E0,3E0,4.2E-1,2.8E1,3.23208E1,8.1125E0,1.3E1,2.4E1,4.4E1,6E0,-3.4837525E-2,7.7875E0,1.4E1,3E0,2.5E1,3.3540167E-2,-2.2886952E-2,4.5061298E-2,1.1989666E-2,1.5893482E-2,-3.2415444E-3,-1.0649092E-2,-4.249121E-2,3.709106E-2,-1.8499846E-2,6.0174454E-2,-2.3371074E-2,-2.1368878E-2,-6.0579996E-4],"split_indices":[5,0,1,1,4,4,1,1,1,1,0,4,4,2,1,0,0,0,0,0,0,0,0,0,0,0,0,0,0],"split_type":[0,0,0,0,0,0,0,0,0,0,0,0,0,0,0,0,0,0,0,0,0,0,0,0,0,0,0,0,0],"sum_hessian":[1.1779656E2,4.201685E1,7.577971E1,1.376057E1,2.8256279E1,1.44743E1,6.1305412E1,5.939383E0,7.8211865E0,2.6996243E1,1.2600368E0,6.277362E0,8.1969385E0,5.933437E0,5.5371975E1,3.7558916E0,2.1834912E0,4.4949927E0,3.3261938E0,1.0135767E1,1.6860476E1,3.5409007E0,2.7364612E0,1.0432625E0,7.1536765E0,4.0361953E0,1.8972416E0,1.5289361E1,4.0082615E1],"tree_param":{"num_deleted":"0","num_feature":"7","num_nodes":"29","size_leaf_vector":"1"}},{"base_weights":[1.31436E-3,1.909931E-1,-1.0479094E-1,5.1076126E-1,2.5504574E-2,-1.655818E-1,