{"learner":{"attributes":{"best_iteration":"360","best_score":"0.3968827994332217","scikit_learn":"{\"_estimator_type\": \"classifier\"}"},"feature_names":[],"feature_types":[],"gradient_booster":{"model":{"cats":{"enc":[],"feature_segments":[],"sorted_idx":[]},"gbtree_model_param":{"num_parallel_tree":"1","num_trees":"391"},"iteration_indptr":[0,1,2,3,4,5,6,7,8,9,10,11,12,13,14,15,16,17,18,19,20,21,22,23,24,25,26,27,28,29,30,31,32,33,34,35,36,37,38,39,40,41,42,43,44,45,46,47,48,49,50,51,52,53,54,55,56,57,58,59,60,61,62,63,64,65,66,67,68,69,70,71,72,73,74,75,76,77,78,79,80,81,82,83,84,85,86,87,88,89,90,91,92,93,94,95,96,97,98,99,100,101,102,103,104,105,106,107,108,109,110,111,112,113,114,115,116,117,118,119,120,121,122,123,124,125,126,127,128,129,130,131,132,133,134,135,136,137,138,139,140,141,142,143,144,145,146,147,148,149,150,151,152,153,154,155,156,157,158,159,160,161,162,163,164,165,166,167,168,169,170,171,172,173,174,175,176,177,178,179,180,181,182,183,184,185,186,187,188,189,190,191,192,193,194,195,196,197,198,199,200,201,202,203,204,205,206,207,208,209,210,211,212,213,214,215,216,217,218,219,220,221,222,223,224,225,226,227,228,229,230,231,232,233,234,235,236,237,238,239,240,241,242,243,244,245,246,247,248,249,250,251,252,253,254,255,256,257,258,259,260,261,262,263,264,265,266,267,268,269,270,271,272,273,274,275,276,277,278,279,280,281,282,283,284,285,286,287,288,289,290,291,292,293,294,295,296,297,298,299,300,301,302,303,304,305,306,307,308,309,310,311,312,313,314,315,316,317,318,319,320,321,322,323,324,325,326,327,328,329,330,331,332,333,334,335,336,337,338,339,340,341,342,343,344,345,346,347,348,349,350,351,352,353,354,355,356,357,358,359,360,361,362,363,364,365,366,367,368,369,370,371,372,373,374,375,376,377,378,379,380,381,382,383,384,385,386,387,388,389,390,391],"tree_info":[0,0,0,0,0,0,0,0,0,0,0,0,0,0,0,0,0,0,0,0,0,0,0,0,0,0,0,0,0,0,0,0,0,0,0,0,0,0,0,0,0,0,0,0,0,0,0,0,0,0,0,0,0,0,0,0,0,0,0,0,0,0,0,0,0,0,0,0,0,0,0,0,0,0,0,0,0,0,0,0,0,0,0,0,0,0,0,0,0,0,0,0,0,0,0,0,0,0,0,0,0,0,0,0,0,0,0,0,0,0,0,0,0,0,0,0,0,0,0,0,0,0,0,0,0,0,0,0,0,0,0,0,0,0,0,0,0,0,0,0,0,0,0,0,0,0,0,0,0,0,0,0,0,0,0,0,0,0,0,0,0,0,0,0,0,0,0,0,0,0,0,0,0,0,0,0,0,0,0,0,0,0,0,0,0,0,0,0,0,0,0,0,0,0,0,0,0,0,0,0,0,0,0,0,0,0,0,0,0,0,0,0,0,0,0,0,0,0,0,0,0,0,0,0,0,0,0,0,0,0,0,0,0,0,0,0,0,0,0,0,0,0,0,0,0,0,0,0,0,0,0,0,0,0,0,0,0,0,0,0,0,0,0,0,0,0,0,0,0,0,0,0,0,0,0,0,0,0,0,0,0,0,0,0,0,0,0,0,0,0,0,0,0,0,0,0,0,0,0,0,0,0,0,0,0,0,0,0,0,0,0,0,0,0,0,0,0,0,0,0,0,0,0,0,0,0,0,0,0,0,0,0,0,0,0,0,0,0,0,0,0,0,0,0,0,0,0,0,0,0,0,0,0,0,0,0,0,0,0,0,0,0,0,0,0,0,0,0,0,0,0,0,0,0,0,0,0,0,0,0,0,0,0,0,0,0,0,0,0,0,0],"trees":[{"base_weights":[5.8002993E-8,-7.9363495E-1,1.4466429E0,-1.0362757E0,2.3518907E-1,6.8643734E-2,3.4034038E-1,4.945954E-3,-3.483462E-2,4.2037915E-2,-3.904653E-4,2.0538662E-2,-3.4440584E-2],"categories":[],"categories_nodes":[],"categories_segments":[],"categories_sizes":[],"default_left":[0,0,0,0,0,0,0,0,0,0,0,0,0],"id":0,"left_children":[1,3,5,7,9,-1,11,-1,-1,-1,-1,-1,-1],"loss_changes":[1.9581665E2,2.7737335E1,5.5468994E1,1.358651E1,6.337195E0,0E0,1.4763474E1,0E0,0E0,0E0,0E0,0E0,0E0],"parents":[2147483647,0,0,1,1,2,2,3,3,4,4,6,6],"right_children":[2,4,6,8,10,-1,12,-1,-1,-1,-1,-1,-1],"split_conditions":[2E0,1E0,3E0,2E0,2E0,6.8643734E-2,2.345E1,4.945954E-3,-3.483462E-2,4.2037915E-2,-3.904653E-4,2.0538662E-2,-3.4440584E-2],"split_indices":[2,9,0,1,1,0,8,0,0,0,0,0,0],"split_type":[0,0,0,0,0,0,0,0,0,0,0,0,0],"sum_hessian":[1.685562E2,1.091354E2,5.942079E1,8.830261E1,2.0832788E1,3.314307E1,2.6277721E1,8.285768E0,8.0016846E1,2.8408346E0,1.7991953E1,2.1779732E1,4.497988E0],"tree_param":{"num_deleted":"0","num_feature":"11","num_nodes":"13","size_leaf_vector":"1"}},{"base_weights":[2.0999684E-4,-7.7424294E-1,1.3910644E0,-1.0130559E0,2.2975394E-1,6.5686025E-2,3.2878408E-1,4.8086112E-3,-3.408531E-2,4.0819757E-2,-3.794021E-4,1.9860035E-2,-3.3825062E-2],"categories":[],"categories_nodes":[],"categories_segments":[],"categories_sizes":[],"default_left":[0,0,0,0,0,0,0,0,0,0,0,0,0],"id":1,"left_children":[1,3,5,7,9,-1,11,-1,-1,-1,-1,-1,-1],"loss_changes":[1.8363583E2,2.6489067E1,5.099951E1,1.2988754E1,6.009078E0,0E0,1.4014383E1,0E0,0E0,0E0,0E0,0E0,0E0],"parents":[2147483647,0,0,1,1,2,2,3,3,4,4,6,6],"right_children":[2,4,6,8,10,-1,12,-1,-1,-1,-1,-1,-1],"split_conditions":[2E0,1E0,3E0,2E0,2E0,6.5686025E-2,2.345E1,4.8086112E-3,-3.408531E-2,4.0819757E-2,-3.794021E-4,1.9860035E-2,-3.3825062E-2],"split_indices":[2,9,0,1,1,0,8,0,0,0,0,0,0],"split_type":[0,0,0,0,0,0,0,0,0,0,0,0,0],"sum_hessian":[1.6848297E2,1.0850741E2,5.9975555E1,8.76498E1,2.0857605E1,3.3633533E1,2.6342022E1,8.295164E0,7.9354645E1,2.867272E0,1.7990332E1,2.1880825E1,4.4611974E0],"tree_param":{"num_deleted":"0","num_feature":"11","num_nodes":"13","size_leaf_vector":"1"}},{"base_weights":[4.141378E-4,-7.5554323E-1,1.3398305E0,-9.90691E-1,2.2446322E-1,6.302549E-2,3.1770408E-1,4.6752472E-3,-3.336466E-2,3.966627E-2,-3.6865045E-4,1.9210123E-2,-3.3232335E-2],"categories":[],"categories_nodes":[],"categories_segments":[],"categories_sizes":[],"default_left":[0,0,0,0,0,0,0,0,0,0,0,0,0],"id":2,"left_children":[1,3,5,7,9,-1,11,-1,-1,-1,-1,-1,-1],"loss_changes":[1.7242313E2,2.5307014E1,4.7120445E1,1.2424667E1,5.7026033E0,0E0,1.3309497E1,0E0,0E0,0E0,0E0,0E0,0E0],"parents":[2147483647,0,0,1,1,2,2,3,3,4,4,6,6],"right_children":[2,4,6,8,10,-1,12,-1,-1,-1,-1,-1,-1],"split_conditions":[2E0,1E0,3E0,2E0,2E0,6.302549E-2,2.345E1,4.6752472E-3,-3.336466E-2,3.966627E-2,-3.6865045E-4,1.9210123E-2,-3.3232335E-2],"split_indices":[2,9,0,1,1,0,8,0,0,0,0,0,0],"split_type":[0,0,0,0,0,0,0,0,0,0,0,0,0],"sum_hessian":[1.6828766E2,1.0785241E2,6.043524E1,8.697281E1,2.08796E1,3.4037457E1,2.6397785E1,8.304218E0,7.8668594E1,2.8908422E0,1.798876E1,2.1974827E1,4.422959E0],"tree_param":{"num_deleted":"0","num_feature":"11","num_nodes":"13","size_leaf_vector":"1"}},{"base_weights":[6.120766E-4,-7.374887E-1,1.2924083E0,-9.6911806E-1,2.1931246E-1,6.061856E-2,3.0707026E-1,4.545742E-3,-3.2670476E-2,1.7241336E-2,-1.3598155E-2,1.858712E-2,-3.2660853E-2],"categories":[],"categories_nodes":[],"categories_segments":[],"categories_sizes":[],"default_left":[0,0,0,0,0,0,0,0,0,0,0,0,0],"id":3,"left_children":[1,3,5,7,9,-1,11,-1,-1,-1,-1,-1,-1],"loss_changes":[1.6207262E2,2.4186367E1,4.3728386E1,1.1891487E1,5.4951224E0,0E0,1.2645678E1,0E0,0E0,0E0,0E0,0E0,0E0],"parents":[2147483647,0,0,1,1,2,2,3,3,4,4,6,6],"right_children":[2,4,6,8,10,-1,12,-1,-1,-1,-1,-1,-1],"split_conditions":[2E0,1E0,3E0,2E0,4.3E1,6.061856E-2,2.345E1,4.545742E-3,-3.2670476E-2,1.7241336E-2,-1.3598155E-2,1.858712E-2,-3.2660853E-2],"split_indices":[2,9,0,1,3,0,8,0,0,0,0,0,0],"split_type":[0,0,0,0,0,0,0,0,0,0,0,0,0],"sum_hessian":[1.6798119E2,1.071738E2,6.080739E1,8.627488E1,2.089892E1,3.436177E1,2.6445618E1,8.3129425E0,7.796194E1,1.3768864E1,7.1300564E0,2.2062183E1,4.3834343E0],"tree_param":{"num_deleted":"0","num_feature":"11","num_nodes":"13","size_leaf_vector":"1"}},{"base_weights":[5.9730245E-4,-7.202677E-1,1.248349E0,-9.4827926E-1,2.1257593E-1,5.8429778E-2,2.968561E-1,4.419956E-3,-3.2000743E-2,3.845372E-2,-5.5990415E-4,1.798942E-2,-3.210921E-2],"categories":[],"categories_nodes":[],"categories_segments":[],"categories_sizes":[],"default_left":[0,0,0,0,0,0,0,0,0,0,0,0,0],"id":4,"left_children":[1,3,5,7,9,-1,11,-1,-1,-1,-1,-1,-1],"loss_changes":[1.525369E2,2.3064285E1,4.0741783E1,1.1386795E1,5.4458566E0,0E0,1.2020084E1,0E0,0E0,0E0,0E0,0E0,0E0],"parents":[2147483647,0,0,1,1,2,2,3,3,4,4,6,6],"right_children":[2,4,6,8,10,-1,12,-1,-1,-1,-1,-1,-1],"split_conditions":[2E0,1E0,3E0,2E0,2E0,5.8429778E-2,2.345E1,4.419956E-3,-3.2000743E-2,3.845372E-2,-5.5990415E-4,1.798942E-2,-3.210921E-2],"split_indices":[2,9,0,1,1,0,8,0,0,0,0,0,0],"split_type":[0,0,0,0,0,0,0,0,0,0,0,0,0],"sum_hessian":[1.6758745E2,1.0648848E2,6.109897E1,8.555905E1,2.0929434E1,3.4612885E1,2.6486084E1,8.321351E0,7.723769E1,2.913719E0,1.8015715E1,2.2143307E1,4.342777E0],"tree_param":{"num_deleted":"0","num_feature":"11","num_nodes":"13","size_leaf_vector":"1"}},{"base_weights":[7.922214E-4,-7.0335686E-1,1.2072699E0,-9.281232E-1,2.0776202E-1,5.6429923E-2,2.8703654E-1,4.297783E-3,-3.1353675E-2,1.6570324E-2,-1.3425138E-2,1.7415525E-2,-3.1576097E-2],"categories":[],"categories_nodes":[],"categories_segments":[],"categories_sizes":[],"default_left":[0,0,0,0,0,0,0,0,0,0,0,0,0],"id":5,"left_children":[1,3,5,7,9,-1,11,-1,-1,-1,-1,-1,-1],"loss_changes":[1.4364812E2,2.2058788E1,3.809548E1,1.0908379E1,5.202236E0,0E0,1.1430098E1,0E0,0E0,0E0,0E0,0E0,0E0],"parents":[2147483647,0,0,1,1,2,2,3,3,4,4,6,6],"right_children":[2,4,6,8,10,-1,12,-1,-1,-1,-1,-1,-1],"split_conditions":[2E0,1E0,3E0,2E0,4.3E1,5.6429923E-2,2.345E1,4.297783E-3,-3.1353675E-2,1.6570324E-2,-1.3425138E-2,1.7415525E-2,-3.1576097E-2],"split_indices":[2,9,0,1,3,0,8,0,0,0,0,0,0],"split_type":[0,0,0,0,0,0,0,0,0,0,0,0,0],"sum_hessian":[1.6708974E2,1.05773224E2,6.1316513E1,8.48281E1,2.0945126E1,3.47968E1,2.6519716E1,8.329457E0,7.649864E1,1.3829656E1,7.1154695E0,2.2218586E1,4.3011293E0],"tree_param":{"num_deleted":"0","num_feature":"11","num_nodes":"13","size_leaf_vector":"1"}},{"base_weights":[7.776665E-4,-6.8721074E-1,1.1688449E0,-9.0860224E-1,2.0140564E-1,5.4594763E-2,2.77589E-1,4.179119E-3,-3.0727629E-2,3.7315298E-2,-7.357267E-4,1.6864069E-2,-3.1060338E-2],"categories":[],"categories_nodes":[],"categories_segments":[],"categories_sizes":[],"default_left":[0,0,0,0,0,0,0,0,0,0,0,0,0],"id":6,"left_children":[1,3,5,7,9,-1,11,-1,-1,-1,-1,-1,-1],"loss_changes":[1.3542683E2,2.1047626E1,3.5737022E1,1.04543E1,5.2051787E0,0E0,1.0873317E1,0E0,0E0,0E0,0E0,0E0,0E0],"parents":[2147483647,0,0,1,1,2,2,3,3,4,4,6,6],"right_children":[2,4,6,8,10,-1,12,-1,-1,-1,-1,-1,-1],"split_conditions":[2E0,1E0,3E0,2E0,2E0,5.4594763E-2,2.345E1,4.179119E-3,-3.0727629E-2,3.7315298E-2,-7.357267E-4,1.6864069E-2,-3.1060338E-2],"split_indices":[2,9,0,1,1,0,8,0,0,0,0,0,0],"split_type":[0,0,0,0,0,0,0,0,0,0,0,0,0],"sum_hessian":[1.6652214E2,1.0505607E2,6.1466064E1,8.4084595E1,2.097148E1,3.4919052E1,2.6547014E1,8.337273E0,7.574732E1,2.9330382E0,1.8038443E1,2.2288391E1,4.258623E0],"tree_param":{"num_deleted":"0","num_feature":"11","num_nodes":"13","size_leaf_vector":"1"}},{"base_weights":[9.684833E-4,-6.713051E-1,1.1327932E0,-8.89674E-1,1.9690451E-1,5.2903958E-2,2.6849303E-1,4.0638437E-3,-3.0121118E-2,3.633684E-2,-7.149296E-4,1.633381E-2,-3.0560827E-2],"categories":[],"categories_nodes":[],"categories_segments":[],"categories_sizes":[],"default_left":[0,0,0,0,0,0,0,0,0,0,0,0,0],"id":7,"left_children":[1,3,5,7,9,-1,11,-1,-1,-1,-1,-1,-1],"loss_changes":[1.2772959E2,2.0141792E1,3.362368E1,1.0022789E1,4.9509773E0,0E0,1.0347546E1,0E0,0E0,0E0,0E0,0E0,0E0],"parents":[2147483647,0,0,1,1,2,2,3,3,4,4,6,6],"right_children":[2,4,6,8,10,-1,12,-1,-1,-1,-1,-1,-1],"split_conditions":[2E0,1E0,3E0,2E0,2E0,5.2903958E-2,2.345E1,4.0638437E-3,-3.0121118E-2,3.633684E-2,-7.149296E-4,1.633381E-2,-3.0560827E-2],"split_indices":[2,9,0,1,1,0,8,0,0,0,0,0,0],"split_type":[0,0,0,0,0,0,0,0,0,0,0,0,0],"sum_hessian":[1.6586798E2,1.0431471E2,6.1553265E1,8.333091E1,2.0983805E1,3.4984818E1,2.6568445E1,8.344809E0,7.49861E1,2.9483438E0,1.8035461E1,2.2353062E1,4.2153826E0],"tree_param":{"num_deleted":"0","num_feature":"11","num_nodes":"13","size_leaf_vector":"1"}},{"base_weights":[1.1523698E-3,-6.5586746E-1,1.0988712E0,-8.7129927E-1,1.9251794E-1,5.1340364E-2,2.5972927E-1,3.951852E-3,-2.9532788E-2,1.5821308E-2,-1.33911E-2,1.5823578E-2,-3.007657E-2],"categories":[],"categories_nodes":[],"categories_segments":[],"categories_sizes":[],"default_left":[0,0,0,0,0,0,0,0,0,0,0,0,0],"id":8,"left_children":[1,3,5,7,9,-1,11,-1,-1,-1,-1,-1,-1],"loss_changes":[1.2054941E2,1.9278671E1,3.1720406E1,9.612232E0,4.94073E0,0E0,9.850752E0,0E0,0E0,0E0,0E0,0E0,0E0],"parents":[2147483647,0,0,1,1,2,2,3,3,4,4,6,6],"right_children":[2,4,6,8,10,-1,12,-1,-1,-1,-1,-1,-1],"split_conditions":[2E0,1E0,3E0,2E0,4.3E1,5.1340364E-2,2.345E1,3.951852E-3,-2.9532788E-2,1.5821308E-2,-1.33911E-2,1.5823578E-2,-3.007657E-2],"split_indices":[2,9,0,1,3,0,8,0,0,0,0,0,0],"split_type":[0,0,0,0,0,0,0,0,0,0,0,0,0],"sum_hessian":[1.651465E2,1.0356316E2,6.1583344E1,8.256922E1,2.0993938E1,3.4998894E1,2.658445E1,8.352076E0,7.421715E1,1.3888911E1,7.1050267E0,2.2412928E1,4.1715226E0],"tree_param":{"num_deleted":"0","num_feature":"11","num_nodes":"13","size_leaf_vector":"1"}},{"base_weights":[1.1326466E-3,-6.4109963E-1,1.0668682E0,-8.534428E-1,1.8664545E-1,4.9889416E-2,2.5128064E-1,3.8430444E-3,-2.8961414E-2,3.5316925E-2,-8.7357714E-4,1.5238973E-2,-3.0391555E-2],"categories":[],"categories_nodes":[],"categories_segments":[],"categories_sizes":[],"default_left":[0,0,0,0,0,0,0,0,0,0,0,0,0],"id":9,"left_children":[1,3,5,7,9,-1,11,-1,-1,-1,-1,-1,-1],"loss_changes":[1.1387724E2,1.8406845E1,2.9998238E1,9.221207E0,4.739783E0,0E0,9.470292E0,0E0,0E0,0E0,0E0,0E0,0E0],"parents":[2147483647,0,0,1,1,2,2,3,3,4,4,6,6],"right_children":[2,4,6,8,10,-1,12,-1,-1,-1,-1,-1,-1],"split_conditions":[2E0,1E0,3E0,2E0,2E0,4.9889416E-2,5E0,3.8430444E-3,-2.8961414E-2,3.5316925E-2,-8.7357714E-4,1.5238973E-2,-3.0391555E-2],"split_indices":[2,9,0,1,1,0,6,0,0,0,0,0,0],"split_type":[0,0,0,0,0,0,0,0,0,0,0,0,0],"sum_hessian":[1.643785E2,1.028173E2,6.1561188E1,8.180154E1,2.1015764E1,3.496575E1,2.6595436E1,8.359087E0,7.344245E1,2.9618218E0,1.8053944E1,2.2604498E1,3.9909382E0],"tree_param":{"num_deleted":"0","num_feature":"11","num_nodes":"13","size_leaf_vector":"1"}},{"base_weights":[1.3067576E-3,-6.2650156E-1,1.0364575E0,-8.3607215E-1,1.8254225E-1,4.853863E-2,2.43032E-1,3.7373318E-3,-2.840587E-2,1.5228225E-2,-1.3209585E-2,1.4907832E-2,-2.9288298E-2],"categories":[],"categories_nodes":[],"categories_segments":[],"categories_sizes":[],"default_left":[0,0,0,0,0,0,0,0,0,0,0,0,0],"id":10,"left_children":[1,3,5,7,9,-1,11,-1,-1,-1,-1,-1,-1],"loss_changes":[1.07587585E2,1.7625381E1,2.844226E1,8.848427E0,4.6825075E0,0E0,9.032425E0,0E0,0E0,0E0,0E0,0E0,0E0],"parents":[2147483647,0,0,1,1,2,2,3,3,4,4,6,6],"right_children":[2,4,6,8,10,-1,12,-1,-1,-1,-1,-1,-1],"split_conditions":[2E0,1E0,3E0,2E0,4.3E1,4.853863E-2,2.345E1,3.7373318E-3,-2.840587E-2,1.5228225E-2,-1.3209585E-2,1.4907832E-2,-2.9288298E-2],"split_indices":[2,9,0,1,3,0,8,0,0,0,0,0,0],"split_type":[0,0,0,0,0,0,0,0,0,0,0,0,0],"sum_hessian":[1.635517E2,1.0205262E2,6.1499084E1,8.1029686E1,2.102293E1,3.488955E1,2.6609537E1,8.36585E0,7.266383E1,1.3935285E1,7.0876446E0,2.251393E1,4.0956087E0],"tree_param":{"num_deleted":"0","num_feature":"11","num_nodes":"13","size_leaf_vector":"1"}},{"base_weights":[1.2841002E-3,-6.1253124E-1,1.0077554E0,-8.191581E-1,1.7698964E-1,4.7277268E-2,2.3516132E-1,3.6346102E-3,-2.7865138E-2,3.4354206E-2,-1.0192213E-3,1.4364684E-2,-2.9605646E-2],"categories":[],"categories_nodes":[],"categories_segments":[],"categories_sizes":[],"default_left":[0,0,0,0,0,0,0,0,0,0,0,0,0],"id":11,"left_children":[1,3,5,7,9,-1,11,-1,-1,-1,-1,-1,-1],"loss_changes":[1.0173856E2,1.6833275E1,2.7014E1,8.492657E0,4.540722E0,0E0,8.694267E0,0E0,0E0,0E0,0E0,0E0,0E0],"parents":[2147483647,0,0,1,1,2,2,3,3,4,4,6,6],"right_children":[2,4,6,8,10,-1,12,-1,-1,-1,-1,-1,-1],"split_conditions":[2E0,1E0,3E0,2E0,2E0,4.7277268E-2,5E0,3.6346102E-3,-2.7865138E-2,3.4354206E-2,-1.0192213E-3,1.4364684E-2,-2.9605646E-2],"split_indices":[2,9,0,1,1,0,6,0,0,0,0,0,0],"split_type":[0,0,0,0,0,0,0,0,0,0,0,0,0],"sum_hessian":[1.6268294E2,1.0129667E2,6.1386265E1,8.025537E1,2.1041302E1,3.477414E1,2.6612123E1,8.3723755E0,7.1882996E1,2.9723792E0,1.8068924E1,2.2695059E1,3.9170659E0],"tree_param":{"num_deleted":"0","num_feature":"11","num_nodes":"13","size_leaf_vector":"1"}},{"base_weights":[1.4528824E-3,-5.9868526E-1,9.803554E-1,-8.0267346E-1,1.7315061E-1,4.6096064E-2,2.2747138E-1,3.5347934E-3,-2.7338278E-2,1.4665792E-2,-1.3027178E-2,1.40548255E-2,-2.8540721E-2],"categories":[],"categories_nodes":[],"categories_segments":[],"categories_sizes":[],"default_left":[0,0,0,0,0,0,0,0,0,0,0,0,0],"id":12,"left_children":[1,3,5,7,9,-1,11,-1,-1,-1,-1,-1,-1],"loss_changes":[9.620879E1,1.6123768E1,2.5713314E1,8.152847E0,4.4397383E0,0E0,8.292689E0,0E0,0E0,0E0,0E0,0E0,0E0],"parents":[2147483647,0,0,1,1,2,2,3,3,4,4,6,6],"right_children":[2,4,6,8,10,-1,12,-1,-1,-1,-1,-1,-1],"split_conditions":[2E0,1E0,3E0,2E0,4.3E1,4.6096064E-2,2.345E1,3.5347934E-3,-2.7338278E-2,1.4665792E-2,-1.3027178E-2,1.40548255E-2,-2.8540721E-2],"split_indices":[2,9,0,1,3,0,8,0,0,0,0,0,0],"split_type":[0,0,0,0,0,0,0,0,0,0,0,0,0],"sum_hessian":[1.6176709E2,1.0052586E2,6.1241226E1,7.948013E1,2.1045727E1,3.4623123E1,2.6618103E1,8.378674E0,7.110146E1,1.3976281E1,7.069445E0,2.259991E1,4.0181913E0],"tree_param":{"num_deleted":"0","num_feature":"11","num_nodes":"13","size_leaf_vector":"1"}},{"base_weights":[1.4270714E-3,-5.854318E-1,9.5438474E-1,-7.8659374E-1,1.6789591E-1,4.4986915E-2,2.2012584E-1,3.4377961E-3,-2.6824431E-2,-3.1505346E-2,9.602148E-3,1.35494545E-2,-2.8859796E-2],"categories":[],"categories_nodes":[],"categories_segments":[],"categories_sizes":[],"default_left":[0,0,0,0,0,0,0,0,0,0,0,0,0],"id":13,"left_children":[1,3,5,7,9,-1,11,-1,-1,-1,-1,-1,-1],"loss_changes":[9.105662E1,1.5402275E1,2.4510014E1,7.8280144E0,4.425375E0,0E0,7.9919405E0,0E0,0E0,0E0,0E0,0E0,0E0],"parents":[2147483647,0,0,1,1,2,2,3,3,4,4,6,6],"right_children":[2,4,6,8,10,-1,12,-1,-1,-1,-1,-1,-1],"split_conditions":[2E0,1E0,3E0,2E0,7.775E0,4.4986915E-2,5E0,3.4377961E-3,-2.6824431E-2,-3.1505346E-2,9.602148E-3,1.35494545E-2,-2.8859796E-2],"split_indices":[2,9,0,1,8,0,6,0,0,0,0,0,0],"split_type":[0,0,0,0,0,0,0,0,0,0,0,0,0],"sum_hessian":[1.6081961E2,9.9766304E1,6.1053307E1,7.870537E1,2.1060932E1,3.443983E1,2.6613474E1,8.384751E0,7.032062E1,1.683605E0,1.9377327E1,2.2771517E1,3.841958E0],"tree_param":{"num_deleted":"0","num_feature":"11","num_nodes":"13","size_leaf_vector":"1"}},{"base_weights":[1.2520837E-3,-5.7267314E-1,9.294901E-1,-7.7089626E-1,1.6166379E-1,4.3942768E-2,2.1294414E-1,3.3435277E-3,-2.632282E-2,3.3211246E-2,-1.3158309E-3,1.3258774E-2,-2.7829656E-2],"categories":[],"categories_nodes":[],"categories_segments":[],"categories_sizes":[],"default_left":[0,0,0,0,0,0,0,0,0,0,0,0,0],"id":14,"left_children":[1,3,5,7,9,-1,11,-1,-1,-1,-1,-1,-1],"loss_changes":[8.622803E1,1.468362E1,2.3406433E1,7.517235E0,4.339924E0,0E0,7.622759E0,0E0,0E0,0E0,0E0,0E0,0E0],"parents":[2147483647,0,0,1,1,2,2,3,3,4,4,6,6],"right_children":[2,4,6,8,10,-1,12,-1,-1,-1,-1,-1,-1],"split_conditions":[2E0,1E0,3E0,2E0,2E0,4.3942768E-2,2.345E1,3.3435277E-3,-2.632282E-2,3.3211246E-2,-1.3158309E-3,1.3258774E-2,-2.7829656E-2],"split_indices":[2,9,0,1,1,0,8,0,0,0,0,0,0],"split_type":[0,0,0,0,0,0,0,0,0,0,0,0,0],"sum_hessian":[1.5985869E2,9.9018845E1,6.0839836E1,7.7932396E1,2.1086454E1,3.4227367E1,2.6612469E1,8.390619E0,6.954177E1,2.982244E0,1.810421E1,2.2672663E1,3.9398057E0],"tree_param":{"num_deleted":"0","num_feature":"11","num_nodes":"13","size_leaf_vector":"1"}},{"base_weights":[1.4241389E-3,-5.598122E-1,9.058048E-1,-7.555606E-1,1.5824743E-1,4.295742E-2,2.060775E-1,3.2519135E-3,-2.5832724E-2,1.399724E-2,-1.3066947E-2,1.2787956E-2,-2.8149905E-2],"categories":[],"categories_nodes":[],"categories_segments":[],"categories_sizes":[],"default_left":[0,0,0,0,0,0,0,0,0,0,0,0,0],"id":15,"left_children":[1,3,5,7,9,-1,11,-1,-1,-1,-1,-1,-1],"loss_changes":[8.163723E1,1.4069998E1,2.2378334E1,7.2196846E0,4.247147E0,0E0,7.355171E0,0E0,0E0,0E0,0E0,0E0,0E0],"parents":[2147483647,0,0,1,1,2,2,3,3,4,4,6,6],"right_children":[2,4,6,8,10,-1,12,-1,-1,-1,-1,-1,-1],"split_conditions":[2E0,1E0,3E0,2E0,4.3E1,4.295742E-2,5E0,3.2519135E-3,-2.5832724E-2,1.399724E-2,-1.3066947E-2,1.2787956E-2,-2.8149905E-2],"split_indices":[2,9,0,1,3,0,6,0,0,0,0,0,0],"split_type":[0,0,0,0,0,0,0,0,0,0,0,0,0],"sum_hessian":[1.588399E2,9.824961E1,6.059029E1,7.716235E1,2.1087255E1,3.3988617E1,2.6601671E1,8.396284E0,6.8766075E1,1.40212345E1,7.0660214E0,2.283556E1,3.7661114E0],"tree_param":{"num_deleted":"0","num_feature":"11","num_nodes":"13","size_leaf_vector":"1"}},{"base_weights":[1.3924737E-3,-5.475019E-1,8.8301724E-1,-7.4056774E-1,1.5344493E-1,4.202541E-2,1.9936001E-1,3.1628695E-3,-2.535349E-2,-3.1225076E-2,9.075108E-3,1.2402324E-2,-2.7725961E-2],"categories":[],"categories_nodes":[],"categories_segments":[],"categories_sizes":[],"default_left":[0,0,0,0,0,0,0,0,0,0,0,0,0],"id":16,"left_children":[1,3,5,7,9,-1,11,-1,-1,-1,-1,-1,-1],"loss_changes":[7.733757E1,1.3442873E1,2.1429443E1,6.934635E0,4.248842E0,0E0,7.018557E0,0E0,0E0,0E0,0E0,0E0,0E0],"parents":[2147483647,0,0,1,1,2,2,3,3,4,4,6,6],"right_children":[2,4,6,8,10,-1,12,-1,-1,-1,-1,-1,-1],"split_conditions":[2E0,1E0,3E0,2E0,7.775E0,4.202541E-2,5E0,3.1628695E-3,-2.535349E-2,-3.1225076E-2,9.075108E-3,1.2402324E-2,-2.7725961E-2],"split_indices":[2,9,0,1,8,0,6,0,0,0,0,0,0],"split_type":[0,0,0,0,0,0,0,0,0,0,0,0,0],"sum_hessian":[1.578161E2,9.749516E1,6.032093E1,7.6396355E1,2.1098812E1,3.372625E1,2.6594683E1,8.401754E0,6.79946E1,1.6773006E0,1.942151E1,2.286978E1,3.7249026E0],"tree_param":{"num_deleted":"0","num_feature":"11","num_nodes":"13","size_leaf_vector":"1"}},{"base_weights":[1.2165946E-3,-5.356492E-1,8.611647E-1,-7.259004E-1,1.4767945E-1,1.3713968E0,1.9286487E-1,3.0763212E-3,-2.488451E-2,3.2148495E-2,-1.579305E-3,4.1742206E-2,1.3297586E-2,1.2182533E-2,-2.6891904E-2],"categories":[],"categories_nodes":[],"categories_segments":[],"categories_sizes":[],"default_left":[0,0,0,0,0,0,0,0,0,0,0,0,0,0,0],"id":17,"left_children":[1,3,5,7,9,11,13,-1,-1,-1,-1,-1,-1,-1,-1],"loss_changes":[7.330625E1,1.2815874E1,2.0545189E1,6.6613617E0,4.150616E0,2.293396E-2,6.7706513E0,0E0,0E0,0E0,0E0,0E0,0E0,0E0,0E0],"parents":[2147483647,0,0,1,1,2,2,3,3,4,4,5,5,6,6],"right_children":[2,4,6,8,10,12,14,-1,-1,-1,-1,-1,-1,-1,-1],"split_conditions":[2E0,1E0,3E0,2E0,2E0,5.55E1,2.345E1,3.0763212E-3,-2.488451E-2,3.2148495E-2,-1.579305E-3,4.1742206E-2,1.3297586E-2,1.2182533E-2,-2.6891904E-2],"split_indices":[2,9,0,1,1,3,8,0,0,0,0,0,0,0,0],"split_type":[0,0,0,0,0,0,0,0,0,0,0,0,0,0,0],"sum_hessian":[1.5678351E2,9.67559E1,6.0027615E1,7.563533E1,2.1120564E1,3.344275E1,2.6584864E1,8.407038E0,6.7228294E1,2.9883125E0,1.8132252E1,3.2248367E1,1.194384E0,2.2757372E1,3.8274922E0],"tree_param":{"num_deleted":"0","num_feature":"11","num_nodes":"15","size_leaf_vector":"1"}},{"base_weights":[1.4747902E-3,-5.236455E-1,8.404512E-1,-7.1154284E-1,1.4464374E-1,1.3437089E0,1.8664062E-1,2.9921962E-3,-2.4425238E-2,1.3378684E-2,-1.3085028E-2,4.0897142E-2,1.310103E-2,1.1119351E-2,-3.045781E-2],"categories":[],"categories_nodes":[],"categories_segments":[],"categories_sizes":[],"default_left":[0,0,0,0,0,0,0,0,0,0,0,0,0,0,0],"id":18,"left_children":[1,3,5,7,9,11,13,-1,-1,-1,-1,-1,-1,-1,-1],"loss_changes":[6.9480095E1,1.2282978E1,1.972496E1,6.3992424E0,4.065314E0,9.464264E-3,6.472811E0,0E0,0E0,0E0,0E0,0E0,0E0,0E0,0E0],"parents":[2147483647,0,0,1,1,2,2,3,3,4,4,5,5,6,6],"right_children":[2,4,6,8,10,12,14,-1,-1,-1,-1,-1,-1,-1,-1],"split_conditions":[2E0,1E0,3E0,2E0,4.3E1,5.55E1,2.54667E1,2.9921962E-3,-2.4425238E-2,1.3378684E-2,-1.3085028E-2,4.0897142E-2,1.310103E-2,1.1119351E-2,-3.045781E-2],"split_indices":[2,9,0,1,3,3,8,0,0,0,0,0,0,0,0],"split_type":[0,0,0,0,0,0,0,0,0,0,0,0,0,0,0],"sum_hessian":[1.5570839E2,9.5998314E1,5.9710068E1,7.4880165E1,2.1118153E1,3.31434E1,2.656667E1,8.41214E0,6.6468025E1,1.4057572E1,7.060581E0,3.195241E1,1.1909882E0,2.3639248E1,2.9274218E0],"tree_param":{"num_deleted":"0","num_feature":"11","num_nodes":"15","size_leaf_vector":"1"}},{"base_weights":[1.5016908E-3,-5.121607E-1,8.203742E-1,-6.974803E-1,1.4024968E-1,3.952081E-2,1.8040948E-1,2.9104187E-3,-2.3975162E-2,-3.0939044E-2,8.590183E-3,1.1381433E-2,-2.6776716E-2],"categories":[],"categories_nodes":[],"categories_segments":[],"categories_sizes":[],"default_left":[0,0,0,0,0,0,0,0,0,0,0,0,0],"id":19,"left_children":[1,3,5,7,9,-1,11,-1,-1,-1,-1,-1,-1],"loss_changes":[6.588486E1,1.1735851E1,1.8966091E1,6.14769E0,4.082282E0,0E0,6.2206197E0,0E0,0E0,0E0,0E0,0E0,0E0],"parents":[2147483647,0,0,1,1,2,2,3,3,4,4,6,6],"right_children":[2,4,6,8,10,-1,12,-1,-1,-1,-1,-1,-1],"split_conditions":[2E0,1E0,3E0,2E0,7.775E0,3.952081E-2,5E0,2.9104187E-3,-2.3975162E-2,-3.0939044E-2,8.590183E-3,1.1381433E-2,-2.6776716E-2],"split_indices":[2,9,0,1,8,0,6,0,0,0,0,0,0],"split_type":[0,0,0,0,0,0,0,0,0,0,0,0,0],"sum_hessian":[1.5463708E2,9.525812E1,5.9378967E1,7.413166E1,2.1126455E1,3.2827312E1,2.6551653E1,8.417069E0,6.571459E1,1.6705217E0,1.9455935E1,2.2943428E1,3.6082253E0],"tree_param":{"num_deleted":"0","num_feature":"11","num_nodes":"13","size_leaf_vector":"1"}},{"base_weights":[1.3198701E-3,-5.011056E-1,8.009003E-1,4.0555066E-1,-6.2893194E-1,1.2919354E0,1.7451766E-1,2.9969314E-2,-3.0821843E-2,-2.5580062E-2,-9.5608656E-4,3.9338883E-2,1.2328508E-2,1.1187099E-2,-2.5980294E-2],"categories":[],"categories_nodes":[],"categories_segments":[],"categories_sizes":[],"default_left":[0,0,0,0,0,0,0,0,0,0,0,0,0,0,0],"id":20,"left_children":[1,3,5,7,9,11,13,-1,-1,-1,-1,-1,-1,-1,-1],"loss_changes":[6.2494427E1,1.1327091E1,1.823803E1,1.1581573E1,1.12103195E1,3.2409668E-2,6.006911E0,0E0,0E0,0E0,0E0,0E0,0E0,0E0,0E0],"parents":[2147483647,0,0,1,1,2,2,3,3,4,4,5,5,6,6],"right_children":[2,4,6,8,10,12,14,-1,-1,-1,-1,-1,-1,-1,-1],"split_conditions":[2E0,2E0,3E0,3E0,2.62833E1,5.55E1,2.345E1,2.9969314E-2,-3.0821843E-2,-2.5580062E-2,-9.5608656E-4,3.9338883E-2,1.2328508E-2,1.1187099E-2,-2.5980294E-2],"split_indices":[2,1,0,4,8,3,8,0,0,0,0,0,0,0,0],"split_type":[0,0,0,0,0,0,0,0,0,0,0,0,0,0,0],"sum_hessian":[1.5356442E2,9.4535355E1,5.9029076E1,1.1412839E1,8.312251E1,3.2493877E1,2.6535198E1,8.28473E0,3.1281092E0,6.015322E1,2.2969292E1,3.1317202E1,1.1766753E0,2.2825027E1,3.7101698E0],"tree_param":{"num_deleted":"0","num_feature":"11","num_nodes":"15","size_leaf_vector":"1"}},{"base_weights":[1.3246706E-3,-4.9014384E-1,7.8237826E-1,-6.7119205E-1,1.3492988E-1,1.2679278E0,1.6886659E-1,2.627508E-3,-2.3117334E-2,1.29396E-2,-1.3094741E-2,3.8607694E-2,1.2148687E-2,1.0195696E-2,-2.9502364E-2],"categories":[],"categories_nodes":[],"categories_segments":[],"categories_sizes":[],"default_left":[0,0,0,0,0,0,0,0,0,0,0,0,0,0,0],"id":21,"left_children":[1,3,5,7,9,11,13,-1,-1,-1,-1,-1,-1,-1,-1],"loss_changes":[5.929861E1,1.0820978E1,1.7558449E1,5.624569E0,3.935939E0,2.2262573E-2,5.7546997E0,0E0,0E0,0E0,0E0,0E0,0E0,0E0,0E0],"parents":[2147483647,0,0,1,1,2,2,3,3,4,4,5,5,6,6],"right_children":[2,4,6,8,10,12,14,-1,-1,-1,-1,-1,-1,-1,-1],"split_conditions":[2E0,1E0,3E0,2E0,4.3E1,5.55E1,2.54667E1,2.627508E-3,-2.3117334E-2,1.29396E-2,-1.3094741E-2,3.8607694E-2,1.2148687E-2,1.0195696E-2,-2.9502364E-2],"split_indices":[2,9,0,1,3,3,8,0,0,0,0,0,0,0,0],"split_type":[0,0,0,0,0,0,0,0,0,0,0,0,0,0,0],"sum_hessian":[1.5247948E2,9.381806E1,5.8661423E1,7.26901E1,2.112796E1,3.215021E1,2.6511208E1,8.432167E0,6.4257935E1,1.4073411E1,7.054549E0,3.0977089E1,1.173125E0,2.3699438E1,2.8117707E0],"tree_param":{"num_deleted":"0","num_feature":"11","num_nodes":"15","size_leaf_vector":"1"}},{"base_weights":[1.3472454E-3,-4.7938526E-1,7.6434547E-1,3.905157E-1,-6.0434633E-1,1.2449535E0,1.6319452E-1,2.9000895E-2,-3.0312134E-2,-2.4759907E-2,-7.6888053E-4,3.7908513E-2,1.1971905E-2,1.0454291E-2,-2.5888894E-2],"categories":[],"categories_nodes":[],"categories_segments":[],"categories_sizes":[],"default_left":[0,0,0,0,0,0,0,0,0,0,0,0,0,0,0],"id":22,"left_children":[1,3,5,7,9,11,13,-1,-1,-1,-1,-1,-1,-1,-1],"loss_changes":[5.6260887E1,1.0464916E1,1.6925613E1,1.100754E1,1.0551533E1,1.3484955E-2,5.5274754E0,0E0,0E0,0E0,0E0,0E0,0E0,0E0,0E0],"parents":[2147483647,0,0,1,1,2,2,3,3,4,4,5,5,6,6],"right_children":[2,4,6,8,10,12,14,-1,-1,-1,-1,-1,-1,-1,-1],"split_conditions":[2E0,2E0,3E0,3E0,2.62833E1,5.55E1,5E0,2.9000895E-2,-3.0312134E-2,-2.4759907E-2,-7.6888053E-4,3.7908513E-2,1.1971905E-2,1.0454291E-2,-2.5888894E-2],"split_indices":[2,1,0,4,8,3,6,0,0,0,0,0,0,0,0],"split_type":[0,0,0,0,0,0,0,0,0,0,0,0,0,0,0],"sum_hessian":[1.5138489E2,9.309894E1,5.8285946E1,1.14269E1,8.1672035E1,3.1795294E1,2.649065E1,8.316419E0,3.1104817E0,5.879496E1,2.2877077E1,3.0625738E1,1.1695557E0,2.2998478E1,3.492172E0],"tree_param":{"num_deleted":"0","num_feature":"11","num_nodes":"15","size_leaf_vector":"1"}},{"base_weights":[1.344919E-3,-4.6891555E-1,7.469659E-1,-6.4592403E-1,1.3073803E-1,1.2229304E0,1.5783812E-1,2.3608147E-3,-2.2289919E-2,1.2624016E-2,-1.2901596E-2,3.723878E-2,1.1798085E-2,1.0282142E-2,-2.5126146E-2],"categories":[],"categories_nodes":[],"categories_segments":[],"categories_sizes":[],"default_left":[0,0,0,0,0,0,0,0,0,0,0,0,0,0,0],"id":23,"left_children":[1,3,5,7,9,11,13,-1,-1,-1,-1,-1,-1,-1,-1],"loss_changes":[5.33984E1,9.99736E0,1.6322704E1,5.142357E0,3.778524E0,5.9051514E-3,5.3426113E0,0E0,0E0,0E0,0E0,0E0,0E0,0E0,0E0],"parents":[2147483647,0,0,1,1,2,2,3,3,4,4,5,5,6,6],"right_children":[2,4,6,8,10,12,14,-1,-1,-1,-1,-1,-1,-1,-1],"split_conditions":[2E0,1E0,3E0,2E0,4.3E1,5.55E1,2.345E1,2.3608147E-3,-2.2289919E-2,1.2624016E-2,-1.2901596E-2,3.723878E-2,1.1798085E-2,1.0282142E-2,-2.5126146E-2],"split_indices":[2,9,0,1,3,3,8,0,0,0,0,0,0,0,0],"split_type":[0,0,0,0,0,0,0,0,0,0,0,0,0,0,0],"sum_hessian":[1.5029115E2,9.239136E1,5.789979E1,7.127493E1,2.1116423E1,3.1430676E1,2.6469116E1,8.442673E0,6.2832264E1,1.4082203E1,7.0342193E0,3.0264706E1,1.1659698E0,2.2875465E1,3.5936503E0],"tree_param":{"num_deleted":"0","num_feature":"11","num_nodes":"15","size_leaf_vector":"1"}},{"base_weights":[1.3939437E-3,-4.5860308E-1,7.302172E-1,3.7631854E-1,-5.807314E-1,1.2017833E0,1.5269716E-1,2.8083675E-2,-2.981393E-2,-2.3970325E-2,-5.943944E-4,2.6943116E-2,3.9855752E-2,9.35633E-3,-2.8614124E-2],"categories":[],"categories_nodes":[],"categories_segments":[],"categories_sizes":[],"default_left":[0,0,0,0,0,0,0,0,0,0,0,0,0,0,0],"id":24,"left_children":[1,3,5,7,9,11,13,-1,-1,-1,-1,-1,-1,-1,-1],"loss_changes":[5.068614E1,9.669775E0,1.5747929E1,1.0467697E1,9.932657E0,4.0714264E-2,5.1307063E0,0E0,0E0,0E0,0E0,0E0,0E0,0E0,0E0],"parents":[2147483647,0,0,1,1,2,2,3,3,4,4,5,5,6,6],"right_children":[2,4,6,8,10,12,14,-1,-1,-1,-1,-1,-1,-1,-1],"split_conditions":[2E0,2E0,3E0,3E0,2.62833E1,2.625E1,2.54667E1,2.8083675E-2,-2.981393E-2,-2.3970325E-2,-5.943944E-4,2.6943116E-2,3.9855752E-2,9.35633E-3,-2.8614124E-2],"split_indices":[2,1,0,4,8,8,8,0,0,0,0,0,0,0,0],"split_type":[0,0,0,0,0,0,0,0,0,0,0,0,0,0,0],"sum_hessian":[1.4918724E2,9.1688675E1,5.7498573E1,1.1434711E1,8.025397E1,3.1057808E1,2.6440765E1,8.342769E0,3.091943E0,5.7466568E1,2.2787394E1,1.1526306E1,1.9531502E1,2.3743221E1,2.6975424E0],"tree_param":{"num_deleted":"0","num_feature":"11","num_nodes":"15","size_leaf_vector":"1"}},{"base_weights":[1.4849759E-3,-4.4859174E-1,7.1405953E-1,-6.2159365E-1,1.2657401E-1,1.1817065E0,1.4752321E-1,2.109169E-3,-2.149021E-2,-2.9798469E-2,7.94585E-3,2.6426066E-2,3.923313E-2,9.080927E-3,-2.8306277E-2],"categories":[],"categories_nodes":[],"categories_segments":[],"categories_sizes":[],"default_left":[0,0,0,0,0,0,0,0,0,0,0,0,0,0,0],"id":25,"left_children":[1,3,5,7,9,11,13,-1,-1,-1,-1,-1,-1,-1,-1],"loss_changes":[4.8137264E1,9.232426E0,1.5219318E1,4.697586E0,3.6859665E0,4.973221E-2,4.927293E0,0E0,0E0,0E0,0E0,0E0,0E0,0E0,0E0],"parents":[2147483647,0,0,1,1,2,2,3,3,4,4,5,5,6,6],"right_children":[2,4,6,8,10,12,14,-1,-1,-1,-1,-1,-1,-1,-1],"split_conditions":[2E0,1E0,3E0,2E0,7.775E0,2.625E1,2.54667E1,2.109169E-3,-2.149021E-2,-2.9798469E-2,7.94585E-3,2.6426066E-2,3.923313E-2,9.080927E-3,-2.8306277E-2],"split_indices":[2,9,0,1,8,8,8,0,0,0,0,0,0,0,0],"split_type":[0,0,0,0,0,0,0,0,0,0,0,0,0,0,0],"sum_hessian":[1.4809563E2,9.0993034E1,5.71026E1,6.9890274E1,2.1102755E1,3.0686558E1,2.6416042E1,8.448927E0,6.144135E1,1.6399205E0,1.9462835E1,1.1420453E1,1.9266106E1,2.3759472E1,2.65657E0],"tree_param":{"num_deleted":"0","num_feature":"11","num_nodes":"15","size_leaf_vector":"1"}},{"base_weights":[1.4747498E-3,-4.38883E-1,6.983832E-1,-2.7512988E-2,-2.2663715E-1,1.1623683E0,1.4250715E-1,-1.324123E-2,7.709263E-3,3.5438012E-2,1.0564279E-2,9.343848E-3,-2.4810862E-2],"categories":[],"categories_nodes":[],"categories_segments":[],"categories_sizes":[],"default_left":[0,0,0,0,0,0,0,0,0,0,0,0,0],"id":26,"left_children":[1,3,5,-1,7,9,11,-1,-1,-1,-1,-1,-1],"loss_changes":[4.5731754E1,9.060953E0,1.4716166E1,0E0,6.819603E0,6.3446045E-2,4.7443027E0,0E0,0E0,0E0,0E0,0E0,0E0],"parents":[2147483647,0,0,1,1,2,2,4,4,5,5,6,6],"right_children":[2,4,6,-1,8,10,12,-1,-1,-1,-1,-1,-1],"split_conditions":[2E0,7.925E0,3E0,-2.7512988E-2,1E0,5.55E1,5E0,-1.324123E-2,7.709263E-3,3.5438012E-2,1.0564279E-2,9.343848E-3,-2.4810862E-2],"split_indices":[2,8,0,0,9,3,6,0,0,0,0,0,0],"split_type":[0,0,0,0,0,0,0,0,0,0,0,0,0],"sum_hessian":[1.4701845E2,9.031872E1,5.6699734E1,2.6742832E1,6.3575886E1,3.030955E1,2.6390182E1,4.4087273E1,1.9488613E1,2.9171175E1,1.1383744E0,2.3051847E1,3.338337E0],"tree_param":{"num_deleted":"0","num_feature":"11","num_nodes":"13","size_leaf_vector":"1"}},{"base_weights":[1.4180439E-3,-4.2909285E-1,6.8299323E-1,3.6943558E-1,-5.4875493E-1,1.1434137E0,1.3777971E-1,2.7349778E-2,-2.9096337E-2,-2.283551E-2,-5.5521465E-4,2.526271E-2,3.8135447E-2,9.199574E-3,-2.4085695E-2],"categories":[],"categories_nodes":[],"categories_segments":[],"categories_sizes":[],"default_left":[0,0,0,0,0,0,0,0,0,0,0,0,0,0,0],"id":27,"left_children":[1,3,5,7,9,11,13,-1,-1,-1,-1,-1,-1,-1,-1],"loss_changes":[4.3420033E1,8.868834E0,1.4222265E1,9.901657E0,8.915613E0,1.1994934E-1,4.592891E0,0E0,0E0,0E0,0E0,0E0,0E0,0E0,0E0],"parents":[2147483647,0,0,1,1,2,2,3,3,4,4,5,5,6,6],"right_children":[2,4,6,8,10,12,14,-1,-1,-1,-1,-1,-1,-1,-1],"split_conditions":[2E0,2E0,3E0,3E0,2.62833E1,2.625E1,2.345E1,2.7349778E-2,-2.9096337E-2,-2.283551E-2,-5.5521465E-4,2.526271E-2,3.8135447E-2,9.199574E-3,-2.4085695E-2],"split_indices":[2,1,0,4,8,8,8,0,0,0,0,0,0,0,0],"split_type":[0,0,0,0,0,0,0,0,0,0,0,0,0,0,0],"sum_hessian":[1.4597752E2,8.9693726E1,5.6283802E1,1.1417195E1,7.827653E1,2.9919924E1,2.636388E1,8.354264E0,3.0629315E0,5.5576035E1,2.270049E1,1.116934E1,1.8750584E1,2.2922577E1,3.4413037E0],"tree_param":{"num_deleted":"0","num_feature":"11","num_nodes":"15","size_leaf_vector":"1"}},{"base_weights":[1.5314308E-3,-4.1970706E-1,6.6832405E-1,-2.6756614E-2,-2.1347424E-1,1.1253847E0,1.3323931E-1,-1.2633219E-2,7.417029E-3,2.478801E-2,3.758651E-2,8.340512E-3,-2.7494298E-2],"categories":[],"categories_nodes":[],"categories_segments":[],"categories_sizes":[],"default_left":[0,0,0,0,0,0,0,0,0,0,0,0,0],"id":28,"left_children":[1,3,5,-1,7,9,11,-1,-1,-1,-1,-1,-1],"loss_changes":[4.125683E1,8.575629E0,1.3757694E1,0E0,6.223276E0,1.2930298E-1,4.40852E0,0E0,0E0,0E0,0E0,0E0,0E0],"parents":[2147483647,0,0,1,1,2,2,4,4,5,5,6,6],"right_children":[2,4,6,-1,8,10,12,-1,-1,-1,-1,-1,-1],"split_conditions":[2E0,7.925E0,3E0,-2.6756614E-2,1E0,2.625E1,2.54667E1,-1.2633219E-2,7.417029E-3,2.478801E-2,3.758651E-2,8.340512E-3,-2.7494298E-2],"split_indices":[2,8,0,0,9,8,8,0,0,0,0,0,0],"split_type":[0,0,0,0,0,0,0,0,0,0,0,0,0],"sum_hessian":[1.448862E2,8.901964E1,5.5866566E1,2.6050676E1,6.2968964E1,2.9535034E1,2.6331532E1,4.346571E1,1.9503256E1,1.1062519E1,1.8472515E1,2.3786085E1,2.545448E0],"tree_param":{"num_deleted":"0","num_feature":"11","num_nodes":"13","size_leaf_vector":"1"}},{"base_weights":[1.568828E-3,-4.103136E-1,6.5392524E-1,3.659427E-1,-5.2835876E-1,1.1079454E0,1.2865412E-1,2.6752917E-2,-2.8379193E-2,-2.2101171E-2,-5.662846E-4,2.4324492E-2,3.705952E-2,8.688405E-3,-2.352951E-2],"categories":[],"categories_nodes":[],"categories_segments":[],"categories_sizes":[],"default_left":[0,0,0,0,0,0,0,0,0,0,0,0,0,0,0],"id":29,"left_children":[1,3,5,7,9,11,13,-1,-1,-1,-1,-1,-1,-1,-1],"loss_changes":[3.919207E1,8.386492E0,1.331996E1,9.392662E0,8.267778E0,1.3933945E-1,4.2393565E0,0E0,0E0,0E0,0E0,0E0,0E0,0E0,0E0],"parents":[2147483647,0,0,1,1,2,2,3,3,4,4,5,5,6,6],"right_children":[2,4,6,8,10,12,14,-1,-1,-1,-1,-1,-1,-1,-1],"split_conditions":[2E0,2E0,3E0,3E0,2.62833E1,2.625E1,2.345E1,2.6752917E-2,-2.8379193E-2,-2.2101171E-2,-5.662846E-4,2.4324492E-2,3.705952E-2,8.688405E-3,-2.352951E-2],"split_indices":[2,1,0,4,8,8,8,0,0,0,0,0,0,0,0],"split_type":[0,0,0,0,0,0,0,0,0,0,0,0,0,0,0],"sum_hessian":[1.4386269E2,8.8412285E1,5.54504E1,1.1392964E1,7.701932E1,2.9147423E1,2.6302979E1,8.361785E0,3.0311797E0,5.434825E1,2.2671066E1,1.0955806E1,1.8191616E1,2.2941166E1,3.3618133E0],"tree_param":{"num_deleted":"0","num_feature":"11","num_nodes":"15","size_leaf_vector":"1"}},{"base_weights":[1.6759573E-3,-4.0132055E-1,6.400365E-1,-2.6026797E-2,-2.0096256E-1,1.0910544E0,1.2438531E-1,-1.2048711E-2,7.136043E-3,2.3871573E-2,3.6552876E-2,8.382204E-3,-2.3851337E-2],"categories":[],"categories_nodes":[],"categories_segments":[],"categories_sizes":[],"default_left":[0,0,0,0,0,0,0,0,0,0,0,0,0],"id":30,"left_children":[1,3,5,-1,7,9,11,-1,-1,-1,-1,-1,-1],"loss_changes":[3.724537E1,8.11651E0,1.2894413E1,0E0,5.6763854E0,1.4991379E-1,4.1088614E0,0E0,0E0,0E0,0E0,0E0,0E0],"parents":[2147483647,0,0,1,1,2,2,4,4,5,5,6,6],"right_children":[2,4,6,-1,8,10,12,-1,-1,-1,-1,-1,-1],"split_conditions":[2E0,7.925E0,3E0,-2.6026797E-2,1E0,2.625E1,5E0,-1.2048711E-2,7.136043E-3,2.3871573E-2,3.6552876E-2,8.382204E-3,-2.3851337E-2],"split_indices":[2,8,0,0,9,8,6,0,0,0,0,0,0],"split_type":[0,0,0,0,0,0,0,0,0,0,0,0,0],"sum_hessian":[1.4278033E2,8.775317E1,5.5027176E1,2.537491E1,6.2378254E1,2.8757956E1,2.6269222E1,4.286325E1,1.9515003E1,1.0849359E1,1.7908598E1,2.3074781E1,3.1944401E0],"tree_param":{"num_deleted":"0","num_feature":"11","num_nodes":"13","size_leaf_vector":"1"}},{"base_weights":[1.7331277E-3,-3.9230317E-1,6.26439E-1,3.6231595E-1,-5.0869846E-1,1.0746732E0,1.2019824E-1,2.6171433E-2,-2.7697256E-2,-2.1389185E-2,-5.779775E-4,3.3516727E-2,1.4866825E-2,7.6649147E-3,-2.6730431E-2],"categories":[],"categories_nodes":[],"categories_segments":[],"categories_sizes":[],"default_left":[0,0,0,0,0,0,0,0,0,0,0,0,0,0,0],"id":31,"left_children":[1,3,5,7,9,11,13,-1,-1,-1,-1,-1,-1,-1,-1],"loss_changes":[3.5389954E1,7.9281416E0,1.248892E1,8.913759E0,7.664486E0,1.7001724E-1,3.9545E0,0E0,0E0,0E0,0E0,0E0,0E0,0E0,0E0],"parents":[2147483647,0,0,1,1,2,2,3,3,4,4,5,5,6,6],"right_children":[2,4,6,8,10,12,14,-1,-1,-1,-1,-1,-1,-1,-1],"split_conditions":[2E0,2E0,3E0,3E0,2.62833E1,4E0,2.54667E1,2.6171433E-2,-2.7697256E-2,-2.1389185E-2,-5.779775E-4,3.3516727E-2,1.4866825E-2,7.6649147E-3,-2.6730431E-2],"split_indices":[2,1,0,4,8,6,8,0,0,0,0,0,0,0,0],"split_type":[0,0,0,0,0,0,0,0,0,0,0,0,0,0,0],"sum_hessian":[1.4177159E2,8.71643E1,5.4607296E1,1.1365588E1,7.579871E1,2.8367434E1,2.6239862E1,8.367178E0,2.9984095E0,5.315619E1,2.2642525E1,2.5560167E1,2.8072667E0,2.380246E1,2.437402E0],"tree_param":{"num_deleted":"0","num_feature":"11","num_nodes":"15","size_leaf_vector":"1"}},{"base_weights":[1.7250213E-3,-3.836814E-1,6.129436E-1,-8.440311E-1,-1.8906975E-1,1.0584576E0,1.16001636E-1,-2.5871208E-2,-8.611395E-3,-1.0896213E-2,8.345156E-3,2.2822542E-2,3.5660595E-2,7.441758E-3,-2.6462851E-2],"categories":[],"categories_nodes":[],"categories_segments":[],"categories_sizes":[],"default_left":[0,0,0,0,0,0,0,0,0,0,0,0,0,0,0],"id":32,"left_children":[1,3,5,7,9,11,13,-1,-1,-1,-1,-1,-1,-1,-1],"loss_changes":[3.361633E1,7.6813927E0,1.2094667E1,1.5193939E-2,5.2110577E0,2.1904755E-1,3.805172E0,0E0,0E0,0E0,0E0,0E0,0E0,0E0,0E0],"parents":[2147483647,0,0,1,1,2,2,3,3,4,4,5,5,6,6],"right_children":[2,4,6,8,10,12,14,-1,-1,-1,-1,-1,-1,-1,-1],"split_conditions":[2E0,7.925E0,3E0,1E0,2E0,2.625E1,2.54667E1,-2.5871208E-2,-8.611395E-3,-1.0896213E-2,8.345156E-3,2.2822542E-2,3.5660595E-2,7.441758E-3,-2.6462851E-2],"split_indices":[2,8,0,4,9,8,8,0,0,0,0,0,0,0,0],"split_type":[0,0,0,0,0,0,0,0,0,0,0,0,0,0,0],"sum_hessian":[1.4070523E2,8.65212E1,5.4184036E1,2.47169E1,6.18043E1,2.7974573E1,2.6209465E1,2.3398071E1,1.3188289E0,4.5186348E1,1.661795E1,1.0595242E1,1.7379332E1,2.3810583E1,2.3988817E0],"tree_param":{"num_deleted":"0","num_feature":"11","num_nodes":"15","size_leaf_vector":"1"}},{"base_weights":[1.7019315E-3,-3.7503833E-1,5.9995186E-1,3.5895544E-1,-4.8980758E-1,1.0429847E0,1.1192987E-1,2.5625346E-2,-2.705734E-2,-2.0704998E-2,-5.775515E-4,2.2401974E-2,3.5204437E-2,7.180633E-3,-2.6619611E-2],"categories":[],"categories_nodes":[],"categories_segments":[],"categories_sizes":[],"default_left":[0,0,0,0,0,0,0,0,0,0,0,0,0,0,0],"id":33,"left_children":[1,3,5,7,9,11,13,-1,-1,-1,-1,-1,-1,-1,-1],"loss_changes":[3.194323E1,7.5018454E0,1.1723553E1,8.47349E0,7.1170807E0,2.2879219E-1,3.6730132E0,0E0,0E0,0E0,0E0,0E0,0E0,0E0,0E0],"parents":[2147483647,0,0,1,1,2,2,3,3,4,4,5,5,6,6],"right_children":[2,4,6,8,10,12,14,-1,-1,-1,-1,-1,-1,-1,-1],"split_conditions":[2E0,2E0,3E0,3E0,2.62833E1,2.625E1,3.65E1,2.5625346E-2,-2.705734E-2,-2.0704998E-2,-5.775515E-4,2.2401974E-2,3.5204437E-2,7.180633E-3,-2.6619611E-2],"split_indices":[2,1,0,4,8,8,3,0,0,0,0,0,0,0,0],"split_type":[0,0,0,0,0,0,0,0,0,0,0,0,0,0,0],"sum_hessian":[1.3972919E2,8.596619E1,5.3763E1,1.1336603E1,7.4629585E1,2.7584373E1,2.6178629E1,8.371233E0,2.96537E0,5.2015205E1,2.2614378E1,1.04907E1,1.7093674E1,2.3892338E1,2.2862895E0],"tree_param":{"num_deleted":"0","num_feature":"11","num_nodes":"15","size_leaf_vector":"1"}},{"base_weights":[1.7674973E-3,-3.6676785E-1,5.869395E-1,-8.2139903E-1,-1.7770599E-1,1.0279254E0,1.0785152E-1,-2.5193717E-2,-8.195176E-3,-1.0385618E-2,8.054272E-3,2.1989945E-2,3.4763608E-2,7.641499E-3,-2.2592584E-2],"categories":[],"categories_nodes":[],"categories_segments":[],"categories_sizes":[],"default_left":[0,0,0,0,0,0,0,0,0,0,0,0,0,0,0],"id":34,"left_children":[1,3,5,7,9,11,13,-1,-1,-1,-1,-1,-1,-1,-1],"loss_changes":[3.0345255E1,7.275239E0,1.1376566E1,2.350235E-2,4.77298E0,2.387886E-1,3.6282365E0,0E0,0E0,0E0,0E0,0E0,0E0,0E0,0E0],"parents":[2147483647,0,0,1,1,2,2,3,3,4,4,5,5,6,6],"right_children":[2,4,6,8,10,12,14,-1,-1,-1,-1,-1,-1,-1,-1],"split_conditions":[2E0,7.925E0,3E0,1E0,2E0,2.625E1,2.345E1,-2.5193717E-2,-8.195176E-3,-1.0385618E-2,8.054272E-3,2.1989945E-2,3.4763608E-2,7.641499E-3,-2.2592584E-2],"split_indices":[2,8,0,4,9,8,8,0,0,0,0,0,0,0,0],"split_type":[0,0,0,0,0,0,0,0,0,0,0,0,0,0,0],"sum_hessian":[1.387128E2,8.533986E1,5.3372936E1,2.4083183E1,6.125667E1,2.7195095E1,2.6177841E1,2.2786907E1,1.2962743E0,4.462869E1,1.6627985E1,1.0386963E1,1.6808132E1,2.2964523E1,3.2133179E0],"tree_param":{"num_deleted":"0","num_feature":"11","num_nodes":"15","size_leaf_vector":"1"}},{"base_weights":[1.7715321E-3,-3.5846823E-1,5.7468176E-1,3.5543808E-1,-4.7157648E-1,1.0132523E0,1.041864E-1,2.50912E-2,-2.6446216E-2,-2.003989E-2,-5.7893264E-4,3.1736806E-2,1.2891502E-2,7.368716E-3,-2.2916691E-2],"categories":[],"categories_nodes":[],"categories_segments":[],"categories_sizes":[],"default_left":[0,0,0,0,0,0,0,0,0,0,0,0,0,0,0],"id":35,"left_children":[1,3,5,7,9,11,13,-1,-1,-1,-1,-1,-1,-1,-1],"loss_changes":[2.8842485E1,7.096136E0,1.1026604E1,8.057797E0,6.6052685E0,2.697773E-1,3.5200727E0,0E0,0E0,0E0,0E0,0E0,0E0,0E0,0E0],"parents":[2147483647,0,0,1,1,2,2,3,3,4,4,5,5,6,6],"right_children":[2,4,6,8,10,12,14,-1,-1,-1,-1,-1,-1,-1,-1],"split_conditions":[2E0,2E0,3E0,3E0,2.62833E1,4E0,5E0,2.50912E-2,-2.6446216E-2,-2.003989E-2,-5.7893264E-4,3.1736806E-2,1.2891502E-2,7.368716E-3,-2.2916691E-2],"split_indices":[2,1,0,4,8,6,6,0,0,0,0,0,0,0,0],"split_type":[0,0,0,0,0,0,0,0,0,0,0,0,0,0,0],"sum_hessian":[1.3775269E2,8.480348E1,5.294921E1,1.1305294E1,7.3498184E1,2.6807299E1,2.6141912E1,8.373535E0,2.9317586E0,5.091108E1,2.2587103E1,2.414711E1,2.660188E0,2.3095898E1,3.0460153E0],"tree_param":{"num_deleted":"0","num_feature":"11","num_nodes":"15","size_leaf_vector":"1"}},{"base_weights":[1.7770459E-3,-3.505323E-1,5.6245404E-1,-7.99422E-1,-1.6691035E-1,9.985989E-1,1.0058892E-1,-2.0362511E-2,-3.214058E-2,1.1622843E-2,-8.861008E-3,2.1017523E-2,3.3986207E-2,1.6028017E-2,-5.561771E-3],"categories":[],"categories_nodes":[],"categories_segments":[],"categories_sizes":[],"default_left":[0,0,0,0,0,0,0,0,0,0,0,0,0,0,0],"id":36,"left_children":[1,3,5,7,9,11,13,-1,-1,-1,-1,-1,-1,-1,-1],"loss_changes":[2.7402107E1,6.888809E0,1.0682638E1,7.573795E-2,4.509837E0,3.03545E-1,3.4613879E0,0E0,0E0,0E0,0E0,0E0,0E0,0E0,0E0],"parents":[2147483647,0,0,1,1,2,2,3,3,4,4,5,5,6,6],"right_children":[2,4,6,8,10,12,14,-1,-1,-1,-1,-1,-1,-1,-1],"split_conditions":[2E0,7.925E0,3E0,3.25E1,2E0,2.625E1,6E0,-2.0362511E-2,-3.214058E-2,1.1622843E-2,-8.861008E-3,2.1017523E-2,3.3986207E-2,1.6028017E-2,-5.561771E-3],"split_indices":[2,8,0,3,1,8,3,0,0,0,0,0,0,0,0],"split_type":[0,0,0,0,0,0,0,0,0,0,0,0,0,0,0],"sum_hessian":[1.3672444E2,8.4194466E1,5.252998E1,2.3468578E1,6.072589E1,2.6419563E1,2.6110416E1,1.867668E1,4.7918997E0,1.1045291E1,4.96806E1,1.013751E1,1.6282053E1,1.003086E1,1.6079556E1],"tree_param":{"num_deleted":"0","num_feature":"11","num_nodes":"15","size_leaf_vector":"1"}},{"base_weights":[1.8576931E-3,-3.4265563E-1,5.50832E-1,-7.878535E-1,-1.6235575E-1,9.846169E-1,9.79461E-2,-2.0018639E-2,-3.1821184E-2,-7.906929E-3,1.5910376E-2,2.0632245E-2,3.3583492E-2,6.6193845E-3,-2.6139481E-2],"categories":[],"categories_nodes":[],"categories_segments":[],"categories_sizes":[],"default_left":[0,0,0,0,0,0,0,0,0,0,0,0,0,0,0],"id":37,"left_children":[1,3,5,7,9,11,13,-1,-1,-1,-1,-1,-1,-1,-1],"loss_changes":[2.6070274E1,6.670644E0,1.0344933E1,8.6800575E-2,4.45437E0,3.123417E-1,3.4166965E0,0E0,0E0,0E0,0E0,0E0,0E0,0E0,0E0],"parents":[2147483647,0,0,1,1,2,2,3,3,4,4,5,5,6,6],"right_children":[2,4,6,8,10,12,14,-1,-1,-1,-1,-1,-1,-1,-1],"split_conditions":[2E0,7.925E0,3E0,3.25E1,4E0,2.625E1,3.65E1,-2.0018639E-2,-3.1821184E-2,-7.906929E-3,1.5910376E-2,2.0632245E-2,3.3583492E-2,6.6193845E-3,-2.6139481E-2],"split_indices":[2,8,0,3,9,8,3,0,0,0,0,0,0,0,0],"split_type":[0,0,0,0,0,0,0,0,0,0,0,0,0,0,0],"sum_hessian":[1.3584593E2,8.3697014E1,5.2148926E1,2.3154373E1,6.0542637E1,2.6036474E1,2.6112452E1,1.844824E1,4.7061334E0,5.336513E1,7.1775064E0,1.0037212E1,1.5999261E1,2.3863855E1,2.2485974E0],"tree_param":{"num_deleted":"0","num_feature":"11","num_nodes":"15","size_leaf_vector":"1"}},{"base_weights":[1.754119E-3,-3.3479884E-1,5.389552E-1,-7.764472E-1,-1.577781E-1,9.709514E-1,9.429211E-2,-1.9679237E-2,-3.1509712E-2,1.1462398E-2,-8.515029E-3,3.0512674E-2,1.1573313E-2,7.024423E-3,-2.2136817E-2],"categories":[],"categories_nodes":[],"categories_segments":[],"categories_sizes":[],"default_left":[0,0,0,0,0,0,0,0,0,0,0,0,0,0,0],"id":38,"left_children":[1,3,5,7,9,11,13,-1,-1,-1,-1,-1,-1,-1,-1],"loss_changes":[2.4767591E1,6.462533E0,1.0044256E1,9.7782135E-2,4.285705E0,3.2731247E-1,3.327868E0,0E0,0E0,0E0,0E0,0E0,0E0,0E0,0E0],"parents":[2147483647,0,0,1,1,2,2,3,3,4,4,5,5,6,6],"right_children":[2,4,6,8,10,12,14,-1,-1,-1,-1,-1,-1,-1,-1],"split_conditions":[2E0,7.925E0,3E0,3.25E1,2E0,4E0,2.345E1,-1.9679237E-2,-3.1509712E-2,1.1462398E-2,-8.515029E-3,3.0512674E-2,1.1573313E-2,7.024423E-3,-2.2136817E-2],"split_indices":[2,8,0,3,1,6,8,0,0,0,0,0,0,0,0],"split_type":[0,0,0,0,0,0,0,0,0,0,0,0,0,0,0],"sum_hessian":[1.3499342E2,8.322824E1,5.1765175E1,2.284533E1,6.038291E1,2.5656233E1,2.6108944E1,1.8224085E1,4.6212454E0,1.1045893E1,4.933702E1,2.3097061E1,2.5591707E0,2.2967682E1,3.1412618E0],"tree_param":{"num_deleted":"0","num_feature":"11","num_nodes":"15","size_leaf_vector":"1"}},{"base_weights":[1.5614084E-3,-3.2724574E-1,5.275556E-1,-7.651963E-1,-1.5345241E-1,9.5722556E-1,9.1013744E-2,-1.9344188E-2,-3.120572E-2,-9.495236E-3,8.067126E-3,1.970841E-2,3.2873563E-2,6.314827E-3,-2.5734175E-2],"categories":[],"categories_nodes":[],"categories_segments":[],"categories_sizes":[],"default_left":[0,0,0,0,0,0,0,0,0,0,0,0,0,0,0],"id":39,"left_children":[1,3,5,7,9,11,13,-1,-1,-1,-1,-1,-1,-1,-1],"loss_changes":[2.3537764E1,6.256872E0,9.731952E0,1.08659744E-1,4.3002453E0,3.7343025E-1,3.2495923E0,0E0,0E0,0E0,0E0,0E0,0E0,0E0,0E0],"parents":[2147483647,0,0,1,1,2,2,3,3,4,4,5,5,6,6],"right_children":[2,4,6,8,10,12,14,-1,-1,-1,-1,-1,-1,-1,-1],"split_conditions":[2E0,7.925E0,3E0,3.25E1,2E0,2.625E1,3.65E1,-1.9344188E-2,-3.120572E-2,-9.495236E-3,8.067126E-3,1.970841E-2,3.2873563E-2,6.314827E-3,-2.5734175E-2],"split_indices":[2,8,0,3,9,8,3,0,0,0,0,0,0,0,0],"split_type":[0,0,0,0,0,0,0,0,0,0,0,0,0,0,0],"sum_hessian":[1.3409706E2,8.27479E1,5.134915E1,2.2541512E1,6.020639E1,2.5277153E1,2.6071999E1,1.8004221E1,4.537289E0,4.361785E1,1.6588541E1,9.793828E0,1.5483326E1,2.3847183E1,2.224815E0],"tree_param":{"num_deleted":"0","num_feature":"11","num_nodes":"15","size_leaf_vector":"1"}},{"base_weights":[1.3906874E-3,-3.1992826E-1,5.161921E-1,-7.540948E-1,-1.4932714E-1,9.4412816E-1,8.7574326E-2,-1.9013373E-2,-3.0908797E-2,-1.4082614E-3,-2.544621E-2,1.9346718E-2,3.2501973E-2,6.6474685E-3,-2.2438917E-2],"categories":[],"categories_nodes":[],"categories_segments":[],"categories_sizes":[],"default_left":[0,0,0,0,0,0,0,0,0,0,0,0,0,0,0],"id":40,"left_children":[1,3,5,7,9,11,13,-1,-1,-1,-1,-1,-1,-1,-1],"loss_changes":[2.2370644E1,6.055125E0,9.449898E0,1.19407654E-1,4.326949E0,3.8087654E-1,3.1964033E0,0E0,0E0,0E0,0E0,0E0,0E0,0E0,0E0],"parents":[2147483647,0,0,1,1,2,2,3,3,4,4,5,5,6,6],"right_children":[2,4,6,8,10,12,14,-1,-1,-1,-1,-1,-1,-1,-1],"split_conditions":[2E0,7.925E0,3E0,3.25E1,5.1E1,2.625E1,5E0,-1.9013373E-2,-3.0908797E-2,-1.4082614E-3,-2.544621E-2,1.9346718E-2,3.2501973E-2,6.6474685E-3,-2.2438917E-2],"split_indices":[2,8,0,3,3,8,6,0,0,0,0,0,0,0,0],"split_type":[0,0,0,0,0,0,0,0,0,0,0,0,0,0,0],"sum_hessian":[1.332408E2,8.226976E1,5.0971035E1,2.2242954E1,6.0026806E1,2.4903955E1,2.6067078E1,1.7788641E1,4.4543133E0,5.3287426E1,6.739379E0,9.697781E0,1.5206175E1,2.30974E1,2.9696782E0],"tree_param":{"num_deleted":"0","num_feature":"11","num_nodes":"15","size_leaf_vector":"1"}},{"base_weights":[1.0592564E-3,-3.127148E-1,5.054068E-1,3.4253898E-1,-4.2068207E-1,9.3129224E-1,8.4451295E-2,2.436418E-2,-2.6088616E-2,-1.8421903E-2,1.3976304E-4,1.8991299E-2,3.2139976E-2,1.5019689E-2,-5.711535E-3],"categories":[],"categories_nodes":[],"categories_segments":[],"categories_sizes":[],"default_left":[0,0,0,0,0,0,0,0,0,0,0,0,0,0,0],"id":41,"left_children":[1,3,5,7,9,11,13,-1,-1,-1,-1,-1,-1,-1,-1],"loss_changes":[2.1278555E1,6.0084524E0,9.166556E0,7.6949644E0,5.8934584E0,3.8829994E-1,3.187714E0,0E0,0E0,0E0,0E0,0E0,0E0,0E0,0E0],"parents":[2147483647,0,0,1,1,2,2,3,3,4,4,5,5,6,6],"right_children":[2,4,6,8,10,12,14,-1,-1,-1,-1,-1,-1,-1,-1],"split_conditions":[2E0,2E0,3E0,3E0,2.62833E1,2.625E1,6E0,2.436418E-2,-2.6088616E-2,-1.8421903E-2,1.3976304E-4,1.8991299E-2,3.2139976E-2,1.5019689E-2,-5.711535E-3],"split_indices":[2,1,0,4,8,8,3,0,0,0,0,0,0,0,0],"split_type":[0,0,0,0,0,0,0,0,0,0,0,0,0,0,0],"sum_hessian":[1.3246194E2,8.1893074E1,5.0568874E1,1.1277469E1,7.06156E1,2.4534607E1,2.603427E1,8.366302E0,2.9111667E0,4.8239708E1,2.2375896E1,9.60306E0,1.4931547E1,1.002738E1,1.600689E1],"tree_param":{"num_deleted":"0","num_feature":"11","num_nodes":"15","size_leaf_vector":"1"}},{"base_weights":[1.3383086E-3,-3.0568773E-1,4.9503317E-1,-7.340767E-1,-1.4028537E-1,9.1870177E-1,8.226249E-2,-1.8368654E-2,-3.049163E-2,-1.1653636E-3,-2.505586E-2,2.9021787E-2,9.790881E-3,5.9544668E-3,-2.5220249E-2],"categories":[],"categories_nodes":[],"categories_segments":[],"categories_sizes":[],"default_left":[0,0,0,0,0,0,0,0,0,0,0,0,0,0,0],"id":42,"left_children":[1,3,5,7,9,11,13,-1,-1,-1,-1,-1,-1,-1,-1],"loss_changes":[2.0241398E1,5.7311788E0,8.87863E0,1.5812397E-1,4.2420607E0,4.1020775E-1,3.0665357E0,0E0,0E0,0E0,0E0,0E0,0E0,0E0,0E0],"parents":[2147483647,0,0,1,1,2,2,3,3,4,4,5,5,6,6],"right_children":[2,4,6,8,10,12,14,-1,-1,-1,-1,-1,-1,-1,-1],"split_conditions":[2E0,7.925E0,3E0,3.25E1,5.1E1,4E0,2.54667E1,-1.8368654E-2,-3.049163E-2,-1.1653636E-3,-2.505586E-2,2.9021787E-2,9.790881E-3,5.9544668E-3,-2.5220249E-2],"split_indices":[2,8,0,3,3,6,8,0,0,0,0,0,0,0,0],"split_type":[0,0,0,0,0,0,0,0,0,0,0,0,0,0,0],"sum_hessian":[1.315402E2,8.133762E1,5.020259E1,2.1699139E1,5.9638485E1,2.416939E1,2.60332E1,1.7373219E1,4.325919E0,5.2963066E1,6.6754165E0,2.1748459E1,2.4209313E0,2.3818794E1,2.2144063E0],"tree_param":{"num_deleted":"0","num_feature":"11","num_nodes":"15","size_leaf_vector":"1"}},{"base_weights":[8.9117995E-4,-2.9878542E-1,4.8440558E-1,3.3725697E-1,-4.047713E-1,9.0595186E-1,7.916305E-2,2.3871116E-2,-2.5653176E-2,-1.789069E-2,2.948024E-4,1.8121306E-2,3.1502444E-2,5.826829E-3,-2.524868E-2],"categories":[],"categories_nodes":[],"categories_segments":[],"categories_sizes":[],"default_left":[0,0,0,0,0,0,0,0,0,0,0,0,0,0,0],"id":43,"left_children":[1,3,5,7,9,11,13,-1,-1,-1,-1,-1,-1,-1,-1],"loss_changes":[1.9239763E1,5.6626673E0,8.6074295E0,7.379098E0,5.6233625E0,4.451275E-1,3.0240886E0,0E0,0E0,0E0,0E0,0E0,0E0,0E0,0E0],"parents":[2147483647,0,0,1,1,2,2,3,3,4,4,5,5,6,6],"right_children":[2,4,6,8,10,12,14,-1,-1,-1,-1,-1,-1,-1,-1],"split_conditions":[2E0,2E0,3E0,3E0,2.62833E1,2.625E1,3.65E1,2.3871116E-2,-2.5653176E-2,-1.789069E-2,2.948024E-4,1.8121306E-2,3.1502444E-2,5.826829E-3,-2.524868E-2],"split_indices":[2,1,0,4,8,8,3,0,0,0,0,0,0,0,0],"split_type":[0,0,0,0,0,0,0,0,0,0,0,0,0,0,0],"sum_hessian":[1.3078262E2,8.0976425E1,4.9806194E1,1.1254404E1,6.972202E1,2.3806416E1,2.5999779E1,8.369222E0,2.8851826E0,4.738644E1,2.2335583E1,9.370017E0,1.44363985E1,2.3813076E1,2.1867015E0],"tree_param":{"num_deleted":"0","num_feature":"11","num_nodes":"15","size_leaf_vector":"1"}},{"base_weights":[9.5146504E-4,-2.920394E-1,4.7394767E-1,-7.145116E-1,-1.3173996E-1,8.93804E-1,7.608089E-2,-1.7737888E-2,-3.0091451E-2,-1.4665505E-3,-2.9328205E-2,1.7786462E-2,3.116425E-2,1.4340739E-2,-5.689296E-3],"categories":[],"categories_nodes":[],"categories_segments":[],"categories_sizes":[],"default_left":[0,0,0,0,0,0,0,0,0,0,0,0,0,0,0],"id":44,"left_children":[1,3,5,7,9,11,13,-1,-1,-1,-1,-1,-1,-1,-1],"loss_changes":[1.8276348E1,5.420986E0,8.3583975E0,1.9549847E-1,4.1757016E0,4.510002E-1,2.973666E0,0E0,0E0,0E0,0E0,0E0,0E0,0E0,0E0],"parents":[2147483647,0,0,1,1,2,2,3,3,4,4,5,5,6,6],"right_children":[2,4,6,8,10,12,14,-1,-1,-1,-1,-1,-1,-1,-1],"split_conditions":[2E0,7.925E0,3E0,3.25E1,5E0,2.625E1,6E0,-1.7737888E-2,-3.0091451E-2,-1.4665505E-3,-2.9328205E-2,1.7786462E-2,3.116425E-2,1.4340739E-2,-5.689296E-3],"split_indices":[2,8,0,3,6,8,3,0,0,0,0,0,0,0,0],"split_type":[0,0,0,0,0,0,0,0,0,0,0,0,0,0,0],"sum_hessian":[1.2988086E2,8.043753E1,4.944332E1,2.1174467E1,5.926307E1,2.345038E1,2.5992943E1,1.6973433E1,4.2010336E0,5.49394E1,4.3236694E0,9.28022E0,1.417016E1,1.0026917E1,1.5966024E1],"tree_param":{"num_deleted":"0","num_feature":"11","num_nodes":"15","size_leaf_vector":"1"}},{"base_weights":[7.752498E-4,-2.855365E-1,4.6422654E-1,3.3675644E-1,-3.901168E-1,8.8186103E-1,7.412504E-2,2.3285769E-2,-2.478779E-2,-1.7378E-2,3.8092566E-4,2.797061E-2,8.600895E-3,6.1276257E-3,-2.1516237E-2],"categories":[],"categories_nodes":[],"categories_segments":[],"categories_sizes":[],"default_left":[0,0,0,0,0,0,0,0,0,0,0,0,0,0,0],"id":45,"left_children":[1,3,5,7,9,11,13,-1,-1,-1,-1,-1,-1,-1,-1],"loss_changes":[1.740512E1,5.408138E0,8.095142E0,6.877677E0,5.3316107E0,4.5690918E-1,2.9258027E0,0E0,0E0,0E0,0E0,0E0,0E0,0E0,0E0],"parents":[2147483647,0,0,1,1,2,2,3,3,4,4,5,5,6,6],"right_children":[2,4,6,8,10,12,14,-1,-1,-1,-1,-1,-1,-1,-1],"split_conditions":[2E0,2E0,3E0,3E0,2.62833E1,4E0,2.345E1,2.3285769E-2,-2.478779E-2,-1.7378E-2,3.8092566E-4,2.797061E-2,8.600895E-3,6.1276257E-3,-2.1516237E-2],"split_indices":[2,1,0,4,8,6,8,0,0,0,0,0,0,0,0],"split_type":[0,0,0,0,0,0,0,0,0,0,0,0,0,0,0],"sum_hessian":[1.291708E2,8.0081696E1,4.9089115E1,1.1202494E1,6.88792E1,2.3099106E1,2.5990011E1,8.3718605E0,2.8306332E0,4.65722E1,2.2307E1,2.0770433E1,2.3286724E0,2.295681E1,3.033201E0],"tree_param":{"num_deleted":"0","num_feature":"11","num_nodes":"15","size_leaf_vector":"1"}},{"base_weights":[7.7534845E-4,-2.7905875E-1,4.5431438E-1,3.2712463E-1,-3.8145053E-1,8.6970335E-1,7.141616E-2,2.265618E-2,-2.4402983E-2,-1.7050654E-2,3.6994735E-4,1.6952299E-2,3.0569825E-2,5.4867063E-3,-2.4767203E-2],"categories":[],"categories_nodes":[],"categories_segments":[],"categories_sizes":[],"default_left":[0,0,0,0,0,0,0,0,0,0,0,0,0,0,0],"id":46,"left_children":[1,3,5,7,9,11,13,-1,-1,-1,-1,-1,-1,-1,-1],"loss_changes":[1.6532011E1,5.1248775E0,7.843194E0,6.560863E0,5.1132708E0,5.043125E-1,2.8459778E0,0E0,0E0,0E0,0E0,0E0,0E0,0E0,0E0],"parents":[2147483647,0,0,1,1,2,2,3,3,4,4,5,5,6,6],"right_children":[2,4,6,8,10,12,14,-1,-1,-1,-1,-1,-1,-1,-1],"split_conditions":[2E0,2E0,3E0,3E0,2.62833E1,2.625E1,3.65E1,2.265618E-2,-2.4402983E-2,-1.7050654E-2,3.6994735E-4,1.6952299E-2,3.0569825E-2,5.4867063E-3,-2.4767203E-2],"split_indices":[2,1,0,4,8,8,3,0,0,0,0,0,0,0,0],"split_type":[0,0,0,0,0,0,0,0,0,0,0,0,0,0,0],"sum_hessian":[1.2826085E2,7.955811E1,4.8702736E1,1.1179287E1,6.837883E1,2.2750443E1,2.5952295E1,8.37412E0,2.8051665E0,4.606922E1,2.2309607E1,9.056271E0,1.3694171E1,2.3791674E1,2.1606212E0],"tree_param":{"num_deleted":"0","num_feature":"11","num_nodes":"15","size_leaf_vector":"1"}},{"base_weights":[8.331402E-4,-2.7271557E-1,4.444652E-1,-6.868435E-1,-1.19160786E-1,8.5813147E-1,6.8572015E-2,-1.6818112E-2,-2.9598461E-2,-4.6470398E-4,-2.4835493E-2,1.6636342E-2,3.0251201E-2,5.7924874E-3,-2.1784518E-2],"categories":[],"categories_nodes":[],"categories_segments":[],"categories_sizes":[],"default_left":[0,0,0,0,0,0,0,0,0,0,0,0,0,0,0],"id":47,"left_children":[1,3,5,7,9,11,13,-1,-1,-1,-1,-1,-1,-1,-1],"loss_changes":[1.5702778E1,5.008197E0,7.6153564E0,2.5830364E-1,4.366133E0,5.0855064E-1,2.806379E0,0E0,0E0,0E0,0E0,0E0,0E0,0E0,0E0],"parents":[2147483647,0,0,1,1,2,2,3,3,4,4,5,5,6,6],"right_children":[2,4,6,8,10,12,14,-1,-1,-1,-1,-1,-1,-1,-1],"split_conditions":[2E0,7.925E0,3E0,3.25E1,5.1E1,2.625E1,5E0,-1.6818112E-2,-2.9598461E-2,-4.6470398E-4,-2.4835493E-2,1.6636342E-2,3.0251201E-2,5.7924874E-3,-2.1784518E-2],"split_indices":[2,8,0,3,3,8,6,0,0,0,0,0,0,0,0],"split_type":[0,0,0,0,0,0,0,0,0,0,0,0,0,0,0],"sum_hessian":[1.2739659E2,7.9043015E1,4.8353577E1,2.0441248E1,5.8601765E1,2.2409386E1,2.5944193E1,1.6403511E1,4.0377364E0,5.2014652E1,6.5871115E0,8.971704E0,1.3437681E1,2.3084534E1,2.8596594E0],"tree_param":{"num_deleted":"0","num_feature":"11","num_nodes":"15","size_leaf_vector":"1"}},{"base_weights":[4.9942755E-4,-2.6653916E-1,4.350974E-1,-6.7667526E-1,-1.1614311E-1,8.4673214E-1,6.598985E-2,-1.6518192E-2,-2.9335594E-2,-4.5111103E-4,-2.4360146E-2,1.63254E-2,2.9938677E-2,1.3638033E-2,-5.731922E-3],"categories":[],"categories_nodes":[],"categories_segments":[],"categories_sizes":[],"default_left":[0,0,0,0,0,0,0,0,0,0,0,0,0,0,0],"id":48,"left_children":[1,3,5,7,9,11,13,-1,-1,-1,-1,-1,-1,-1,-1],"loss_changes":[1.493689E1,4.838913E0,7.3866663E0,2.6589012E-1,4.176729E0,5.126171E-1,2.7750797E0,0E0,0E0,0E0,0E0,0E0,0E0,0E0,0E0],"parents":[2147483647,0,0,1,1,2,2,3,3,4,4,5,5,6,6],"right_children":[2,4,6,8,10,12,14,-1,-1,-1,-1,-1,-1,-1,-1],"split_conditions":[2E0,7.925E0,3E0,3.25E1,5.1E1,2.625E1,6E0,-1.6518192E-2,-2.9335594E-2,-4.5111103E-4,-2.4360146E-2,1.63254E-2,2.9938677E-2,1.3638033E-2,-5.731922E-3],"split_indices":[2,8,0,3,3,8,3,0,0,0,0,0,0,0,0],"split_type":[0,0,0,0,0,0,0,0,0,0,0,0,0,0,0],"sum_hessian":[1.2670662E2,7.8722374E1,4.798424E1,2.0183062E1,5.8539314E1,2.207351E1,2.5910732E1,1.622125E1,3.9618113E0,5.200482E1,6.5344934E0,8.888624E0,1.3184884E1,1.000969E1,1.5901043E1],"tree_param":{"num_deleted":"0","num_feature":"11","num_nodes":"15","size_leaf_vector":"1"}},{"base_weights":[3.6614388E-4,-2.6049963E-1,4.2615655E-1,3.2585907E-1,-3.6103606E-1,8.354964E-1,6.431368E-2,2.2359429E-2,-2.4013134E-2,-1.6386123E-2,6.377022E-4,2.6666945E-2,6.967337E-3,5.659255E-3,-2.108581E-2],"categories":[],"categories_nodes":[],"categories_segments":[],"categories_sizes":[],"default_left":[0,0,0,0,0,0,0,0,0,0,0,0,0,0,0],"id":49,"left_children":[1,3,5,7,9,11,13,-1,-1,-1,-1,-1,-1,-1,-1],"loss_changes":[1.422366E1,4.7987328E0,7.151984E0,6.335636E0,4.8435755E0,5.262165E-1,2.698919E0,0E0,0E0,0E0,0E0,0E0,0E0,0E0,0E0],"parents":[2147483647,0,0,1,1,2,2,3,3,4,4,5,5,6,6],"right_children":[2,4,6,8,10,12,14,-1,-1,-1,-1,-1,-1,-1,-1],"split_conditions":[2E0,2E0,3E0,3E0,2.62833E1,4E0,2.345E1,2.2359429E-2,-2.4013134E-2,-1.6386123E-2,6.377022E-4,2.6666945E-2,6.967337E-3,5.659255E-3,-2.108581E-2],"split_indices":[2,1,0,4,8,6,8,0,0,0,0,0,0,0,0],"split_type":[0,0,0,0,0,0,0,0,0,0,0,0,0,0,0],"sum_hessian":[1.260561E2,7.840717E1,4.7648926E1,1.1147925E1,6.725925E1,2.174293E1,2.5905998E1,8.369296E0,2.7786303E0,4.502304E1,2.2236206E1,1.95397E1,2.2032287E0,2.294211E1,2.9638884E0],"tree_param":{"num_deleted":"0","num_feature":"11","num_nodes":"15","size_leaf_vector":"1"}},{"base_weights":[3.619686E-4,-2.5453126E-1,4.1695777E-1,-6.583173E-1,-1.0894577E-1,8.239714E-1,6.1883617E-2,-1.592621E-2,-2.8978214E-2,-2.678056E-4,-2.400202E-2,1.55328205E-2,2.9391019E-2,5.0874916E-3,-2.4313174E-2],"categories":[],"categories_nodes":[],"categories_segments":[],"categories_sizes":[],"default_left":[0,0,0,0,0,0,0,0,0,0,0,0,0,0,0],"id":50,"left_children":[1,3,5,7,9,11,13,-1,-1,-1,-1,-1,-1,-1,-1],"loss_changes":[1.3506909E1,4.567372E0,6.9269495E0,2.9931736E-1,4.085146E0,5.6164074E-1,2.661682E0,0E0,0E0,0E0,0E0,0E0,0E0,0E0,0E0],"parents":[2147483647,0,0,1,1,2,2,3,3,4,4,5,5,6,6],"right_children":[2,4,6,8,10,12,14,-1,-1,-1,-1,-1,-1,-1,-1],"split_conditions":[2E0,7.925E0,3E0,3.25E1,5.1E1,2.625E1,3.65E1,-1.592621E-2,-2.8978214E-2,-2.678056E-4,-2.400202E-2,1.55328205E-2,2.9391019E-2,5.0874916E-3,-2.4313174E-2],"split_indices":[2,8,0,3,3,8,3,0,0,0,0,0,0,0,0],"split_type":[0,0,0,0,0,0,0,0,0,0,0,0,0,0,0],"sum_hessian":[1.25199295E2,7.791573E1,4.7283558E1,1.9714653E1,5.8201084E1,2.1415213E1,2.5868343E1,1.5866946E1,3.8477073E0,5.1727943E1,6.4731374E0,8.677459E0,1.2737753E1,2.374261E1,2.1257339E0],"tree_param":{"num_deleted":"0","num_feature":"11","num_nodes":"15","size_leaf_vector":"1"}},{"base_weights":[1.4223668E-5,-2.4876009E-1,4.0784225E-1,3.2041678E-1,-3.4726557E-1,8.130335E-1,5.9325624E-2,2.1910891E-2,-2.3642162E-2,-1.5909277E-2,7.498648E-4,1.5239175E-2,2.9093526E-2,-3.5413513E-3,1.7903315E-2],"categories":[],"categories_nodes":[],"categories_segments":[],"categories_sizes":[],"default_left":[0,0,0,0,0,0,0,0,0,0,0,0,0,0,0],"id":51,"left_children":[1,3,5,7,9,11,13,-1,-1,-1,-1,-1,-1,-1,-1],"loss_changes":[1.2841337E1,4.518951E0,6.7237234E0,6.0824194E0,4.612441E0,5.639572E-1,2.6308644E0,0E0,0E0,0E0,0E0,0E0,0E0,0E0,0E0],"parents":[2147483647,0,0,1,1,2,2,3,3,4,4,5,5,6,6],"right_children":[2,4,6,8,10,12,14,-1,-1,-1,-1,-1,-1,-1,-1],"split_conditions":[2E0,2E0,3E0,3E0,2.62833E1,2.625E1,3E0,2.1910891E-2,-2.3642162E-2,-1.5909277E-2,7.498648E-4,1.5239175E-2,2.9093526E-2,-3.5413513E-3,1.7903315E-2],"split_indices":[2,1,0,4,8,8,10,0,0,0,0,0,0,0,0],"split_type":[0,0,0,0,0,0,0,0,0,0,0,0,0,0,0],"sum_hessian":[1.245691E2,7.761446E1,4.6954636E1,1.1118371E1,6.649609E1,2.1095646E1,2.585899E1,8.365663E0,2.7527084E0,4.429254E1,2.2203552E1,8.599786E0,1.2495861E1,2.002926E1,5.829729E0],"tree_param":{"num_deleted":"0","num_feature":"11","num_nodes":"15","size_leaf_vector":"1"}},{"base_weights":[3.5021978E-4,-2.4303257E-1,3.9958784E-1,-6.40326E-1,-1.02156736E-1,8.022353E-1,5.809513E-2,-1.53465085E-2,-2.8632907E-2,-9.7200005E-5,-2.3653213E-2,1.4950091E-2,2.8800756E-2,4.890223E-3,-2.4261098E-2],"categories":[],"categories_nodes":[],"categories_segments":[],"categories_sizes":[],"default_left":[0,0,0,0,0,0,0,0,0,0,0,0,0,0,0],"id":52,"left_children":[1,3,5,7,9,11,13,-1,-1,-1,-1,-1,-1,-1,-1],"loss_changes":[1.2220959E1,4.307931E0,6.5031137E0,3.3143616E-1,3.9941192E0,5.660572E-1,2.5737185E0,0E0,0E0,0E0,0E0,0E0,0E0,0E0,0E0],"parents":[2147483647,0,0,1,1,2,2,3,3,4,4,5,5,6,6],"right_children":[2,4,6,8,10,12,14,-1,-1,-1,-1,-1,-1,-1,-1],"split_conditions":[2E0,7.925E0,3E0,3.25E1,5.1E1,2.625E1,2.54667E1,-1.53465085E-2,-2.8632907E-2,-9.7200005E-5,-2.3653213E-2,1.4950091E-2,2.8800756E-2,4.890223E-3,-2.4261098E-2],"split_indices":[2,8,0,3,3,8,8,0,0,0,0,0,0,0,0],"split_type":[0,0,0,0,0,0,0,0,0,0,0,0,0,0,0],"sum_hessian":[1.2377256E2,7.713864E1,4.6633915E1,1.9264423E1,5.787422E1,2.0781569E1,2.5852345E1,1.5527215E1,3.7372084E0,5.1461582E1,6.4126368E0,8.523593E0,1.2257975E1,2.3785437E1,2.0669096E0],"tree_param":{"num_deleted":"0","num_feature":"11","num_nodes":"15","size_leaf_vector":"1"}},{"base_weights":[-2.5373704E-6,-2.3751996E-1,3.9099523E-1,3.1498206E-1,-3.339925E-1,7.9157007E-1,5.5685747E-2,2.1472167E-2,-2.3282064E-2,-1.54449195E-2,8.522044E-4,2.544122E-2,5.4088216E-3,1.2841671E-2,-5.718721E-3],"categories":[],"categories_nodes":[],"categories_segments":[],"categories_sizes":[],"default_left":[0,0,0,0,0,0,0,0,0,0,0,0,0,0,0],"id":53,"left_children":[1,3,5,7,9,11,13,-1,-1,-1,-1,-1,-1,-1,-1],"loss_changes":[1.1621836E1,4.254753E0,6.3079762E0,5.840665E0,4.390004E0,5.8833504E-1,2.5413609E0,0E0,0E0,0E0,0E0,0E0,0E0,0E0,0E0],"parents":[2147483647,0,0,1,1,2,2,3,3,4,4,5,5,6,6],"right_children":[2,4,6,8,10,12,14,-1,-1,-1,-1,-1,-1,-1,-1],"split_conditions":[2E0,2E0,3E0,3E0,2.62833E1,4E0,6E0,2.1472167E-2,-2.3282064E-2,-1.54449195E-2,8.522044E-4,2.544122E-2,5.4088216E-3,1.2841671E-2,-5.718721E-3],"split_indices":[2,1,0,4,8,6,3,0,0,0,0,0,0,0,0],"split_type":[0,0,0,0,0,0,0,0,0,0,0,0,0,0,0],"sum_hessian":[1.23142555E2,7.6850876E1,4.6291683E1,1.1087476E1,6.57634E1,2.0473026E1,2.5818655E1,8.360536E0,2.7269402E0,4.3590847E1,2.2172552E1,1.838707E1,2.0859563E0,9.985201E0,1.5833454E1],"tree_param":{"num_deleted":"0","num_feature":"11","num_nodes":"15","size_leaf_vector":"1"}},{"base_weights":[1.7356871E-4,-2.320245E-1,3.8267577E-1,-3.7049082E-1,1.4474383E-1,7.8055084E-1,5.429321E-2,-7.4218754E-3,-2.1329202E-2,1.3397839E-2,-1.2915773E-2,1.4195002E-2,2.8289797E-2,4.749982E-3,-2.3788234E-2],"categories":[],"categories_nodes":[],"categories_segments":[],"categories_sizes":[],"default_left":[0,0,0,0,0,0,0,0,0,0,0,0,0,0,0],"id":54,"left_children":[1,3,5,7,9,11,13,-1,-1,-1,-1,-1,-1,-1,-1],"loss_changes":[1.1046026E1,4.0910573E0,6.095721E0,2.2077537E0,3.9286501E0,6.1073875E-1,2.4889214E0,0E0,0E0,0E0,0E0,0E0,0E0,0E0,0E0],"parents":[2147483647,0,0,1,1,2,2,3,3,4,4,5,5,6,6],"right_children":[2,4,6,8,10,12,14,-1,-1,-1,-1,-1,-1,-1,-1],"split_conditions":[2E0,1E0,3E0,3.25E1,4.3E1,2.625E1,3.65E1,-7.4218754E-3,-2.1329202E-2,1.3397839E-2,-1.2915773E-2,1.4195002E-2,2.8289797E-2,4.749982E-3,-2.3788234E-2],"split_indices":[2,9,0,3,3,8,3,0,0,0,0,0,0,0,0],"split_type":[0,0,0,0,0,0,0,0,0,0,0,0,0,0,0],"sum_hessian":[1.2236969E2,7.639033E1,4.5979362E1,5.5873055E1,2.0517271E1,2.0167297E1,2.5812067E1,4.230507E1,1.3567984E1,1.3603191E1,6.914079E0,8.325697E0,1.1841599E1,2.3713224E1,2.0988421E0],"tree_param":{"num_deleted":"0","num_feature":"11","num_nodes":"15","size_leaf_vector":"1"}},{"base_weights":[1.3594174E-4,-2.2648214E-1,3.742201E-1,-6.183437E-1,-9.010689E-2,7.701305E-1,5.1968195E-2,-1.4552183E-2,-2.7839897E-2,2.053779E-4,-2.3015223E-2,1.3922116E-2,2.8008554E-2,5.02862E-3,-2.1112103E-2],"categories":[],"categories_nodes":[],"categories_segments":[],"categories_sizes":[],"default_left":[0,0,0,0,0,0,0,0,0,0,0,0,0,0,0],"id":55,"left_children":[1,3,5,7,9,11,13,-1,-1,-1,-1,-1,-1,-1,-1],"loss_changes":[1.0487795E1,4.0614715E0,5.9144974E0,3.636384E-1,3.8337982E0,6.1101246E-1,2.460407E0,0E0,0E0,0E0,0E0,0E0,0E0,0E0,0E0],"parents":[2147483647,0,0,1,1,2,2,3,3,4,4,5,5,6,6],"right_children":[2,4,6,8,10,12,14,-1,-1,-1,-1,-1,-1,-1,-1],"split_conditions":[2E0,7.925E0,3E0,7.875E0,5.1E1,2.625E1,5E0,-1.4552183E-2,-2.7839897E-2,2.053779E-4,-2.3015223E-2,1.3922116E-2,2.8008554E-2,5.02862E-3,-2.1112103E-2],"split_indices":[2,8,0,8,3,8,6,0,0,0,0,0,0,0,0],"split_type":[0,0,0,0,0,0,0,0,0,0,0,0,0,0,0],"sum_hessian":[1.2171465E2,7.604288E1,4.567178E1,1.8719631E1,5.7323242E1,1.9870075E1,2.5801704E1,1.4881372E1,3.838259E0,5.10089E1,6.314344E0,8.254911E0,1.1615164E1,2.3052032E1,2.7496712E0],"tree_param":{"num_deleted":"0","num_feature":"11","num_nodes":"15","size_leaf_vector":"1"}},{"base_weights":[-1.853179E-4,-2.2134773E-1,3.6616665E-1,3.1581464E-1,-3.1636047E-1,7.5982606E-1,4.9858622E-2,2.1224152E-2,-2.2823006E-2,-1.4813225E-2,9.772658E-4,2.4552476E-2,4.3812706E-3,-3.6039427E-3,1.6953178E-2],"categories":[],"categories_nodes":[],"categories_segments":[],"categories_sizes":[],"default_left":[0,0,0,0,0,0,0,0,0,0,0,0,0,0,0],"id":56,"left_children":[1,3,5,7,9,11,13,-1,-1,-1,-1,-1,-1,-1,-1],"loss_changes":[9.975516E0,4.0181417E0,5.7331133E0,5.61442E0,4.085357E0,6.2050724E-1,2.4124486E0,0E0,0E0,0E0,0E0,0E0,0E0,0E0,0E0],"parents":[2147483647,0,0,1,1,2,2,3,3,4,4,5,5,6,6],"right_children":[2,4,6,8,10,12,14,-1,-1,-1,-1,-1,-1,-1,-1],"split_conditions":[2E0,2E0,3E0,3E0,2.62833E1,4E0,3E0,2.1224152E-2,-2.2823006E-2,-1.4813225E-2,9.772658E-4,2.4552476E-2,4.3812706E-3,-3.6039427E-3,1.6953178E-2],"split_indices":[2,1,0,4,8,6,10,0,0,0,0,0,0,0,0],"split_type":[0,0,0,0,0,0,0,0,0,0,0,0,0,0,0],"sum_hessian":[1.2111878E2,7.577195E1,4.5346836E1,1.1038869E1,6.473308E1,1.9578434E1,2.5768404E1,8.3456135E0,2.6932554E0,4.2638695E1,2.2094385E1,1.756805E1,2.010384E0,1.9952526E1,5.8158774E0],"tree_param":{"num_deleted":"0","num_feature":"11","num_nodes":"15","size_leaf_vector":"1"}},{"base_weights":[4.1887753E-5,-2.1618675E-1,3.584696E-1,-6.012023E-1,-8.4345296E-2,7.491308E-1,4.887741E-2,-1.4059808E-2,-2.7954433E-2,-1.5090499E-4,-2.7223313E-2,1.3193899E-2,2.7519858E-2,4.9412195E-3,-2.0460553E-2],"categories":[],"categories_nodes":[],"categories_segments":[],"categories_sizes":[],"default_left":[0,0,0,0,0,0,0,0,0,0,0,0,0,0,0],"id":57,"left_children":[1,3,5,7,9,11,13,-1,-1,-1,-1,-1,-1,-1,-1],"loss_changes":[9.484951E0,3.82405E0,5.5328693E0,4.09379E-1,3.7835627E0,6.5220356E-1,2.3778362E0,0E0,0E0,0E0,0E0,0E0,0E0,0E0,0E0],"parents":[2147483647,0,0,1,1,2,2,3,3,4,4,5,5,6,6],"right_children":[2,4,6,8,10,12,14,-1,-1,-1,-1,-1,-1,-1,-1],"split_conditions":[2E0,7.925E0,3E0,3.25E1,5E0,2.625E1,2.345E1,-1.4059808E-2,-2.7954433E-2,-1.5090499E-4,-2.7223313E-2,1.3193899E-2,2.7519858E-2,4.9412195E-3,-2.0460553E-2],"split_indices":[2,8,0,3,6,8,8,0,0,0,0,0,0,0,0],"split_type":[0,0,0,0,0,0,0,0,0,0,0,0,0,0,0],"sum_hessian":[1.2038285E2,7.533336E1,4.5049496E1,1.8308155E1,5.7025204E1,1.9289352E1,2.5760143E1,1.4794579E1,3.5135767E0,5.2930813E1,4.094389E0,8.067358E0,1.1221994E1,2.2904902E1,2.855241E0],"tree_param":{"num_deleted":"0","num_feature":"11","num_nodes":"15","size_leaf_vector":"1"}},{"base_weights":[-3.2177143E-4,-2.1138485E-1,3.507466E-1,3.1446728E-1,-3.0489147E-1,7.3904204E-1,4.6883192E-2,2.0694127E-2,-2.2077769E-2,-1.4381076E-2,1.0039951E-3,1.2936575E-2,2.7248105E-2,4.435986E-3,-2.3391934E-2],"categories":[],"categories_nodes":[],"categories_segments":[],"categories_sizes":[],"default_left":[0,0,0,0,0,0,0,0,0,0,0,0,0,0,0],"id":58,"left_children":[1,3,5,7,9,11,13,-1,-1,-1,-1,-1,-1,-1,-1],"loss_changes":[9.025003E0,3.836103E0,5.361224E0,5.2292914E0,3.8586912E0,6.5065193E-1,2.3459764E0,0E0,0E0,0E0,0E0,0E0,0E0,0E0,0E0],"parents":[2147483647,0,0,1,1,2,2,3,3,4,4,5,5,6,6],"right_children":[2,4,6,8,10,12,14,-1,-1,-1,-1,-1,-1,-1,-1],"split_conditions":[2E0,2E0,3E0,3E0,2.62833E1,2.625E1,3.65E1,2.0694127E-2,-2.2077769E-2,-1.4381076E-2,1.0039951E-3,1.2936575E-2,2.7248105E-2,4.435986E-3,-2.3391934E-2],"split_indices":[2,1,0,4,8,8,3,0,0,0,0,0,0,0,0],"split_type":[0,0,0,0,0,0,0,0,0,0,0,0,0,0,0],"sum_hessian":[1.19798294E2,7.506621E1,4.4732086E1,1.0976235E1,6.408997E1,1.9009026E1,2.572306E1,8.339552E0,2.636683E0,4.201022E1,2.2079752E1,8.001889E0,1.1007137E1,2.3654444E1,2.0686169E0],"tree_param":{"num_deleted":"0","num_feature":"11","num_nodes":"15","size_leaf_vector":"1"}},{"base_weights":[-2.5997913E-4,-2.064317E-1,3.429006E-1,3.057021E-1,-2.9779533E-1,7.290559E-1,4.4779923E-2,2.0152967E-2,-2.1751944E-2,-1.4092929E-2,9.748825E-4,2.3694672E-2,3.3934007E-3,1.1994968E-2,-5.7009235E-3],"categories":[],"categories_nodes":[],"categories_segments":[],"categories_sizes":[],"default_left":[0,0,0,0,0,0,0,0,0,0,0,0,0,0,0],"id":59,"left_children":[1,3,5,7,9,11,13,-1,-1,-1,-1,-1,-1,-1,-1],"loss_changes":[8.566964E0,3.630317E0,5.199154E0,4.994154E0,3.6900125E0,6.492882E-1,2.302956E0,0E0,0E0,0E0,0E0,0E0,0E0,0E0,0E0],"parents":[2147483647,0,0,1,1,2,2,3,3,4,4,5,5,6,6],"right_children":[2,4,6,8,10,12,14,-1,-1,-1,-1,-1,-1,-1,-1],"split_conditions":[2E0,2E0,3E0,3E0,2.62833E1,4E0,6E0,2.0152967E-2,-2.1751944E-2,-1.4092929E-2,9.748825E-4,2.3694672E-2,3.3934007E-3,1.1994968E-2,-5.7009235E-3],"split_indices":[2,1,0,4,8,6,3,0,0,0,0,0,0,0,0],"split_type":[0,0,0,0,0,0,0,0,0,0,0,0,0,0,0],"sum_hessian":[1.19087326E2,7.464117E1,4.4446156E1,1.0944786E1,6.369638E1,1.873423E1,2.5711927E1,8.333528E0,2.6112585E0,4.1609684E1,2.20867E1,1.6795E1,1.9392285E0,9.955555E0,1.57563715E1],"tree_param":{"num_deleted":"0","num_feature":"11","num_nodes":"15","size_leaf_vector":"1"}},{"base_weights":[-9.5458294E-5,-2.0158397E-1,3.3549103E-1,-5.768538E-1,-7.574207E-2,7.1864444E-1,4.3685302E-2,-1.3249953E-2,-2.7566321E-2,6.8540475E-4,-2.288987E-2,1.22340815E-2,2.6778216E-2,4.2348015E-3,-2.3572829E-2],"categories":[],"categories_nodes":[],"categories_segments":[],"categories_sizes":[],"default_left":[0,0,0,0,0,0,0,0,0,0,0,0,0,0,0],"id":60,"left_children":[1,3,5,7,9,11,13,-1,-1,-1,-1,-1,-1,-1,-1],"loss_changes":[8.140366E0,3.5087407E0,5.0183806E0,4.606371E-1,3.9123316E0,6.8838024E-1,2.2699142E0,0E0,0E0,0E0,0E0,0E0,0E0,0E0,0E0],"parents":[2147483647,0,0,1,1,2,2,3,3,4,4,5,5,6,6],"right_children":[2,4,6,8,10,12,14,-1,-1,-1,-1,-1,-1,-1,-1],"split_conditions":[2E0,7.925E0,3E0,3.25E1,5.1E1,2.625E1,2.54667E1,-1.3249953E-2,-2.7566321E-2,6.8540475E-4,-2.288987E-2,1.22340815E-2,2.6778216E-2,4.2348015E-3,-2.3572829E-2],"split_indices":[2,8,0,3,3,8,8,0,0,0,0,0,0,0,0],"split_type":[0,0,0,0,0,0,0,0,0,0,0,0,0,0,0],"sum_hessian":[1.1838946E2,7.422409E1,4.4165363E1,1.7739534E1,5.648456E1,1.8461662E1,2.57037E1,1.4356353E1,3.383181E0,5.0243687E1,6.2408733E0,7.824614E0,1.0637049E1,2.3743258E1,1.9604428E0],"tree_param":{"num_deleted":"0","num_feature":"11","num_nodes":"15","size_leaf_vector":"1"}},{"base_weights":[-4.547449E-4,-1.9702475E-1,3.2807717E-1,-3.156545E-1,1.8510017E-1,7.0885146E-1,4.1688256E-2,6.3468013E-3,-1.2449392E-2,1.804397E-2,-1.8914402E-2,1.1991837E-2,2.6514255E-2,-3.6452885E-3,1.6103229E-2],"categories":[],"categories_nodes":[],"categories_segments":[],"categories_sizes":[],"default_left":[0,0,0,0,0,0,0,0,0,0,0,0,0,0,0],"id":61,"left_children":[1,3,5,7,9,11,13,-1,-1,-1,-1,-1,-1,-1,-1],"loss_changes":[7.7403316E0,3.4577258E0,4.863359E0,3.103674E0,6.625811E0,6.8500996E-1,2.2201335E0,0E0,0E0,0E0,0E0,0E0,0E0,0E0,0E0],"parents":[2147483647,0,0,1,1,2,2,3,3,4,4,5,5,6,6],"right_children":[2,4,6,8,10,12,14,-1,-1,-1,-1,-1,-1,-1,-1],"split_conditions":[2E0,2E0,3E0,2E0,4.3E1,2.625E1,3E0,6.3468013E-3,-1.2449392E-2,1.804397E-2,-1.8914402E-2,1.1991837E-2,2.6514255E-2,-3.6452885E-3,1.6103229E-2],"split_indices":[2,9,0,1,3,8,10,0,0,0,0,0,0,0,0],"split_type":[0,0,0,0,0,0,0,0,0,0,0,0,0,0,0],"sum_hessian":[1.17856445E2,7.3987755E1,4.386869E1,5.6592655E1,1.7395102E1,1.8198013E1,2.5670677E1,8.792491E0,4.7800163E1,1.1689813E1,5.7052884E0,7.764318E0,1.0433696E1,1.9874054E1,5.796623E0],"tree_param":{"num_deleted":"0","num_feature":"11","num_nodes":"15","size_leaf_vector":"1"}},{"base_weights":[-7.0616756E-5,-1.9221747E-1,3.2135582E-1,-5.6226397E-1,-6.9812566E-2,6.991517E-1,4.0920444E-2,-1.2670571E-2,-2.6921099E-2,7.7096187E-4,-2.2235816E-2,1.1753442E-2,2.6252797E-2,4.157255E-3,-2.2882348E-2],"categories":[],"categories_nodes":[],"categories_segments":[],"categories_sizes":[],"default_left":[0,0,0,0,0,0,0,0,0,0,0,0,0,0,0],"id":62,"left_children":[1,3,5,7,9,11,13,-1,-1,-1,-1,-1,-1,-1,-1],"loss_changes":[7.3625364E0,3.3401923E0,4.6967416E0,4.838314E-1,3.6873324E0,6.814041E-1,2.1981113E0,0E0,0E0,0E0,0E0,0E0,0E0,0E0,0E0],"parents":[2147483647,0,0,1,1,2,2,3,3,4,4,5,5,6,6],"right_children":[2,4,6,8,10,12,14,-1,-1,-1,-1,-1,-1,-1,-1],"split_conditions":[2E0,7.925E0,3E0,7.875E0,5.1E1,2.625E1,3.65E1,-1.2670571E-2,-2.6921099E-2,7.7096187E-4,-2.2235816E-2,1.1753442E-2,2.6252797E-2,4.157255E-3,-2.2882348E-2],"split_indices":[2,8,0,8,3,8,3,0,0,0,0,0,0,0,0],"split_type":[0,0,0,0,0,0,0,0,0,0,0,0,0,0,0],"sum_hessian":[1.17209816E2,7.360886E1,4.3600956E1,1.7403193E1,5.6205666E1,1.7939798E1,2.566116E1,1.387185E1,3.5313418E0,5.0047577E1,6.158089E0,7.7053328E0,1.0234465E1,2.3618774E1,2.0423856E0],"tree_param":{"num_deleted":"0","num_feature":"11","num_nodes":"15","size_leaf_vector":"1"}},{"base_weights":[-4.1982203E-4,-1.8787563E-1,3.1407234E-1,-3.0420023E-1,1.833739E-1,6.89542E-1,3.9001882E-2,6.2305313E-3,-1.20578045E-2,1.7528253E-2,-1.8282857E-2,2.2609882E-2,2.0059163E-3,4.4740885E-3,-2.0009812E-2],"categories":[],"categories_nodes":[],"categories_segments":[],"categories_sizes":[],"default_left":[0,0,0,0,0,0,0,0,0,0,0,0,0,0,0],"id":63,"left_children":[1,3,5,7,9,11,13,-1,-1,-1,-1,-1,-1,-1,-1],"loss_changes":[6.9987993E0,3.2679284E0,4.552193E0,2.9354277E0,6.1945305E0,6.9571304E-1,2.1715806E0,0E0,0E0,0E0,0E0,0E0,0E0,0E0,0E0],"parents":[2147483647,0,0,1,1,2,2,3,3,4,4,5,5,6,6],"right_children":[2,4,6,8,10,12,14,-1,-1,-1,-1,-1,-1,-1,-1],"split_conditions":[2E0,2E0,3E0,2E0,4.3E1,4E0,2.345E1,6.2305313E-3,-1.20578045E-2,1.7528253E-2,-1.8282857E-2,2.2609882E-2,2.0059163E-3,4.4740885E-3,-2.0009812E-2],"split_indices":[2,9,0,1,3,6,8,0,0,0,0,0,0,0,0],"split_type":[0,0,0,0,0,0,0,0,0,0,0,0,0,0,0],"sum_hessian":[1.1671664E2,7.338028E1,4.3336353E1,5.6010857E1,1.7369427E1,1.7686962E1,2.5649391E1,8.798711E0,4.7212147E1,1.1710654E1,5.658772E0,1.5844959E1,1.8420031E0,2.2870398E1,2.778995E0],"tree_param":{"num_deleted":"0","num_feature":"11","num_nodes":"15","size_leaf_vector":"1"}},{"base_weights":[-3.9028213E-4,-1.8327008E-1,3.0690125E-1,-5.480159E-1,-6.4232334E-2,6.794545E-1,3.7287634E-2,-1.2278059E-2,-2.7126405E-2,4.1647765E-4,-2.6416976E-2,1.1083148E-2,2.580375E-2,1.133707E-2,-5.635329E-3],"categories":[],"categories_nodes":[],"categories_segments":[],"categories_sizes":[],"default_left":[0,0,0,0,0,0,0,0,0,0,0,0,0,0,0],"id":64,"left_children":[1,3,5,7,9,11,13,-1,-1,-1,-1,-1,-1,-1,-1],"loss_changes":[6.634814E0,3.178329E0,4.399174E0,5.2340126E-1,3.6428044E0,7.148409E-1,2.1117609E0,0E0,0E0,0E0,0E0,0E0,0E0,0E0,0E0],"parents":[2147483647,0,0,1,1,2,2,3,3,4,4,5,5,6,6],"right_children":[2,4,6,8,10,12,14,-1,-1,-1,-1,-1,-1,-1,-1],"split_conditions":[2E0,7.925E0,3E0,3.25E1,5E0,2.625E1,6E0,-1.2278059E-2,-2.7126405E-2,4.1647765E-4,-2.6416976E-2,1.1083148E-2,2.580375E-2,1.133707E-2,-5.635329E-3],"split_indices":[2,8,0,3,6,8,3,0,0,0,0,0,0,0,0],"split_type":[0,0,0,0,0,0,0,0,0,0,0,0,0,0,0],"sum_hessian":[1.1606175E2,7.301287E1,4.3048885E1,1.7078526E1,5.593434E1,1.7435848E1,2.5613035E1,1.3837492E1,3.2410326E0,5.194657E1,3.9877713E0,7.540967E0,9.894882E0,9.92236E0,1.5690675E1],"tree_param":{"num_deleted":"0","num_feature":"11","num_nodes":"15","size_leaf_vector":"1"}},{"base_weights":[-5.7192903E-4,-1.7923512E-1,3.0043766E-1,2.982797E-1,-2.6655552E-1,6.700171E-1,3.6395933E-2,-1.6095394E-2,2.2211142E-2,-1.2995084E-2,1.3118887E-3,1.0859364E-2,2.5548268E-2,4.2645396E-3,-2.0269899E-2],"categories":[],"categories_nodes":[],"categories_segments":[],"categories_sizes":[],"default_left":[0,0,0,0,0,0,0,0,0,0,0,0,0,0,0],"id":65,"left_children":[1,3,5,7,9,11,13,-1,-1,-1,-1,-1,-1,-1,-1],"loss_changes":[6.3236427E0,3.1561568E0,4.249563E0,4.7811728E0,3.2711186E0,7.09445E-1,2.0994136E0,0E0,0E0,0E0,0E0,0E0,0E0,0E0,0E0],"parents":[2147483647,0,0,1,1,2,2,3,3,4,4,5,5,6,6],"right_children":[2,4,6,8,10,12,14,-1,-1,-1,-1,-1,-1,-1,-1],"split_conditions":[2E0,2E0,3E0,1E0,2.62833E1,2.625E1,5E0,-1.6095394E-2,2.2211142E-2,-1.2995084E-2,1.3118887E-3,1.0859364E-2,2.5548268E-2,4.2645396E-3,-2.0269899E-2],"split_indices":[2,1,0,1,8,8,6,0,0,0,0,0,0,0,0],"split_type":[0,0,0,0,0,0,0,0,0,0,0,0,0,0,0],"sum_hessian":[1.1558371E2,7.278625E1,4.2797466E1,1.0878861E1,6.1907383E1,1.7193777E1,2.5603691E1,3.6926074E0,7.1862545E0,4.002116E1,2.188622E1,7.486914E0,9.706862E0,2.2989626E1,2.6140647E0],"tree_param":{"num_deleted":"0","num_feature":"11","num_nodes":"15","size_leaf_vector":"1"}},{"base_weights":[-4.3083244E-4,-1.7474411E-1,2.9374865E-1,-2.4622023E-1,3.851125E-1,6.6066396E-1,3.473343E-2,5.678426E-3,-9.83105E-3,2.4495665E-2,-1.5109682E-2,2.1811375E-2,1.1098114E-3,3.8801988E-3,-2.2455553E-2],"categories":[],"categories_nodes":[],"categories_segments":[],"categories_sizes":[],"default_left":[0,0,0,0,0,0,0,0,0,0,0,0,0,0,0],"id":66,"left_children":[1,3,5,7,9,11,13,-1,-1,-1,-1,-1,-1,-1,-1],"loss_changes":[5.999052E0,3.0343523E0,4.1138477E0,2.3952417E0,3.7495377E0,7.16527E-1,2.0657804E0,0E0,0E0,0E0,0E0,0E0,0E0,0E0,0E0],"parents":[2147483647,0,0,1,1,2,2,3,3,4,4,5,5,6,6],"right_children":[2,4,6,8,10,12,14,-1,-1,-1,-1,-1,-1,-1,-1],"split_conditions":[2E0,4E0,3E0,2E0,4.3E1,4E0,3.65E1,5.678426E-3,-9.83105E-3,2.4495665E-2,-1.5109682E-2,2.1811375E-2,1.1098114E-3,3.8801988E-3,-2.2455553E-2],"split_indices":[2,9,0,1,3,6,3,0,0,0,0,0,0,0,0],"split_type":[0,0,0,0,0,0,0,0,0,0,0,0,0,0,0],"sum_hessian":[1.1498659E2,7.2458176E1,4.252841E1,6.475163E1,7.7065425E0,1.6956924E1,2.5571487E1,9.996969E0,5.475466E1,5.242913E0,2.46363E0,1.5175889E1,1.7810359E0,2.356055E1,2.010937E0],"tree_param":{"num_deleted":"0","num_feature":"11","num_nodes":"15","size_leaf_vector":"1"}},{"base_weights":[-3.320753E-4,-1.7016985E-1,2.8672388E-1,-5.272632E-1,-5.5769935E-2,6.5080196E-1,3.3002004E-2,-1.1611447E-2,-2.6749462E-2,6.826121E-4,-2.6282426E-2,1.0213308E-2,2.511225E-2,-3.6946435E-3,1.5226244E-2],"categories":[],"categories_nodes":[],"categories_segments":[],"categories_sizes":[],"default_left":[0,0,0,0,0,0,0,0,0,0,0,0,0,0,0],"id":67,"left_children":[1,3,5,7,9,11,13,-1,-1,-1,-1,-1,-1,-1,-1],"loss_changes":[5.676369E0,2.9588752E0,3.9765487E0,5.5566263E-1,3.6605783E0,7.395172E-1,2.0306163E0,0E0,0E0,0E0,0E0,0E0,0E0,0E0,0E0],"parents":[2147483647,0,0,1,1,2,2,3,3,4,4,5,5,6,6],"right_children":[2,4,6,8,10,12,14,-1,-1,-1,-1,-1,-1,-1,-1],"split_conditions":[2E0,7.925E0,3E0,3.25E1,5E0,2.625E1,3E0,-1.1611447E-2,-2.6749462E-2,6.826121E-4,-2.6282426E-2,1.0213308E-2,2.511225E-2,-3.6946435E-3,1.5226244E-2],"split_indices":[2,8,0,3,6,8,10,0,0,0,0,0,0,0,0],"split_type":[0,0,0,0,0,0,0,0,0,0,0,0,0,0,0],"sum_hessian":[1.1443051E2,7.214992E1,4.2280594E1,1.6630314E1,5.5519608E1,1.6721321E1,2.5559273E1,1.349836E1,3.131954E0,5.155665E1,3.962961E0,7.332296E0,9.389026E0,1.978808E1,5.771192E0],"tree_param":{"num_deleted":"0","num_feature":"11","num_nodes":"15","size_leaf_vector":"1"}},{"base_weights":[-4.6876035E-4,-1.6644725E-1,2.808014E-1,2.8943178E-1,-2.50867E-1,6.416108E-1,3.246054E-2,1.9274198E-2,-2.127489E-2,-1.2444788E-2,1.483182E-3,2.1347389E-2,7.0409256E-4,3.695585E-3,-2.2891002E-2],"categories":[],"categories_nodes":[],"categories_segments":[],"categories_sizes":[],"default_left":[0,0,0,0,0,0,0,0,0,0,0,0,0,0,0],"id":68,"left_children":[1,3,5,7,9,11,13,-1,-1,-1,-1,-1,-1,-1,-1],"loss_changes":[5.4146914E0,2.8796973E0,3.8360279E0,4.6371017E0,3.077136E0,7.3996305E-1,2.010054E0,0E0,0E0,0E0,0E0,0E0,0E0,0E0,0E0],"parents":[2147483647,0,0,1,1,2,2,3,3,4,4,5,5,6,6],"right_children":[2,4,6,8,10,12,14,-1,-1,-1,-1,-1,-1,-1,-1],"split_conditions":[2E0,2E0,3E0,3E0,2.62833E1,1.5155E2,2.54667E1,1.9274198E-2,-2.127489E-2,-1.2444788E-2,1.483182E-3,2.1347389E-2,7.0409256E-4,3.695585E-3,-2.2891002E-2],"split_indices":[2,1,0,4,8,8,8,0,0,0,0,0,0,0,0],"split_type":[0,0,0,0,0,0,0,0,0,0,0,0,0,0,0],"sum_hessian":[1.13982895E2,7.193942E1,4.2043472E1,1.0860837E1,6.1078587E1,1.649485E1,2.5548624E1,8.287509E0,2.5733287E0,3.926151E1,2.1817076E1,1.4681819E1,1.8130312E0,2.369174E1,1.8568842E0],"tree_param":{"num_deleted":"0","num_feature":"11","num_nodes":"15","size_leaf_vector":"1"}},{"base_weights":[-5.4754183E-4,-1.6246316E-1,2.7411738E-1,-9.272395E-2,-7.461829E-1,6.318305E-1,3.0787997E-2,-5.5286656E-3,1.8980552E-2,-3.0426553E-2,-1.1130725E-2,9.56331E-3,2.4689699E-2,3.6856935E-3,-2.205182E-2],"categories":[],"categories_nodes":[],"categories_segments":[],"categories_sizes":[],"default_left":[0,0,0,0,0,0,0,0,0,0,0,0,0,0,0],"id":69,"left_children":[1,3,5,7,9,11,13,-1,-1,-1,-1,-1,-1,-1,-1],"loss_changes":[5.1307755E0,2.8854103E0,3.704913E0,4.4988527E0,3.8833475E-1,7.7122164E-1,1.9600164E0,0E0,0E0,0E0,0E0,0E0,0E0,0E0,0E0],"parents":[2147483647,0,0,1,1,2,2,3,3,4,4,5,5,6,6],"right_children":[2,4,6,8,10,12,14,-1,-1,-1,-1,-1,-1,-1,-1],"split_conditions":[2E0,5.1E1,3E0,4E0,3E1,2.625E1,3.65E1,-5.5286656E-3,1.8980552E-2,-3.0426553E-2,-1.1130725E-2,9.56331E-3,2.4689699E-2,3.6856935E-3,-2.205182E-2],"split_indices":[2,3,0,9,8,8,3,0,0,0,0,0,0,0,0],"split_type":[0,0,0,0,0,0,0,0,0,0,0,0,0,0,0],"sum_hessian":[1.13368126E2,7.158003E1,4.1788094E1,6.497596E1,6.604074E0,1.6271345E1,2.551675E1,5.8355923E1,6.620038E0,2.858415E0,3.7456589E0,7.1802163E0,9.091128E0,2.3527868E1,1.9888813E0],"tree_param":{"num_deleted":"0","num_feature":"11","num_nodes":"15","size_leaf_vector":"1"}},{"base_weights":[-6.335385E-4,5.5699546E-2,-7.7323127E-1,-2.1182843E-1,3.4120798E-1,-2.8429909E-2,-3.5467672E-3,-3.9083804E-3,-2.9964585E-2,2.2675296E-2,5.181439E-3],"categories":[],"categories_nodes":[],"categories_segments":[],"categories_sizes":[],"default_left":[0,0,0,0,0,0,0,0,0,0,0],"id":70,"left_children":[1,3,5,7,9,-1,-1,-1,-1,-1,-1],"loss_changes":[5.001574E0,8.254206E0,7.8024817E-1,3.4585977E0,3.5164084E0,0E0,0E0,0E0,0E0,0E0,0E0],"parents":[2147483647,0,0,1,1,2,2,3,3,4,4],"right_children":[2,4,6,8,10,-1,-1,-1,-1,-1,-1],"split_conditions":[5E0,1.52458E1,1.7E1,1.4E1,9E0,-2.8429909E-2,-3.5467672E-3,-3.9083804E-3,-2.9964585E-2,2.2675296E-2,5.181439E-3],"split_indices":[6,8,3,8,3,0,0,0,0,0,0],"split_type":[0,0,0,0,0,0,0,0,0,0,0],"sum_hessian":[1.12928894E2,1.0611924E2,6.809657E0,5.4917934E1,5.12013E1,5.0247345E0,1.7849226E0,5.081768E1,4.1002555E0,1.37872305E1,3.741407E1],"tree_param":{"num_deleted":"0","num_feature":"11","num_nodes":"11","size_leaf_vector":"1"}},{"base_weights":[-9.639727E-4,-1.5912282E-1,2.6823226E-1,-9.04366E-2,-7.361144E-1,6.204183E-1,3.201868E-2,-5.3831013E-3,1.8310124E-2,-3.006705E-2,-1.0997922E-2,9.345286E-3,2.4362335E-2,4.040212E-3,-1.9343492E-2],"categories":[],"categories_nodes":[],"categories_segments":[],"categories_sizes":[],"default_left":[0,0,0,0,0,0,0,0,0,0,0,0,0,0,0],"id":71,"left_children":[1,3,5,7,9,11,13,-1,-1,-1,-1,-1,-1,-1,-1],"loss_changes":[4.885908E0,2.7981281E0,3.5134146E0,4.209296E0,3.7495756E-1,7.532816E-1,1.9263043E0,0E0,0E0,0E0,0E0,0E0,0E0,0E0,0E0],"parents":[2147483647,0,0,1,1,2,2,3,3,4,4,5,5,6,6],"right_children":[2,4,6,8,10,12,14,-1,-1,-1,-1,-1,-1,-1,-1],"split_conditions":[2E0,5.1E1,3E0,4E0,3E1,2.625E1,2.345E1,-5.3831013E-3,1.8310124E-2,-3.006705E-2,-1.0997922E-2,9.345286E-3,2.4362335E-2,4.040212E-3,-1.9343492E-2],"split_indices":[2,3,0,9,8,8,8,0,0,0,0,0,0,0,0],"split_type":[0,0,0,0,0,0,0,0,0,0,0,0,0,0,0],"sum_hessian":[1.1275547E2,7.128363E1,4.147184E1,6.473427E1,6.549358E0,1.5995945E1,2.5475895E1,5.8099438E1,6.6348333E0,2.8119495E0,3.7374086E0,7.1297865E0,8.8661585E0,2.2816221E1,2.6596742E0],"tree_param":{"num_deleted":"0","num_feature":"11","num_nodes":"15","size_leaf_vector":"1"}},{"base_weights":[-1.0193734E-3,5.373641E-2,-7.5958073E-1,-2.0542108E-1,3.3031595E-1,-2.7986335E-2,-3.4150602E-3,-3.7611262E-3,-2.9402936E-2,2.207391E-2,4.957263E-3],"categories":[],"categories_nodes":[],"categories_segments":[],"categories_sizes":[],"default_left":[0,0,0,0,0,0,0,0,0,0,0],"id":72,"left_children":[1,3,5,7,9,-1,-1,-1,-1,-1,-1],"loss_changes":[4.746973E0,7.709404E0,7.5482655E-1,3.3284593E0,3.3559837E0,0E0,0E0,0E0,0E0,0E0,0E0],"parents":[2147483647,0,0,1,1,2,2,3,3,4,4],"right_children":[2,4,6,8,10,-1,-1,-1,-1,-1,-1],"split_conditions":[5E0,1.52458E1,1.7E1,1.4E1,9E0,-2.7986335E-2,-3.4150602E-3,-3.7611262E-3,-2.9402936E-2,2.207391E-2,4.957263E-3],"split_indices":[6,8,3,8,3,0,0,0,0,0,0],"split_type":[0,0,0,0,0,0,0,0,0,0,0],"sum_hessian":[1.12304085E2,1.0560993E2,6.694158E0,5.4654995E1,5.0954933E1,4.9272037E0,1.7669542E0,5.0589256E1,4.0657372E0,1.3742067E1,3.7212868E1],"tree_param":{"num_deleted":"0","num_feature":"11","num_nodes":"11","size_leaf_vector":"1"}},{"base_weights":[-1.3361202E-3,-1.558782E-1,2.6270247E-1,2.9540542E-1,-2.3955843E-1,6.0920596E-1,3.3272285E-2,-1.5843669E-2,2.2170225E-2,-4.8265634E-3,-2.5292577E-2,2.0467231E-2,-4.4041636E-4,-5.552275E-3,1.0358755E-2],"categories":[],"categories_nodes":[],"categories_segments":[],"categories_sizes":[],"default_left":[0,0,0,0,0,0,0,0,0,0,0,0,0,0,0],"id":73,"left_children":[1,3,5,7,9,11,13,-1,-1,-1,-1,-1,-1,-1,-1],"loss_changes":[4.657361E0,2.7894197E0,3.3299325E0,4.667757E0,2.7741394E0,7.723241E-1,1.8633157E0,0E0,0E0,0E0,0E0,0E0,0E0,0E0,0E0],"parents":[2147483647,0,0,1,1,2,2,3,3,4,4,5,5,6,6],"right_children":[2,4,6,8,10,12,14,-1,-1,-1,-1,-1,-1,-1,-1],"split_conditions":[2E0,2E0,3E0,1E0,4.9E1,1.5155E2,2E0,-1.5843669E-2,2.2170225E-2,-4.8265634E-3,-2.5292577E-2,2.0467231E-2,-4.4041636E-4,-5.552275E-3,1.0358755E-2],"split_indices":[2,1,0,1,3,8,10,0,0,0,0,0,0,0,0],"split_type":[0,0,0,0,0,0,0,0,0,0,0,0,0,0,0],"sum_hessian":[1.12133286E2,7.099151E1,4.1141773E1,1.0708874E1,6.0282635E1,1.5729916E1,2.541186E1,3.6823053E0,7.026569E0,5.445121E1,5.8314257E0,1.3997742E1,1.7321745E0,1.518935E1,1.0222508E1],"tree_param":{"num_deleted":"0","num_feature":"11","num_nodes":"15","size_leaf_vector":"1"}},{"base_weights":[-1.286009E-3,5.27224E-2,-7.516438E-1,-1.993726E-1,3.2163095E-1,-2.7755052E-2,-3.2881086E-3,-3.6126438E-3,-2.8955847E-2,1.3532123E-2,-4.2341975E-3],"categories":[],"categories_nodes":[],"categories_segments":[],"categories_sizes":[],"default_left":[0,0,0,0,0,0,0,0,0,0,0],"id":74,"left_children":[1,3,5,7,9,-1,-1,-1,-1,-1,-1],"loss_changes":[4.6069317E0,7.2545834E0,7.4896574E-1,3.2311728E0,3.1608782E0,0E0,0E0,0E0,0E0,0E0,0E0],"parents":[2147483647,0,0,1,1,2,2,3,3,4,4],"right_children":[2,4,6,8,10,-1,-1,-1,-1,-1,-1],"split_conditions":[5E0,1.52458E1,1.7E1,1.4E1,4.3E1,-2.7755052E-2,-3.2881086E-3,-3.6126438E-3,-2.8955847E-2,1.3532123E-2,-4.2341975E-3],"split_indices":[6,8,3,8,3,0,0,0,0,0,0],"split_type":[0,0,0,0,0,0,0,0,0,0,0],"sum_hessian":[1.11701614E2,1.05068825E2,6.632789E0,5.436324E1,5.0705585E1,4.874399E0,1.7583896E0,5.033163E1,4.031609E0,3.9642597E1,1.1062989E1],"tree_param":{"num_deleted":"0","num_feature":"11","num_nodes":"11","size_leaf_vector":"1"}},{"base_weights":[-1.7453708E-3,-1.5243278E-1,2.5666794E-1,2.9143128E-1,-2.3489094E-1,5.964461E-1,3.4992665E-2,-1.5428007E-2,2.1788001E-2,-4.7451877E-3,-2.4871811E-2,2.007172E-2,-1.1409288E-3,3.7066739E-3,-2.1242827E-2],"categories":[],"categories_nodes":[],"categories_segments":[],"categories_sizes":[],"default_left":[0,0,0,0,0,0,0,0,0,0,0,0,0,0,0],"id":75,"left_children":[1,3,5,7,9,11,13,-1,-1,-1,-1,-1,-1,-1,-1],"loss_changes":[4.4205437E0,2.6927218E0,3.12883E0,4.4653845E0,2.6504304E0,7.832155E-1,1.8228483E0,0E0,0E0,0E0,0E0,0E0,0E0,0E0,0E0],"parents":[2147483647,0,0,1,1,2,2,3,3,4,4,5,5,6,6],"right_children":[2,4,6,8,10,12,14,-1,-1,-1,-1,-1,-1,-1,-1],"split_conditions":[2E0,2E0,3E0,1E0,4.9E1,4E0,3.65E1,-1.5428007E-2,2.1788001E-2,-4.7451877E-3,-2.4871811E-2,2.007172E-2,-1.1409288E-3,3.7066739E-3,-2.1242827E-2],"split_indices":[2,1,0,1,3,6,3,0,0,0,0,0,0,0,0],"split_type":[0,0,0,0,0,0,0,0,0,0,0,0,0,0,0],"sum_hessian":[1.11518234E2,7.0700874E1,4.0817364E1,1.0679562E1,6.002131E1,1.54481735E1,2.5369192E1,3.679401E0,7.0001607E0,5.4279106E1,5.742206E0,1.3812887E1,1.6352862E0,2.3412546E1,1.9566451E0],"tree_param":{"num_deleted":"0","num_feature":"11","num_nodes":"15","size_leaf_vector":"1"}},{"base_weights":[-1.8901252E-3,5.141673E-2,-7.440642E-1,-1.9368863E-1,3.1283092E-1,-2.7563358E-2,-3.0659393E-3,-3.4859823E-3,-2.8417218E-2,2.0864263E-2,4.685587E-3],"categories":[],"categories_nodes":[],"categories_segments":[],"categories_sizes":[],"default_left":[0,0,0,0,0,0,0,0,0,0,0],"id":76,"left_children":[1,3,5,7,9,-1,-1,-1,-1,-1,-1],"loss_changes":[4.4730635E0,6.8215885E0,7.557392E-1,3.1059158E0,2.9748263E0,0E0,0E0,0E0,0E0,0E0,0E0],"parents":[2147483647,0,0,1,1,2,2,3,3,4,4],"right_children":[2,4,6,8,10,-1,-1,-1,-1,-1,-1],"split_conditions":[5E0,1.52458E1,1.7E1,1.4E1,9E0,-2.7563358E-2,-3.0659393E-3,-3.4859823E-3,-2.8417218E-2,2.0864263E-2,4.685587E-3],"split_indices":[6,8,3,8,3,0,0,0,0,0,0],"split_type":[0,0,0,0,0,0,0,0,0,0,0],"sum_hessian":[1.1109489E2,1.0451854E2,6.5763507E0,5.4075615E1,5.0442924E1,4.830172E0,1.7461787E0,5.0079994E1,3.9956205E0,1.3652759E1,3.6790165E1],"tree_param":{"num_deleted":"0","num_feature":"11","num_nodes":"11","size_leaf_vector":"1"}},{"base_weights":[-2.1799507E-3,4.9853597E-2,-7.3294896E-1,-1.8879081E-1,3.0394065E-1,-2.7215062E-2,-3.0092872E-3,-3.3878332E-3,-2.7902195E-2,3.4021647E-3,1.8504506E-2],"categories":[],"categories_nodes":[],"categories_segments":[],"categories_sizes":[],"default_left":[0,0,0,0,0,0,0,0,0,0,0],"id":77,"left_children":[1,3,5,7,9,-1,-1,-1,-1,-1,-1],"loss_changes":[4.292548E0,6.4499435E0,7.360406E-1,2.9868822E0,2.996787E0,0E0,0E0,0E0,0E0,0E0,0E0],"parents":[2147483647,0,0,1,1,2,2,3,3,4,4],"right_children":[2,4,6,8,10,-1,-1,-1,-1,-1,-1],"split_conditions":[5E0,1.52458E1,1.7E1,1.4E1,2E0,-2.7215062E-2,-3.0092872E-3,-3.3878332E-3,-2.7902195E-2,3.4021647E-3,1.8504506E-2],"split_indices":[6,8,3,8,2,0,0,0,0,0,0],"split_type":[0,0,0,0,0,0,0,0,0,0,0],"sum_hessian":[1.1092805E2,1.0442441E2,6.503638E0,5.39811E1,5.0443306E1,4.7591057E0,1.7445322E0,5.0014904E1,3.9661968E0,3.219791E1,1.8245398E1],"tree_param":{"num_deleted":"0","num_feature":"11","num_nodes":"11","size_leaf_vector":"1"}},{"base_weights":[-2.4752768E-3,4.8380386E-2,-7.22034E-1,-1.8401664E-1,2.960288E-1,-2.687329E-2,-2.9536653E-3,-3.2923357E-3,-2.7399896E-2,3.300046E-3,1.8132957E-2],"categories":[],"categories_nodes":[],"categories_segments":[],"categories_sizes":[],"default_left":[0,0,0,0,0,0,0,0,0,0,0],"id":78,"left_children":[1,3,5,7,9,-1,-1,-1,-1,-1,-1],"loss_changes":[4.1199703E0,6.1090665E0,7.1697617E-1,2.87293E0,2.8773837E0,0E0,0E0,0E0,0E0,0E0,0E0],"parents":[2147483647,0,0,1,1,2,2,3,3,4,4],"right_children":[2,4,6,8,10,-1,-1,-1,-1,-1,-1],"split_conditions":[5E0,1.52458E1,1.7E1,1.4E1,2E0,-2.687329E-2,-2.9536653E-3,-3.2923357E-3,-2.7399896E-2,3.300046E-3,1.8132957E-2],"split_indices":[6,8,3,8,2,0,0,0,0,0,0],"split_type":[0,0,0,0,0,0,0,0,0,0,0],"sum_hessian":[1.1063248E2,1.0420073E2,6.431746E0,5.3888184E1,5.0312546E1,4.688828E0,1.7429183E0,4.9951664E1,3.936522E0,3.2228905E1,1.808364E1],"tree_param":{"num_deleted":"0","num_feature":"11","num_nodes":"11","size_leaf_vector":"1"}},{"base_weights":[-2.7588485E-3,-1.4598478E-1,2.4498068E-1,2.9804978E-1,-2.2833759E-1,5.7182366E-1,3.7715297E-2,-1.5103204E-2,2.2032324E-2,-4.566097E-3,-2.4618082E-2,1.943646E-2,-1.5336339E-3,4.037412E-3,-1.8743958E-2],"categories":[],"categories_nodes":[],"categories_segments":[],"categories_sizes":[],"default_left":[0,0,0,0,0,0,0,0,0,0,0,0,0,0,0],"id":79,"left_children":[1,3,5,7,9,11,13,-1,-1,-1,-1,-1,-1,-1,-1],"loss_changes":[3.9864779E0,2.6709156E0,2.7669003E0,4.4161296E0,2.608104E0,7.865958E-1,1.7692767E0,0E0,0E0,0E0,0E0,0E0,0E0,0E0,0E0],"parents":[2147483647,0,0,1,1,2,2,3,3,4,4,5,5,6,6],"right_children":[2,4,6,8,10,12,14,-1,-1,-1,-1,-1,-1,-1,-1],"split_conditions":[2E0,2E0,3E0,1E0,4.9E1,1.5155E2,2.345E1,-1.5103204E-2,2.2032324E-2,-4.566097E-3,-2.4618082E-2,1.943646E-2,-1.5336339E-3,4.037412E-3,-1.8743958E-2],"split_indices":[2,1,0,1,3,8,8,0,0,0,0,0,0,0,0],"split_type":[0,0,0,0,0,0,0,0,0,0,0,0,0,0,0],"sum_hessian":[1.1034191E2,7.017962E1,4.0162292E1,1.0569765E1,5.960985E1,1.490277E1,2.5259521E1,3.6718109E0,6.8979545E0,5.3933773E1,5.67608E0,1.3245528E1,1.6572416E0,2.2732677E1,2.5268447E0],"tree_param":{"num_deleted":"0","num_feature":"11","num_nodes":"15","size_leaf_vector":"1"}},{"base_weights":[-2.8561854E-3,4.7218017E-2,-7.139824E-1,-1.793968E-1,2.892551E-1,-2.6656073E-2,-2.760611E-3,-1.8367349E-3,-1.8632235E-2,1.9779077E-2,4.124249E-3],"categories":[],"categories_nodes":[],"categories_segments":[],"categories_sizes":[],"default_left":[0,0,0,0,0,0,0,0,0,0,0],"id":80,"left_children":[1,3,5,7,9,-1,-1,-1,-1,-1,-1],"loss_changes":[3.9834557E0,5.78697E0,7.171352E-1,2.8127146E0,2.7706084E0,0E0,0E0,0E0,0E0,0E0,0E0],"parents":[2147483647,0,0,1,1,2,2,3,3,4,4],"right_children":[2,4,6,8,10,-1,-1,-1,-1,-1,-1],"split_conditions":[5E0,1.52458E1,1.7E1,3.3E1,9E0,-2.6656073E-2,-2.760611E-3,-1.8367349E-3,-1.8632235E-2,1.9779077E-2,4.124249E-3],"split_indices":[6,8,3,3,3,0,0,0,0,0,0],"split_type":[0,0,0,0,0,0,0,0,0,0,0],"sum_hessian":[1.0991955E2,1.03560875E2,6.358674E0,5.3618076E1,4.99428E1,4.6305194E0,1.7281548E0,4.319873E1,1.0419343E1,1.35539055E1,3.6388893E1],"tree_param":{"num_deleted":"0","num_feature":"11","num_nodes":"11","size_leaf_vector":"1"}},{"base_weights":[-3.02487E-3,4.5876756E-2,-7.0337945E-1,-1.7476107E-1,2.8105745E-1,-2.6323866E-2,-2.7096302E-3,-3.049009E-3,-2.6861554E-2,1.2887075E-2,-1.9801084E-3],"categories":[],"categories_nodes":[],"categories_segments":[],"categories_sizes":[],"default_left":[0,0,0,0,0,0,0,0,0,0,0],"id":81,"left_children":[1,3,5,7,9,-1,-1,-1,-1,-1,-1],"loss_changes":[3.8248148E0,5.4688773E0,6.986115E-1,2.7813535E0,2.653985E0,0E0,0E0,0E0,0E0,0E0,0E0],"parents":[2147483647,0,0,1,1,2,2,3,3,4,4],"right_children":[2,4,6,8,10,-1,-1,-1,-1,-1,-1],"split_conditions":[5E0,1.52458E1,1.7E1,1.4E1,3.65E1,-2.6323866E-2,-2.7096302E-3,-3.049009E-3,-2.6861554E-2,1.2887075E-2,-1.9801084E-3],"split_indices":[6,8,3,8,3,0,0,0,0,0,0],"split_type":[0,0,0,0,0,0,0,0,0,0,0],"sum_hessian":[1.09736206E2,1.0344757E2,6.288638E0,5.350658E1,4.9940987E1,4.5619497E0,1.7266881E0,4.961299E1,3.8935876E0,3.480834E1,1.5132649E1],"tree_param":{"num_deleted":"0","num_feature":"11","num_nodes":"11","size_leaf_vector":"1"}},{"base_weights":[-3.3850672E-3,-1.4289309E-1,2.3883645E-1,2.954292E-1,-2.240264E-1,5.587497E-1,3.861845E-2,-1.4727377E-2,2.1792946E-2,-4.4907564E-3,-2.4238734E-2,1.904222E-2,-2.2618559E-3,3.9654095E-3,-1.838035E-2],"categories":[],"categories_nodes":[],"categories_segments":[],"categories_sizes":[],"default_left":[0,0,0,0,0,0,0,0,0,0,0,0,0,0,0],"id":82,"left_children":[1,3,5,7,9,11,13,-1,-1,-1,-1,-1,-1,-1,-1],"loss_changes":[3.7705774E0,2.5835857E0,2.5907655E0,4.2499323E0,2.496472E0,8.008256E-1,1.6750388E0,0E0,0E0,0E0,0E0,0E0,0E0,0E0,0E0],"parents":[2147483647,0,0,1,1,2,2,3,3,4,4,5,5,6,6],"right_children":[2,4,6,8,10,12,14,-1,-1,-1,-1,-1,-1,-1,-1],"split_conditions":[2E0,2E0,3E0,1E0,4.9E1,4E0,2.345E1,-1.4727377E-2,2.1792946E-2,-4.4907564E-3,-2.4238734E-2,1.904222E-2,-2.2618559E-3,3.9654095E-3,-1.838035E-2],"split_indices":[2,1,0,1,3,6,8,0,0,0,0,0,0,0,0],"split_type":[0,0,0,0,0,0,0,0,0,0,0,0,0,0,0],"sum_hessian":[1.0957251E2,6.978802E1,3.9784492E1,1.048759E1,5.930043E1,1.4625233E1,2.515926E1,3.6639314E0,6.8236585E0,5.3718422E1,5.582009E0,1.30593605E1,1.5658723E0,2.269593E1,2.4633276E0],"tree_param":{"num_deleted":"0","num_feature":"11","num_nodes":"15","size_leaf_vector":"1"}},{"base_weights":[-3.469034E-3,4.46036E-2,-6.949721E-1,-1.4713416E-1,3.0421206E-1,-2.6116755E-2,-2.484221E-3,-1.5276835E-3,-1.5921198E-2,1.4457301E-2,-1.7655427E-3],"categories":[],"categories_nodes":[],"categories_segments":[],"categories_sizes":[],"default_left":[0,0,0,0,0,0,0,0,0,0,0],"id":83,"left_children":[1,3,5,7,9,-1,-1,-1,-1,-1,-1],"loss_changes":[3.6929164E0,5.218431E0,7.040398E-1,2.2041008E0,2.8980184E0,0E0,0E0,0E0,0E0,0E0,0E0],"parents":[2147483647,0,0,1,1,2,2,3,3,4,4],"right_children":[2,4,6,8,10,-1,-1,-1,-1,-1,-1],"split_conditions":[5E0,1.875E1,1.7E1,3.3E1,3.65E1,-2.6116755E-2,-2.484221E-3,-1.5276835E-3,-1.5921198E-2,1.4457301E-2,-1.7655427E-3],"split_indices":[6,8,3,3,3,0,0,0,0,0,0],"split_type":[0,0,0,0,0,0,0,0,0,0,0],"sum_hessian":[1.0915814E2,1.0293752E2,6.2206206E0,5.945752E1,4.3480003E1,4.5060563E0,1.7145644E0,4.8440067E1,1.101745E1,2.8972393E1,1.4507609E1],"tree_param":{"num_deleted":"0","num_feature":"11","num_nodes":"11","size_leaf_vector":"1"}},{"base_weights":[-3.6861268E-3,-1.3958542E-1,2.3299538E-1,2.9131138E-1,-2.1944149E-1,5.4734826E-1,3.8738128E-2,-1.4343416E-2,2.1416208E-2,-4.410531E-3,-2.3835387E-2,7.142613E-3,2.263746E-2,-3.1440847E-3,1.4014195E-2],"categories":[],"categories_nodes":[],"categories_segments":[],"categories_sizes":[],"default_left":[0,0,0,0,0,0,0,0,0,0,0,0,0,0,0],"id":84,"left_children":[1,3,5,7,9,11,13,-1,-1,-1,-1,-1,-1,-1,-1],"loss_changes":[3.5700786E0,2.4895127E0,2.4513764E0,4.0643573E0,2.3838048E0,8.0659914E-1,1.654051E0,0E0,0E0,0E0,0E0,0E0,0E0,0E0,0E0],"parents":[2147483647,0,0,1,1,2,2,3,3,4,4,5,5,6,6],"right_children":[2,4,6,8,10,12,14,-1,-1,-1,-1,-1,-1,-1,-1],"split_conditions":[2E0,2E0,3E0,1E0,4.9E1,2.625E1,3E0,-1.4343416E-2,2.1416208E-2,-4.410531E-3,-2.3835387E-2,7.142613E-3,2.263746E-2,-3.1440847E-3,1.4014195E-2],"split_indices":[2,1,0,1,3,8,10,0,0,0,0,0,0,0,0],"split_type":[0,0,0,0,0,0,0,0,0,0,0,0,0,0,0],"sum_hessian":[1.0898204E2,6.949132E1,3.9490726E1,1.045094E1,5.9040375E1,1.438876E1,2.5101967E1,3.6582775E0,6.792663E0,5.355178E1,5.4885936E0,6.6354156E0,7.7533445E0,1.9367893E1,5.7340736E0],"tree_param":{"num_deleted":"0","num_feature":"11","num_nodes":"15","size_leaf_vector":"1"}},{"base_weights":[-3.4057247E-3,